0	-0.0549841
1	0.0306258
2	0.00184507
3	0.0769735
4	-0.003475
5	0.0770266
6	0.098273
7	0.00527472
8	-0.0224697
9	0.0160034
10	0.0653624
11	-0.0226046
12	-0.00398604
13	0.092248
14	-0.0775921
15	-0.0463447
16	-0.0279814
17	-0.0584722
18	0.0476944
19	0.0973034
20	-0.00675147
21	-0.0164982
22	0.0691137
23	0.0918844
24	0.0284862
25	-0.00928346
26	-0.0150593
27	0.0237279
28	0.0739491
29	0.0477051
30	-0.0547285
31	0.00581378
32	-0.0994933
33	-0.076881
34	0.051092
35	0.0966436
36	-0.0243475
37	0.0657056
38	-0.0852526
39	-0.0788762
40	-0.0725173
41	0.074877
42	0.0757047
43	-0.0898607
44	-0.0821725
45	-0.0190619
46	0.0181059
47	-0.070616
48	-0.0948847
49	-0.0347162
50	-0.0189274
51	-0.00550616
52	0.0823182
53	0.0334168
54	0.0318348
55	-0.029605
56	0.00211444
57	-0.0192791
58	0.056545
59	-0.0142057
60	0.0802997
61	-0.0768012
62	-0.0450661
63	-0.086651
64	-0.023711
65	-0.0252474
66	-0.0356026
67	0.0994219
68	-0.066497
69	0.0623503
70	-0.0642615
71	0.0688731
72	-0.0996261
73	0.0265509
74	-0.018755
75	-0.0679844
76	-0.0639612
77	-0.0947403
78	0.0244647
79	0.0391617
80	-0.0760387
81	0.0843804
82	0.0638185
83	-0.0945102
84	0.0900211
85	-0.0945513
86	0.0754544
87	-0.000684179
88	0.0750444
89	0.0182515
90	-0.0490893
91	-0.0921348
92	0.0784197
93	0.0609266
94	0.0854394
95	0.0864571
96	-0.0808043
97	0.0729962
98	-0.099727
99	-0.0966221
100	-0.0194238
101	0.076423
102	0.000220878
103	-0.0385091
104	0.00193428
105	0.0920647
106	0.0990578
107	0.0692632
108	0.0663841
109	0.0488408
110	-0.0330617
111	-0.0653293
112	-0.0861905
113	-0.0030492
114	-0.0923655
115	-0.0132921
116	0.0766646
117	-0.0298636
118	0.0900945
119	-0.0248995
120	-0.055312
121	-0.00958303
122	0.0979917
123	0.00534562
124	0.0737493
125	0.0661216
126	0.0506433
127	0.0212716
128	0.0787689
129	-0.0147077
130	0.0985879
131	-0.037936
132	0.0895931
133	0.0193623
134	0.0963157
135	-0.0724837
136	0.0946671
137	-0.0933285
138	-0.0104259
139	-0.0704258
140	-0.0419445
141	0.0184019
142	-0.0128466
143	-0.043741
144	-0.0765538
145	-0.0403424
146	-0.0840431
147	-0.0391634
148	0.0950894
149	-0.094812
150	-0.0697406
151	-0.028203
152	0.0481636
153	-0.0794795
154	-0.0890088
155	0.0877402
156	0.0664682
157	0.00915073
158	-0.0990396
159	-0.0361305
160	-0.0753844
161	0.0174799
162	0.0873445
163	0.0902018
164	-0.0356566
165	-0.0144407
166	0.0952631
167	0.0354995
168	0.0824898
169	0.0876291
170	-0.0815976
171	0.003681
172	-0.0932279
173	0.0650882
174	0.072688
175	0.0123824
176	0.0160968
177	0.0483086
178	0.033255
179	0.0383898
180	0.0735898
181	0.0264949
182	0.087011
183	0.0522617
184	-0.0787397
185	-0.0385874
186	-0.0581549
187	-0.0776042
188	-0.0714683
189	-0.0289185
190	0.0275168
191	-0.0557271
192	0.0415553
193	0.0487446
194	-0.0427517
195	-0.0473168
196	-0.04017
197	-0.0172804
198	0.065258
199	-0.0588997
200	0.0280206
201	-0.0512169
202	0.0271543
203	-0.00549905
204	-0.0585005
205	-0.0837636
206	0.00843933
207	0.0161116
208	-0.0269656
209	0.0153171
210	0.0140947
211	-0.0260645
212	0.0140306
213	0.0610386
214	0.00368886
215	-0.0864738
216	0.0766356
217	0.0340645
218	-0.0933333
219	-0.0868246
220	-0.0660529
221	-0.03575
222	-0.0228045
223	-0.0296822
224	0.0695592
225	-0.0283219
226	0.0283871
227	-0.050455
228	0.0337663
229	0.0667826
230	-0.093509
231	-0.0669602
232	0.00478625
233	-0.00973878
234	0.0851774
235	0.0391916
236	0.0970672
237	0.095938
238	0.0888497
239	0.0821544
240	0.0108849
241	-0.0278872
242	-0.0103209
243	-0.0393486
244	0.0976452
245	0.0921473
246	0.00752105
247	0.0368037
248	-0.064124
249	0.0615573
250	-0.0333172
251	0.0276781
252	-0.090348
253	0.0263787
254	-0.0714852
255	-0.0400335
256	-0.00700094
257	0.0562663
258	-0.0688461
259	0.0417358
260	-0.00770889
261	0.0407821
262	0.0359939
263	-0.0540948
264	-0.0452025
265	-0.0950889
266	-0.057142
267	0.0132242
268	0.0156686
269	0.0906929
270	-0.0217193
271	0.0525388
272	-0.0466972
273	-0.0828531
274	0.0380301
275	0.045348
276	-0.0220872
277	-0.0303543
278	0.0119425
279	0.0696988
280	-0.0737253
281	-0.063356
282	0.021145
283	-0.0303451
284	-0.00169004
285	-0.0740187
286	-0.094379
287	-0.0757359
288	-0.0515266
289	-0.0325357
290	-0.0125
291	0.00707774
292	0.0916151
293	-0.00407653
294	-0.0970391
295	0.0654325
296	-0.0816183
297	0.081249
298	0.0321257
299	0.0234047
300	0.00959745
301	0.00336216
302	-0.0127467
303	-0.0408569
304	-0.0782892
305	-0.0330454
306	-0.0117702
307	0.0825176
308	-0.0168876
309	0.0509517
310	0.0910412
311	-0.0858763
312	-0.0959236
313	0.071862
314	0.0863406
315	-0.0980414
316	0.0313108
317	-0.0236303
318	0.0324788
319	0.0475255
320	-0.0531158
321	-0.0756692
322	-0.0327571
323	-0.0777379
324	0.0351204
325	0.0958665
326	0.0726849
327	-0.0317368
328	-0.0891254
329	0.077146
330	0.0493814
331	-0.0363911
332	-0.0621683
333	-0.0620082
334	0.045728
335	-0.0939236
336	-0.0291354
337	-0.0413359
338	0.0789301
339	-0.0832962
340	0.0920602
341	0.0541645
342	-0.0267717
343	0.0537406
344	-0.065432
345	0.0322163
346	0.0136166
347	-0.062916
348	0.0190487
349	0.0515369
350	-0.00614599
351	-0.0285953
352	0.0295707
353	-0.0538634
354	0.0652952
355	-0.0336226
356	-0.0590616
357	-0.0953627
358	0.0496228
359	0.088344
360	-0.0916955
361	-0.0425112
362	-0.0874791
363	-0.0453094
364	-0.0558078
365	-0.0119983
366	-0.0653749
367	0.00566288
368	0.0964055
369	-0.0392228
370	-0.00150442
371	0.0181441
372	0.0418485
373	-0.0195012
374	0.0250353
375	-0.0649912
376	0.00762184
377	-0.00650947
378	-0.0458611
379	-0.0543241
380	-0.0570888
381	0.0971841
382	0.00999006
383	-0.0241653
384	-0.0849186
385	-0.0245422
386	0.0161874
387	-0.078475
388	-0.09233
389	0.0596435
390	-0.0110226
391	0.0104317
392	-0.0849691
393	-0.0176675
394	-0.0332107
395	0.0315053
396	0.0708583
397	-0.0772196
398	-0.0649609
399	0.0605371
400	-0.0412913
401	-0.0463846
402	0.0532112
403	0.0713206
404	-0.0872481
405	0.0643062
406	0.0651666
407	0.0306375
408	-0.0828157
409	0.0968513
410	0.0236841
411	-0.0496297
412	-0.0710272
413	-0.0223079
414	0.0587073
415	0.0974798
416	-0.0704988
417	0.0309135
418	-0.00910125
419	-0.0689988
420	0.001577
421	-0.0642802
422	0.0689113
423	-0.0945485
424	-0.0281339
425	0.00886067
426	-0.0293605
427	-0.0588917
428	-0.0561727
429	0.0818692
430	0.0336685
431	-0.0846671
432	0.0976449
433	0.0362897
434	0.074037
435	-0.000370097
436	-0.0545068
437	0.0450929
438	0.0667516
439	0.0222068
440	-0.0151597
441	0.0959945
442	-0.0523619
443	-0.0611966
444	-0.0515814
445	0.0828715
446	-0.0889862
447	-0.0147793
448	-0.0865725
449	-0.0280193
450	-0.0462672
451	-0.0153233
452	0.0586819
453	0.0650289
454	0.0199581
455	0.0230543
456	0.0894464
457	-0.0858434
458	0.0573102
459	-0.0027125
460	-0.0245396
461	0.0616111
462	0.0804914
463	0.0140283
464	0.00570688
465	-0.00186314
466	0.0662972
467	0.0556605
468	0.0786985
469	0.0565737
470	0.0467383
471	-0.000328463
472	-0.0686127
473	-0.0959887
474	0.0281569
475	-0.0776521
476	-0.0483529
477	0.00210915
478	-0.0549785
479	-0.00221434
480	-0.077613
481	0.0040962
482	-0.036089
483	-0.0488952
484	0.0909932
485	-0.0400098
486	-0.012493
487	-0.0890256
488	0.0942719
489	-0.0536742
490	0.0663526
491	0.0660762
492	-0.0249278
493	0.00977128
494	0.0214579
495	-0.0438821
496	-0.0222431
497	0.0452978
498	0.0494514
499	0.0885334
500	-0.077167
501	0.0645669
502	0.0837112
503	0.0803998
504	0.0304424
505	5.70728e-05
506	-0.0746686
507	-0.06912
508	-0.0814375
509	0.0276731
510	-0.0296931
511	0.00673621
512	0.0535794
513	0.059248
514	0.0604084
515	0.06707
516	-0.059096
517	0.0192269
518	-0.0765479
519	-0.0547465
520	0.0880979
521	0.0534661
522	-0.0250395
523	-0.0151879
524	-0.0544157
525	-0.0562846
526	-0.0421081
527	0.049758
528	-0.00183958
529	-0.0124305
530	0.0948721
531	0.0856242
532	-0.070202
533	-0.0458656
534	0.0604306
535	-0.0310915
536	-0.0626678
537	-0.0430422
538	-0.0334296
539	0.0106118
540	0.0263281
541	0.0857849
542	-0.0286563
543	0.0658745
544	-0.0835957
545	-0.0149352
546	-0.0833462
547	-0.0332859
548	0.0675222
549	0.0554404
550	0.065041
551	-0.0421193
552	0.0393851
553	0.0467426
554	-0.0578151
555	0.0398394
556	0.000658942
557	0.0389392
558	-0.00792904
559	0.00366784
560	-0.0658282
561	-0.0814403
562	0.0138138
563	0.0677005
564	-0.0123759
565	0.0379341
566	0.0917144
567	-0.0386114
568	0.06235
569	-0.0257777
570	-0.0719613
571	0.0448659
572	0.0403055
573	0.095908
574	0.00126666
575	0.0290085
576	-0.0663058
577	0.0824834
578	0.09671
579	-0.0337576
580	0.0338695
581	-0.0831043
582	0.0567477
583	-0.0632046
584	0.090558
585	-0.0396709
586	0.0253955
587	0.0181362
588	-0.0789743
589	0.00378788
590	0.0648497
591	-0.0134858
592	-0.00190176
593	-0.0685283
594	-0.0991567
595	-0.0302754
596	-0.0766229
597	-0.0612773
598	-0.0222242
599	0.0651177
600	-0.053551
601	0.0651641
602	0.00711657
603	0.0207217
604	-0.0981827
605	-0.0478509
606	-0.0450158
607	0.078559
608	-0.0333531
609	0.0477657
610	0.0974537
611	0.0985495
612	0.0206204
613	-0.0579816
614	0.00443529
615	-0.0313311
616	-0.00894113
617	-0.087894
618	-0.0831042
619	0.0880549
620	0.0272847
621	-0.0223124
622	-0.0304145
623	0.0202135
624	0.0570241
625	-0.0130821
626	0.0178673
627	-0.0329398
628	-0.0901372
629	0.039638
630	-0.0228679
631	0.0171307
632	-0.0521193
633	0.0887732
634	0.0836968
635	-0.0871741
636	0.0742074
637	0.0566346
638	-0.0419955
639	-0.0932939
640	-0.0822235
641	0.0852255
642	0.0693973
643	-0.0985624
644	-0.0641601
645	-0.00564728
646	-0.00227264
647	0.0261388
648	0.0444677
649	-0.0241325
650	-0.0275901
651	-0.0715613
652	-0.0646377
653	-0.0569241
654	0.00736561
655	0.0599123
656	-0.0726585
657	0.00453684
658	-0.00180064
659	-0.040629
660	-0.0884569
661	0.00688281
662	-0.0410187
663	-0.0102236
664	0.0755543
665	0.0874099
666	-0.0501618
667	-0.0366013
668	-0.0877806
669	0.00677662
670	0.0137194
671	-0.0317867
672	0.0484917
673	0.030543
674	0.0727246
675	0.0741368
676	-0.0992809
677	0.0721893
678	0.0394719
679	-0.00815641
680	0.0748115
681	0.0718316
682	0.0933042
683	0.0593772
684	-0.0793465
685	0.0997789
686	0.0850986
687	-0.0745894
688	0.0259656
689	0.0907896
690	0.0686825
691	0.0607824
692	-0.0852959
693	-0.0670016
694	-0.0897719
695	-0.0447745
696	0.0476509
697	0.000513242
698	-0.0579964
699	0.0957055
700	-0.00208127
701	0.0243252
702	0.0949199
703	-0.0911964
704	0.00829069
705	0.0240604
706	0.0596478
707	-0.0382857
708	-0.0366012
709	-0.0876486
710	0.089534
711	0.0883576
712	-0.0294071
713	0.0471863
714	0.0301496
715	0.0275258
716	-0.0943582
717	-0.00546543
718	-0.012847
719	0.0829408
720	0.00369592
721	0.0358162
722	-0.0645729
723	-0.00360353
724	-0.057541
725	-0.0816042
726	0.0667518
727	0.0729526
728	0.0537841
729	-0.0285561
730	0.0122294
731	-0.09255
732	-0.0425659
733	-0.0220841
734	-0.0140428
735	0.0748034
736	-0.06218
737	-0.0698576
738	0.0537909
739	0.00898341
740	-0.0598241
741	-0.0833497
742	-0.00772828
743	-0.023841
744	-0.0781769
745	-0.0934361
746	-0.092515
747	0.0280062
748	0.00142747
749	-0.037179
750	0.0310425
751	-0.0530312
752	-0.0824561
753	-0.0613442
754	-0.0690006
755	0.0480583
756	-0.0543709
757	-0.0387226
758	0.047168
759	-0.002722
760	-0.0652769
761	-0.0835332
762	0.0385038
763	-0.0925554
764	-0.0940805
765	-0.0623903
766	-0.0267457
767	0.0303307
768	-0.0744654
769	-0.0675528
770	-0.0644932
771	-0.0149231
772	-0.0502122
773	0.0294734
774	-0.0304121
775	0.0158102
776	0.0686238
777	0.0154966
778	-0.0528786
779	-0.0861312
780	-0.0417523
781	-0.0396468
782	0.0563439
783	-0.0591489
784	0.0963087
785	0.0507109
786	-0.0409437
787	0.0957887
788	-0.000124569
789	0.091848
790	0.0184559
791	0.00022451
792	0.0511172
793	0.0310409
794	0.0935975
795	0.0791688
796	0.0338486
797	-0.0627934
798	-0.0154215
799	-0.0666515
800	-0.0505984
801	-0.0890595
802	0.0991268
803	0.095408
804	0.0370391
805	0.0332927
806	0.0722446
807	0.0573498
808	0.0311189
809	-0.0651441
810	0.000227587
811	-0.0658122
812	0.0274225
813	-0.0625689
814	0.0550716
815	-0.00081451
816	0.0808631
817	0.0530204
818	0.0176067
819	-0.0999791
820	0.0754853
821	0.0807911
822	-0.0528397
823	0.0871675
824	-0.0259999
825	-0.0921639
826	-0.00183735
827	0.0049783
828	-0.0510524
829	0.0795886
830	-0.0857496
831	-0.0669294
832	-0.060106
833	-0.0853932
834	-0.00328561
835	0.0058489
836	0.0487888
837	-0.00676448
838	0.00724589
839	0.0144942
840	-0.0584833
841	0.0823908
842	-0.0904042
843	0.0958583
844	0.0622091
845	-0.0542837
846	-0.0461853
847	0.0163287
848	0.0319579
849	-0.0363885
850	0.0455872
851	0.0301209
852	0.0718487
853	0.0414151
854	-0.058027
855	0.0240294
856	0.0511912
857	-0.025737
858	0.0899659
859	0.0293477
860	0.0485764
861	0.0182246
862	-0.0629872
863	-0.0946926
864	-0.00633113
865	0.0671254
866	0.0312024
867	-0.0270054
868	0.0154128
869	-0.0606003
870	0.0583797
871	0.0356136
872	-0.0899431
873	-0.00345476
874	-0.0242586
875	0.0191577
876	-0.0704278
877	-0.0687196
878	-0.00624295
879	0.000860252
880	0.0651048
881	0.0258336
882	-0.0365135
883	0.043952
884	-0.00280007
885	-0.0275201
886	-0.0581442
887	-0.0578635
888	0.00773874
889	-0.0115259
890	-0.0688313
891	0.00856446
892	-0.050485
893	0.0160271
894	-0.0112759
895	-0.0656752
896	0.0461029
897	0.0833074
898	0.0119181
899	-0.0860195
900	0.0688549
901	-0.0101728
902	0.0610525
903	0.0113734
904	0.0687474
905	-0.0748892
906	-0.0784493
907	0.0594751
908	0.080693
909	-0.0933306
910	-0.0672662
911	0.032079
912	0.015333
913	-0.0592837
914	-0.0796208
915	-0.0703274
916	-0.0122481
917	-0.0781744
918	0.0404845
919	0.0277738
920	-0.087617
921	-0.0435675
922	-0.0894455
923	0.0808521
924	0.0976547
925	-0.0546572
926	0.0155806
927	-0.0889299
928	0.0926988
929	0.0591026
930	0.0376266
931	0.0170545
932	0.0780517
933	0.0320874
934	0.0654374
935	0.0167033
936	0.0534676
937	-0.0746135
938	-0.064962
939	0.0505958
940	-0.0323326
941	0.0202433
942	-0.00371682
943	0.023957
944	-0.032554
945	-0.0729439
946	0.048304
947	0.0142108
948	0.0694824
949	-0.0290616
950	-0.0592532
951	0.0652822
952	0.072199
953	-0.0454509
954	-0.0830222
955	0.0610599
956	-0.0310451
957	-0.00694691
958	-0.0799629
959	-0.0109611
960	-0.0913926
961	0.0403879
962	-0.0881123
963	-0.0107923
964	0.0145902
965	0.0786153
966	0.00931589
967	-0.0967874
968	-0.0216632
969	0.0396895
970	-0.0407354
971	-0.0393824
972	0.0624901
973	0.070292
974	-0.0150688
975	0.0243354
976	-0.0286766
977	0.0399722
978	0.0890091
979	0.0938032
980	-0.0552294
981	0.0294998
982	-0.0536819
983	-0.0527368
984	0.0951615
985	-0.0827773
986	0.0240622
987	0.0791793
988	0.000325525
989	0.080524
990	0.0374356
991	-0.0682168
992	-0.0763477
993	0.0221743
994	0.0787865
995	0.0820907
996	0.0913125
997	0.0646861
998	-0.0314511
999	-0.0155165
1000	-0.0402765
1001	0.0282138
1002	-0.0399258
1003	-0.0192322
1004	0.0403115
1005	-0.0725879
1006	-0.0775464
1007	0.0918078
1008	-0.0212991
1009	0.0862597
1010	-0.0802053
1011	0.0079349
1012	-0.0364366
1013	-0.0565303
1014	0.0419801
1015	-0.0105575
1016	0.0231349
1017	-0.0965936
1018	0.0376975
1019	0.0974714
1020	0.0651443
1021	-0.0793085
1022	0.0308123
1023	-0.0244201
1024	0.0626254
1025	-0.0406457
1026	-0.026652
1027	-0.0700377
1028	-0.00391816
1029	0.0175293
1030	-0.0932763
1031	-0.0767778
1032	0.0948005
1033	-0.0713816
1034	0.00602798
1035	-0.0196462
1036	-0.0912102
1037	0.032967
1038	0.0452952
1039	0.0753907
1040	-0.0737972
1041	-0.0533431
1042	-0.0138897
1043	0.0641379
1044	0.084311
1045	-0.0371023
1046	0.0822577
1047	0.0175343
1048	-0.0724422
1049	0.0903005
1050	-0.0194605
1051	0.0476309
1052	0.010906
1053	0.0644065
1054	0.0717483
1055	-0.00287236
1056	-0.00406034
1057	0.0075083
1058	-0.0734491
1059	-0.0207231
1060	0.0637844
1061	0.0401297
1062	-0.0293551
1063	-0.00431706
1064	0.0145074
1065	-0.0687358
1066	-0.0407416
1067	0.0637377
1068	-0.0553355
1069	-0.0403876
1070	0.061085
1071	-0.000428114
1072	0.0124741
1073	0.029235
1074	0.028503
1075	0.066442
1076	-0.0882579
1077	-0.0899716
1078	-0.00457889
1079	0.0505153
1080	-0.0218078
1081	-0.0641135
1082	0.0256984
1083	0.0290806
1084	0.0544672
1085	0.0223543
1086	0.0844263
1087	0.0145426
1088	0.0463985
1089	0.09594
1090	0.0911422
1091	-0.0925594
1092	-0.00532615
1093	-0.0791061
1094	-0.0232807
1095	0.0881477
1096	-0.0457149
1097	0.0163949
1098	0.0583234
1099	0.000672839
1100	-0.0731247
1101	-0.092585
1102	-0.0808708
1103	-0.0655613
1104	0.0057058
1105	-0.0921161
1106	-0.0037296
1107	-0.0591343
1108	-0.0470235
1109	0.00649628
1110	0.0725793
1111	-0.0993018
1112	-0.0846935
1113	0.0283754
1114	-0.00595444
1115	-0.025846
1116	0.0982986
1117	-0.043861
1118	0.0294726
1119	0.058608
1120	0.00372147
1121	-0.047649
1122	0.0532027
1123	0.0415754
1124	0.0427581
1125	0.0730675
1126	0.0679699
1127	-0.0707057
1128	-0.0549057
1129	-0.000991232
1130	0.0534492
1131	-0.00899744
1132	-0.0179742
1133	-0.026238
1134	-0.0312763
1135	0.0738911
1136	0.0918191
1137	-0.0552224
1138	0.0538821
1139	0.0351702
1140	-0.0429212
1141	0.0759671
1142	0.00741001
1143	0.0448168
1144	-0.0805941
1145	0.0141748
1146	0.0354681
1147	-0.0262037
1148	0.0603912
1149	0.0372222
1150	6.465e-05
1151	-0.0456157
1152	0.0120459
1153	-0.00709062
1154	-0.0458771
1155	-0.0190322
1156	-0.0815951
1157	-0.0235508
1158	0.0787142
1159	0.0641853
1160	0.0582599
1161	0.0272398
1162	-0.00296558
1163	0.0341553
1164	-0.00527673
1165	0.0781891
1166	0.0567802
1167	-0.0808033
1168	0.00670382
1169	0.0829652
1170	-0.0687397
1171	0.00305098
1172	-0.0932605
1173	-0.0989959
1174	0.0212167
1175	0.0228812
1176	-0.0787069
1177	0.0732108
1178	0.0308187
1179	-0.079715
1180	-0.0972496
1181	-0.0532165
1182	-0.0668533
1183	-0.0135565
1184	-0.0289978
1185	-0.0965848
1186	0.0368243
1187	-0.0226577
1188	0.0880614
1189	0.0907124
1190	-0.0173273
1191	0.079555
1192	-0.0641789
1193	0.0372224
1194	-0.0931626
1195	0.0328978
1196	-0.0277209
1197	0.0870291
1198	-0.0922046
1199	-0.0927228
1200	0.0840295
1201	0.0494098
1202	0.062269
1203	0.043757
1204	0.0665064
1205	0.0245122
1206	0.00221468
1207	0.0933051
1208	-0.0188785
1209	0.0100148
1210	0.0144016
1211	-0.0326121
1212	0.0115896
1213	0.0012443
1214	-0.0190617
1215	0.0645772
1216	0.0490935
1217	-0.0436745
1218	-0.0738621
1219	-0.0633511
1220	-0.0706509
1221	-0.0825193
1222	0.0937225
1223	0.00575884
1224	-0.0987855
1225	-0.0673471
1226	-0.0518687
1227	-0.0717333
1228	-0.0422524
1229	0.0866813
1230	0.0166696
1231	-0.03661
1232	-0.013595
1233	0.0963038
1234	0.0638914
1235	0.0530503
1236	0.0101462
1237	0.00043923
1238	-0.000579142
1239	0.0489938
1240	0.0506687
1241	-0.090288
1242	0.0555954
1243	0.07709
1244	0.0494866
1245	-0.0669656
1246	0.0901191
1247	0.00274485
1248	0.0521695
1249	-0.0676869
1250	0.026928
1251	-0.00523065
1252	-0.00140487
1253	0.032542
1254	-0.0803363
1255	-0.0522034
1256	-0.0470863
1257	-0.0266143
1258	0.0975518
1259	-0.00300817
1260	0.0885131
1261	0.0453594
1262	0.0874321
1263	0.0887429
1264	-0.0496436
1265	-0.078139
1266	-0.0248595
1267	0.0211468
1268	0.0526904
1269	-0.0387508
1270	-0.0746161
1271	-0.0663401
1272	-0.0183414
1273	0.0917068
1274	-0.0282722
1275	0.0867578
1276	0.0847906
1277	0.0610172
1278	-0.0183982
1279	-0.0870589
1280	0.0365485
1281	0.00381551
1282	0.0423214
1283	0.0207317
1284	-0.0529249
1285	-0.0145829
1286	0.0972625
1287	0.000461711
1288	-0.0330865
1289	-0.0668888
1290	-0.0228285
1291	-0.0301977
1292	-0.0369506
1293	0.0275935
1294	0.0655619
1295	-0.0115892
1296	-0.0318346
1297	-0.0262603
1298	0.0815228
1299	0.0738234
1300	-0.0643227
1301	0.0194872
1302	0.0548745
1303	0.0246168
1304	-0.0856091
1305	-0.045218
1306	0.0301473
1307	0.0750407
1308	0.0560111
1309	-0.0886283
1310	0.00262919
1311	-0.0973118
1312	0.0266919
1313	-0.0315271
1314	0.0455743
1315	-0.0403225
1316	0.00559418
1317	-0.0674021
1318	0.0094694
1319	-0.0533826
1320	-0.0786284
1321	0.0898638
1322	0.0492979
1323	0.0573006
1324	0.0513886
1325	0.0616443
1326	-0.0397489
1327	0.0498494
1328	-0.0706081
1329	-0.0443466
1330	-0.0871882
1331	0.0754433
1332	-0.0544413
1333	0.0526712
1334	-0.00412268
1335	-0.0282945
1336	0.00287086
1337	-0.0952598
1338	0.0525809
1339	-0.0256747
1340	-0.0233904
1341	-0.0839193
1342	0.0254647
1343	0.0468057
1344	0.0434614
1345	0.0506289
1346	-0.0912253
1347	-0.0573443
1348	-0.0656881
1349	-0.00571337
1350	-0.029157
1351	-0.0208911
1352	0.0584498
1353	-0.0345689
1354	-0.0132471
1355	0.07254
1356	-0.0611608
1357	0.0152814
1358	-0.0250646
1359	0.0865548
1360	0.00244438
1361	0.0667086
1362	-0.0425619
1363	-0.010595
1364	-0.0978158
1365	-0.0772776
1366	-0.00989617
1367	-0.0203976
1368	-0.0837129
1369	0.0220913
1370	-0.00164788
1371	0.0046848
1372	-0.0767376
1373	0.0406423
1374	-0.0971806
1375	-0.0371235
1376	-0.047919
1377	-0.0172712
1378	-0.0622237
1379	-0.027004
1380	-0.00414437
1381	-0.0381102
1382	-0.0392166
1383	-0.0635706
1384	-0.0464067
1385	0.0635012
1386	-0.0939266
1387	0.0944187
1388	0.0442765
1389	-0.0216687
1390	0.01966
1391	-0.0171669
1392	0.0630023
1393	-0.0636866
1394	0.0270684
1395	0.0710196
1396	0.0559409
1397	-0.0282211
1398	0.0905627
1399	0.0064022
1400	0.0669033
1401	0.0470595
1402	-0.019171
1403	-0.0448686
1404	0.051984
1405	-0.0719554
1406	-0.0336081
1407	-0.0283841
1408	0.0232404
1409	-0.018809
1410	0.0102792
1411	0.0609156
1412	0.0202826
1413	0.00148533
1414	-0.0330592
1415	-0.00256146
1416	-0.016737
1417	0.0788496
1418	0.0668296
1419	-0.0804951
1420	0.0504598
1421	0.060203
1422	0.0847554
1423	0.0742373
1424	0.045826
1425	-0.0926595
1426	-0.0990911
1427	0.0337058
1428	0.0698255
1429	0.0353805
1430	-0.0533935
1431	0.0675139
1432	-0.00735159
1433	0.039287
1434	-0.0603396
1435	0.045395
1436	-0.00893887
1437	-0.0424554
1438	0.08841
1439	-0.0330079
1440	-0.00693877
1441	-0.0718892
1442	0.0378197
1443	-0.0514126
1444	-0.0965005
1445	-0.00304166
1446	-0.0586646
1447	0.0182786
1448	0.020686
1449	0.0927336
1450	0.0459075
1451	0.0309037
1452	0.0742367
1453	-0.0934248
1454	0.00453153
1455	-0.081274
1456	-0.087758
1457	0.0711901
1458	0.0217099
1459	0.0535716
1460	0.0906435
1461	0.0511055
1462	-0.00395124
1463	-0.0171083
1464	0.0924166
1465	-0.0992586
1466	0.00955564
1467	-0.00332055
1468	0.0790134
1469	0.0730501
1470	0.053846
1471	-0.000853788
1472	-0.0119326
1473	-0.0878939
1474	-0.0591213
1475	0.0918437
1476	-0.0392217
1477	0.094425
1478	0.038026
1479	-0.0562199
1480	0.0274803
1481	-0.0795117
1482	0.0625529
1483	-0.00121834
1484	0.0140406
1485	0.0846825
1486	0.0960777
1487	0.099076
1488	-0.0504095
1489	0.03468
1490	-0.0139742
1491	-0.0790879
1492	0.0681042
1493	0.0983528
1494	0.0156832
1495	-0.034628
1496	0.00411868
1497	-0.0775521
1498	-0.0294555
1499	-0.0989284
1500	-0.00284528
1501	-0.0841196
1502	0.0153821
1503	-0.0686232
1504	-0.0130086
1505	-0.0837236
1506	-0.0986658
1507	-0.0262204
1508	0.0465879
1509	0.0586187
1510	-0.0444419
1511	0.0747849
1512	0.0029554
1513	0.0870601
1514	0.0384919
1515	0.0192967
1516	0.061779
1517	-0.0856994
1518	0.0408884
1519	-0.0890622
1520	-0.0643139
1521	0.0178878
1522	-0.083352
1523	0.0723884
1524	0.0839717
1525	0.0898894
1526	-0.018433
1527	0.0271464
1528	0.0579442
1529	0.0408303
1530	-0.0418948
1531	0.0484788
1532	0.0269289
1533	0.0686034
1534	-0.0760759
1535	-0.0857736
1536	0.0881649
1537	0.00210858
1538	-0.039766
1539	-0.0868189
1540	-0.0700005
1541	-0.0500517
1542	-0.0288759
1543	0.0623717
1544	-0.00706869
1545	-0.0712091
1546	-0.03167
1547	-0.056737
1548	-0.0153495
1549	0.0148134
1550	0.0592981
1551	0.0737387
1552	-0.0188422
1553	0.0240974
1554	-0.0450227
1555	0.00886337
1556	0.0657094
1557	0.0727149
1558	0.00263837
1559	0.0286484
1560	0.0560121
1561	0.0173842
1562	-0.0176668
1563	0.0632396
1564	0.0793996
1565	-0.0276173
1566	0.0516824
1567	0.000378886
1568	0.0191792
1569	-0.0625491
1570	-0.062306
1571	-0.0968362
1572	-0.0901856
1573	-0.0707083
1574	0.0436584
1575	-0.0918842
1576	0.0962447
1577	0.0289007
1578	0.0538537
1579	-0.0814249
1580	-0.0491688
1581	0.0696413
1582	0.00670528
1583	0.0574954
1584	0.0892197
1585	0.0653271
1586	0.0850872
1587	-0.00939192
1588	-0.0538045
1589	0.0299904
1590	0.0164643
1591	0.0146101
1592	0.0219124
1593	0.0616072
1594	0.0714264
1595	0.0994341
1596	0.0785959
1597	0.0237251
1598	0.0436474
1599	-0.015707
1600	-0.0604912
1601	0.07764
1602	0.0841536
1603	-0.0164836
1604	-0.0198071
1605	-0.0390958
1606	-0.0187879
1607	-0.00236545
1608	-0.0131128
1609	0.0844641
1610	-6.32138e-05
1611	-0.0617083
1612	-0.0625775
1613	0.0841371
1614	-0.0773189
1615	-0.0392294
1616	-0.0547648
1617	0.0479013
1618	-0.0595168
1619	0.064065
1620	0.0985879
1621	-0.0514461
1622	-0.00265821
1623	0.0328421
1624	0.00707274
1625	-0.0335401
1626	-0.0939045
1627	0.00155313
1628	-0.0841887
1629	-0.0934731
1630	0.0697551
1631	-0.0546607
1632	-0.060762
1633	0.0117793
1634	-0.0996625
1635	-0.0609409
1636	-0.00405265
1637	0.00506874
1638	0.0420736
1639	-0.0019021
1640	-0.0115257
1641	0.0595635
1642	0.0466822
1643	0.075555
1644	0.0515144
1645	-0.0717116
1646	0.0237155
1647	-0.00850037
1648	0.030166
1649	0.0765707
1650	-0.0212302
1651	0.0338276
1652	-0.0243911
1653	-0.0694439
1654	-0.0206206
1655	-0.0939568
1656	0.0313042
1657	0.0365403
1658	0.0899245
1659	-0.0418324
1660	-0.0151128
1661	-0.0165013
1662	-0.00747904
1663	0.0607746
1664	0.0961003
1665	0.0265275
1666	0.0568354
1667	0.0177837
1668	0.0964203
1669	0.0758909
1670	-0.0682914
1671	0.0743976
1672	0.0972091
1673	0.017027
1674	-0.00521363
1675	0.0780908
1676	-0.0880369
1677	0.0655878
1678	0.0236444
1679	-0.0336582
1680	0.0819023
1681	0.00426297
1682	0.072352
1683	-0.0729931
1684	-0.0929444
1685	-0.0865745
1686	-0.0358546
1687	0.0681657
1688	0.0401321
1689	-0.0787881
1690	-0.0368585
1691	0.0528081
1692	0.0704401
1693	-0.0298587
1694	-0.055265
1695	-0.0787701
1696	-0.0809042
1697	-0.0742603
1698	-0.0784429
1699	-0.0848089
1700	0.0779008
1701	-0.0923927
1702	-0.0339226
1703	-0.0301919
1704	0.0188729
1705	-0.0331778
1706	-0.0505468
1707	-0.069177
1708	-0.0476405
1709	-0.00948305
1710	0.0623434
1711	0.06809
1712	-0.0894023
1713	-0.0246563
1714	0.0789597
1715	0.00648086
1716	-0.0530453
1717	-0.0896759
1718	-0.09192
1719	-0.0374825
1720	0.0448722
1721	-0.0987947
1722	0.0173787
1723	0.0888269
1724	0.06515
1725	-0.0939523
1726	0.0718915
1727	0.0188376
1728	-0.075058
1729	-0.0931598
1730	0.00845205
1731	0.079331
1732	0.0363539
1733	0.0259564
1734	0.0241086
1735	-0.00359603
1736	0.0691398
1737	0.0112593
1738	0.00392033
1739	-0.0737996
1740	0.026306
1741	0.0614461
1742	0.0912102
1743	-0.0423876
1744	-0.0476872
1745	0.0223064
1746	-0.0411904
1747	-0.0672623
1748	-0.0841132
1749	0.0334385
1750	-0.0143433
1751	0.0378701
1752	0.022596
1753	0.029755
1754	-0.0207281
1755	0.0277897
1756	0.0162058
1757	-0.0114433
1758	-0.0952671
1759	-0.0266442
1760	-0.0305474
1761	-0.0581989
1762	-0.00886977
1763	0.0633566
1764	-0.0795447
1765	-0.0359974
1766	-0.0317414
1767	0.0327712
1768	0.0971371
1769	-0.0508818
1770	-0.0148082
1771	-0.0677327
1772	-0.0496078
1773	0.0893878
1774	0.00961219
1775	0.0684486
1776	-0.0474618
1777	-0.0857433
1778	0.0322307
1779	-0.00116722
1780	-0.0472314
1781	-0.0557557
1782	0.033355
1783	-0.0693834
1784	-0.0137799
1785	-0.012318
1786	0.045414
1787	0.0806392
1788	0.0728373
1789	-0.0146046
1790	0.021066
1791	-0.099403
1792	0.0387938
1793	-0.0264455
1794	0.00489779
1795	0.0467949
1796	-0.00697554
1797	0.0920762
1798	0.025853
1799	-0.000288142
1800	-0.086459
1801	0.0924168
1802	-0.0258372
1803	0.0794396
1804	0.0517083
1805	0.0962432
1806	0.0860711
1807	0.0726232
1808	0.0225724
1809	0.0440359
1810	-0.0356395
1811	-0.0786076
1812	-0.0195856
1813	-0.0588224
1814	0.0588471
1815	-0.0371965
1816	0.0700822
1817	0.05315
1818	-0.0190569
1819	-0.0224024
1820	-0.0674431
1821	-0.0848995
1822	0.0872069
1823	-0.0848428
1824	-0.0764819
1825	0.0386628
1826	0.0491929
1827	-0.00361622
1828	0.0500912
1829	0.0434984
1830	0.065584
1831	-0.09659
1832	-0.0368015
1833	-0.0401917
1834	0.0612235
1835	-0.032701
1836	0.0212938
1837	-0.0010215
1838	-0.0958951
1839	-0.00635891
1840	0.0305986
1841	0.0856173
1842	-0.017451
1843	-0.0763598
1844	-0.000784644
1845	-0.0562464
1846	-0.0505459
1847	0.022911
1848	-0.0697896
1849	-0.0497319
1850	-0.0515347
1851	-0.0229573
1852	-0.00168027
1853	0.0307239
1854	0.0292468
1855	-0.0796418
1856	0.0165194
1857	-0.029621
1858	0.0893777
1859	0.0679359
1860	0.000355927
1861	-0.0226926
1862	0.00552275
1863	-0.00286926
1864	-0.0102029
1865	-0.0514486
1866	-0.0746331
1867	-0.0676308
1868	0.04839
1869	0.0247618
1870	-2.92973e-05
1871	0.0274976
1872	0.0189373
1873	-0.0781286
1874	-0.0453364
1875	-0.0920958
1876	-0.0390244
1877	0.0560261
1878	0.0925977
1879	-0.058569
1880	-0.0371362
1881	0.0289766
1882	0.00347413
1883	0.000343169
1884	-0.0514641
1885	-0.0919949
1886	0.0725712
1887	0.0926328
1888	0.0345302
1889	0.0620052
1890	0.00438695
1891	-0.0144709
1892	0.0682365
1893	0.042689
1894	0.00432806
1895	0.0186932
1896	0.0956044
1897	-0.0232712
1898	0.0433868
1899	0.0860358
1900	-0.0168322
1901	0.00777912
1902	-0.0557263
1903	0.0398247
1904	-0.0451937
1905	-0.00615602
1906	-0.0429572
1907	0.0906758
1908	0.0267697
1909	0.0402731
1910	-0.075521
1911	0.0923485
1912	0.0892756
1913	-0.0270164
1914	-0.0771813
1915	-0.0555157
1916	0.0821274
1917	0.0581615
1918	0.0200424
1919	-0.0985332
1920	-0.010137
1921	-0.0796375
1922	0.00702797
1923	0.0971936
1924	0.017965
1925	-0.0159381
1926	0.0813859
1927	-0.0337568
1928	-0.042597
1929	0.0605986
1930	-0.0701561
1931	-0.0656001
1932	-0.0182382
1933	0.0133142
1934	0.0900205
1935	0.0455194
1936	0.0492384
1937	-0.0279578
1938	-0.0722789
1939	0.0580756
1940	-0.00502215
1941	0.0979445
1942	0.0722988
1943	-0.0463888
1944	-0.047988
1945	-0.017897
1946	-0.0423648
1947	0.0878825
1948	0.047934
1949	0.068098
1950	0.0413229
1951	0.0474306
1952	0.0240269
1953	-0.09847
1954	0.0961857
1955	0.0156136
1956	0.0644765
1957	-0.063504
1958	-0.0941111
1959	-0.0357287
1960	0.0901394
1961	0.0588268
1962	-0.0932421
1963	0.0156738
1964	0.0364873
1965	0.0470087
1966	-0.06789
1967	-0.045974
1968	0.00657957
1969	-0.0756758
1970	0.0856528
1971	0.0351413
1972	0.061439
1973	0.0229895
1974	0.035964
1975	-0.0877946
1976	-0.0859217
1977	0.0815451
1978	-0.0661594
1979	0.0431637
1980	-0.0374851
1981	-0.0420697
1982	-0.0857997
1983	0.0369181
1984	0.0948106
1985	0.0196433
1986	0.0256872
1987	0.0885026
1988	-0.0708447
1989	0.0247824
1990	0.0400914
1991	0.0214969
1992	0.0699133
1993	-0.0720613
1994	0.0756956
1995	0.0940632
1996	0.0697205
1997	0.0845987
1998	0.0507626
1999	0.0550038
2000	0.0916477
2001	0.0133498
2002	-0.0660761
2003	0.0263331
2004	-0.0146784
2005	0.0944058
2006	-0.00544276
2007	-0.0411486
2008	0.0730376
2009	0.00314973
2010	0.0868226
2011	-0.0832256
2012	0.0295234
2013	0.0606859
2014	-0.0775399
2015	0.0121581
2016	-0.0694935
2017	-0.0807978
2018	-0.0878797
2019	-0.0232134
2020	-0.0577102
2021	0.0170832
2022	0.0559518
2023	-0.034419
2024	0.0379349
2025	-0.0506933
2026	-0.0225837
2027	-0.0192546
2028	0.0367959
2029	0.0684625
2030	0.0443731
2031	0.00163349
2032	0.0521749
2033	-0.0912682
2034	-0.0477059
2035	-0.0823013
2036	0.094894
2037	0.0988911
2038	0.0176615
2039	0.0550948
2040	-0.0692247
2041	-0.08462
2042	-0.0575159
2043	-0.0743644
2044	-0.0223493
2045	-0.0602097
2046	-0.030868
2047	0.0457734
2048	0.0148808
2049	-0.0420945
2050	0.0787435
2051	0.014835
2052	-0.00105128
2053	-0.0745417
2054	-0.0224589
2055	-0.0390151
2056	0.0277689
2057	-0.0407691
2058	0.0162899
2059	-0.0606582
2060	-0.060785
2061	-0.0974734
2062	-0.0388607
2063	-0.0893998
2064	0.0808363
2065	0.0809776
2066	0.00586439
2067	0.0452514
2068	-0.044616
2069	0.0613135
2070	-0.0962077
2071	-0.0313232
2072	0.0790271
2073	0.0244921
2074	-0.0286678
2075	0.0984357
2076	-0.0379974
2077	0.0672992
2078	0.00727551
2079	-0.0690894
2080	-0.0480912
2081	0.0575257
2082	-0.097357
2083	0.0555384
2084	-0.03063
2085	-0.0295874
2086	-0.0776654
2087	0.0914006
2088	-0.00913891
2089	0.00354372
2090	-0.00607459
2091	-0.0350354
2092	0.0643231
2093	-0.0339431
2094	0.0257242
2095	0.0965479
2096	-0.0531586
2097	-0.0935618
2098	0.00115646
2099	0.0359912
2100	-0.0370269
2101	0.0516528
2102	-0.0263461
2103	0.0610892
2104	0.0200697
2105	-0.0788411
2106	-0.0185451
2107	0.0200296
2108	-0.0311912
2109	-0.06036
2110	0.0874463
2111	0.00911459
2112	0.0816105
2113	-0.0290065
2114	-0.0302673
2115	0.0797887
2116	-0.0380245
2117	0.0441984
2118	0.0661
2119	0.0826727
2120	0.0992298
2121	0.0845296
2122	0.0466631
2123	0.0959292
2124	-0.0299717
2125	0.0730306
2126	-0.0367213
2127	0.0998403
2128	0.0611242
2129	-0.0884888
2130	-0.0938786
2131	-0.00154753
2132	0.0480227
2133	-0.0303691
2134	0.0911261
2135	0.0338607
2136	0.0883592
2137	-0.0448674
2138	0.0934826
2139	0.00827199
2140	-0.00617699
2141	0.0790799
2142	-0.0748656
2143	0.0845392
2144	-0.044771
2145	-0.0748228
2146	-0.0390336
2147	0.0988127
2148	0.0949265
2149	0.0343125
2150	-0.0907667
2151	0.0191322
2152	0.0738207
2153	-0.0550683
2154	-0.0305802
2155	-0.076882
2156	-0.0795963
2157	-0.0167555
2158	0.0151352
2159	-0.0181299
2160	0.0954385
2161	0.0624618
2162	0.0897109
2163	0.0475748
2164	-0.095688
2165	0.0861467
2166	-0.0607167
2167	0.0437421
2168	-0.0817421
2169	-0.0109866
2170	-0.066986
2171	-0.0709981
2172	0.0468521
2173	-0.0990864
2174	-0.0363063
2175	-0.0246917
2176	0.0162352
2177	0.0144463
2178	0.0596966
2179	-0.0979305
2180	0.0773998
2181	0.0761763
2182	-0.0499364
2183	0.0789128
2184	0.0282883
2185	-0.00661966
2186	0.055651
2187	-0.0915951
2188	-0.0582282
2189	-0.00585182
2190	-0.0741158
2191	-0.042039
2192	-0.045946
2193	-0.0624704
2194	-0.0848254
2195	-0.0798611
2196	0.0706718
2197	-0.0934872
2198	0.0085372
2199	0.0272259
2200	0.0827339
2201	-0.0949451
2202	0.0526296
2203	-0.0151822
2204	0.0410886
2205	-0.0713501
2206	0.093018
2207	-0.0111231
2208	-0.00657016
2209	-0.0387791
2210	0.0727857
2211	0.0956835
2212	0.0158345
2213	0.0214871
2214	-0.0723399
2215	-0.0185496
2216	-0.0981341
2217	0.0750654
2218	-0.0767177
2219	-0.0112298
2220	-0.0356333
2221	0.0315198
2222	-0.00510899
2223	0.0799375
2224	-0.00118088
2225	-0.0512061
2226	0.0255858
2227	-0.00832298
2228	-0.048202
2229	0.0613814
2230	-0.0259811
2231	0.0386685
2232	-0.0521069
2233	-0.0262815
2234	-0.0373725
2235	0.0507019
2236	-0.0328528
2237	-0.0121657
2238	-0.0713408
2239	-0.0258419
2240	0.0285384
2241	0.050503
2242	0.0195626
2243	-0.0806538
2244	0.0972424
2245	0.0235535
2246	-0.00120971
2247	-0.0927137
2248	0.00568359
2249	-0.0518004
2250	-0.026702
2251	-0.0864077
2252	-0.0588058
2253	-0.0388003
2254	-0.0644838
2255	0.0170786
2256	0.00484489
2257	0.00780828
2258	-0.0783641
2259	0.024829
2260	-0.0735851
2261	0.0433108
2262	0.0227651
2263	-0.0213696
2264	-0.0605543
2265	-0.00557314
2266	0.0887041
2267	0.0534115
2268	-0.0281788
2269	0.0226039
2270	0.0938259
2271	0.0215614
2272	-0.0783187
2273	-0.0452135
2274	-0.0096469
2275	0.0971781
2276	0.0323971
2277	0.0877983
2278	0.014441
2279	-0.0586722
2280	-0.0539217
2281	0.0827405
2282	0.070802
2283	-0.0369476
2284	0.0268007
2285	0.0869957
2286	-0.0697688
2287	-0.0115033
2288	0.0624132
2289	-0.0101212
2290	0.0795289
2291	0.0876423
2292	0.0612454
2293	0.0622286
2294	0.0624164
2295	-0.0649397
2296	0.00313885
2297	-0.0602193
2298	0.071955
2299	-0.0370121
2300	0.0437189
2301	-0.0944596
2302	0.0693622
2303	-0.0181296
2304	-0.0676237
2305	0.0342491
2306	0.0451087
2307	-0.0791073
2308	0.0529592
2309	0.0306887
2310	-0.0170927
2311	-0.0909174
2312	-0.0668219
2313	-0.0653086
2314	-0.00982533
2315	-0.0404855
2316	-0.0252731
2317	-0.0634621
2318	0.0830116
2319	-0.0821795
2320	-0.0644629
2321	0.0678435
2322	0.0266755
2323	0.00324754
2324	-0.0620161
2325	-0.0263193
2326	-0.0348635
2327	0.0568518
2328	0.0222454
2329	-0.0111731
2330	-0.00318033
2331	0.07354
2332	-0.0731729
2333	0.0841466
2334	0.00728284
2335	-0.0159354
2336	0.03926
2337	-0.0229542
2338	-0.0625472
2339	-0.0986193
2340	-0.0466771
2341	-0.0696914
2342	-0.0436831
2343	0.0430957
2344	0.0608729
2345	-0.0639688
2346	-0.0560988
2347	-0.0624624
2348	0.00528919
2349	-0.0476986
2350	-0.0720293
2351	-0.0663812
2352	-0.0745455
2353	-0.0983994
2354	-0.0835765
2355	0.0285641
2356	-0.072993
2357	0.0516241
2358	0.0199056
2359	-0.0169857
2360	0.0845254
2361	0.0401283
2362	0.0140279
2363	-0.00747247
2364	-0.0957493
2365	0.040599
2366	-0.0620647
2367	0.0994515
2368	-0.0532257
2369	0.00938863
2370	-0.000287456
2371	-0.0221412
2372	0.0851051
2373	-6.3476e-05
2374	0.0288938
2375	-0.0995362
2376	0.0629132
2377	-0.0664139
2378	-0.0351464
2379	-0.0419398
2380	0.0876702
2381	-0.00649745
2382	0.0620442
2383	-0.0503603
2384	-0.0784975
2385	0.0921261
2386	-0.0394506
2387	-0.0441443
2388	-0.0506796
2389	-0.0832776
2390	0.0177402
2391	-0.0979174
2392	-0.0397524
2393	-0.0852472
2394	-0.0603049
2395	0.0250728
2396	-0.0663944
2397	-0.00181735
2398	0.0211104
2399	0.0307361
2400	0.00223564
2401	0.0855284
2402	0.0232344
2403	-0.087306
2404	-0.0498504
2405	0.0593384
2406	-0.0498132
2407	0.0433953
2408	-0.00252573
2409	-0.0371065
2410	0.0969043
2411	-0.0860512
2412	0.00440039
2413	-0.031728
2414	-0.0691969
2415	0.00586503
2416	-0.0853029
2417	0.0366188
2418	-0.0758048
2419	0.0907085
2420	-0.0970527
2421	0.0462463
2422	0.0481672
2423	0.0751674
2424	0.0972355
2425	0.0371877
2426	-0.0287731
2427	-0.0515981
2428	-0.0311525
2429	0.0748389
2430	-0.0318292
2431	-0.0165907
2432	-0.0228727
2433	0.0799271
2434	-0.0933251
2435	0.000529609
2436	-0.0359409
2437	0.0366835
2438	0.0946774
2439	-0.0393812
2440	0.0925809
2441	0.0174749
2442	0.027528
2443	0.0543621
2444	-0.0918774
2445	-0.0773345
2446	-0.0929393
2447	0.0312574
2448	-0.0469312
2449	0.0518766
2450	0.0543274
2451	-0.0530039
2452	-0.0637673
2453	-0.00337582
2454	0.0160947
2455	0.0299507
2456	0.0277072
2457	0.0838254
2458	-0.0122656
2459	0.0524583
2460	0.0421266
2461	-0.0402623
2462	0.0486728
2463	0.0153404
2464	-0.0432904
2465	0.0826784
2466	-0.0693501
2467	0.011838
2468	-0.0379432
2469	-0.0781209
2470	-0.0273622
2471	0.090718
2472	0.0329965
2473	0.0537897
2474	-0.0724605
2475	-0.0493698
2476	0.0468224
2477	0.0869271
2478	-0.0258769
2479	-0.0916659
2480	-0.0664653
2481	0.0971702
2482	-0.0953062
2483	-0.0519637
2484	-0.00703101
2485	0.0689983
2486	-0.0834524
2487	-0.0479832
2488	0.0667018
2489	-0.0662752
2490	0.0595983
2491	-0.032059
2492	-0.00384147
2493	0.0425902
2494	-0.050125
2495	0.0533977
2496	0.0648992
2497	-0.0703092
2498	0.0939462
2499	0.0226632
2500	-0.0727336
2501	0.00695936
2502	0.0433787
2503	-0.0760971
2504	0.00892946
2505	0.0299314
2506	-0.0147922
2507	-0.0196169
2508	-0.0899931
2509	-0.0746922
2510	-0.0666174
2511	-0.0420943
2512	-0.0114808
2513	0.00309793
2514	0.0366347
2515	-0.0805233
2516	-0.0893783
2517	-0.0428624
2518	0.0956742
2519	0.0701186
2520	0.0131952
2521	-0.0642846
2522	-0.0224872
2523	-0.0392692
2524	0.0843425
2525	0.0797122
2526	-0.0562975
2527	-0.0365793
2528	0.0628952
2529	0.0349164
2530	-0.0596025
2531	0.00668819
2532	0.0951187
2533	-0.0791678
2534	-0.0661838
2535	-0.0552739
2536	0.0541705
2537	-0.0443562
2538	-0.0146038
2539	-0.0248585
2540	0.063979
2541	-0.0883817
2542	0.0171203
2543	-0.0894919
2544	-0.0241389
2545	-0.00698315
2546	-0.0966438
2547	0.0399415
2548	-0.0568164
2549	-0.0472412
2550	0.0371091
2551	-0.0599423
2552	0.0404595
2553	0.0249338
2554	-0.0896401
2555	-0.0720039
2556	-0.0963965
2557	0.0758952
2558	0.0336021
2559	-0.0872017
2560	0.0752934
2561	0.0258417
2562	-0.0551175
2563	-0.0239019
2564	-0.0307176
2565	-0.0201852
2566	-0.0433759
2567	-0.0672627
2568	-0.0674829
2569	0.0310918
2570	-0.0705844
2571	0.0560955
2572	-0.0907745
2573	-0.0623293
2574	-0.0239141
2575	-0.0907663
2576	-0.0923946
2577	0.0331011
2578	0.00777361
2579	-0.0299146
2580	-0.0090754
2581	-0.085369
2582	-0.0398438
2583	0.0400683
2584	-0.025191
2585	0.09653
2586	-0.0153187
2587	-0.041177
2588	0.0929617
2589	0.0125928
2590	-0.0719689
2591	-0.0852934
2592	0.0575693
2593	0.0212352
2594	-0.065297
2595	-0.0544335
2596	0.00297798
2597	-0.0448518
2598	0.075189
2599	-0.0540997
2600	0.0614176
2601	0.0250137
2602	-0.0241795
2603	-0.0421725
2604	0.0343715
2605	-0.0257338
2606	-0.0505146
2607	-0.005817
2608	-0.0354081
2609	-0.0527196
2610	0.0361142
2611	0.0656114
2612	-0.030492
2613	0.00896411
2614	0.0895042
2615	0.0111275
2616	0.0974554
2617	0.0413859
2618	0.0193052
2619	-0.0847531
2620	0.0277453
2621	0.0904906
2622	0.0778821
2623	0.0382773
2624	-0.00661167
2625	-0.0631574
2626	0.0763607
2627	-0.0705728
2628	-0.0998565
2629	0.0372456
2630	-0.0569089
2631	-0.0945674
2632	0.0874342
2633	0.0387468
2634	0.0523649
2635	0.0803261
2636	0.0440831
2637	-0.0273081
2638	0.059111
2639	0.0888221
2640	0.0122951
2641	0.083529
2642	0.0473916
2643	-0.0643394
2644	-0.0839286
2645	0.0585456
2646	0.025476
2647	0.055742
2648	0.029938
2649	-0.0172765
2650	-0.0135763
2651	0.0301288
2652	-0.0177277
2653	0.0950484
2654	-0.0662721
2655	-0.0542297
2656	-0.0791991
2657	-0.0165408
2658	-0.0717123
2659	0.0785222
2660	0.0879642
2661	-0.00990355
2662	0.029529
2663	-0.0228755
2664	0.00968406
2665	-0.0665194
2666	-0.00943334
2667	-0.0246162
2668	-0.00427141
2669	0.0347841
2670	-0.0878467
2671	0.0100942
2672	0.0615706
2673	-0.0711981
2674	0.0775783
2675	-0.00259135
2676	0.0236672
2677	-0.0615703
2678	0.0588102
2679	0.022102
2680	0.0439448
2681	-0.0438411
2682	-0.0459038
2683	-0.0242696
2684	0.00338255
2685	0.0395161
2686	-0.0975293
2687	-0.0630544
2688	-0.0181207
2689	0.0692551
2690	0.0665827
2691	0.0582489
2692	-0.0212908
2693	0.00281218
2694	-0.0994801
2695	-0.0467153
2696	0.0703682
2697	-0.044198
2698	0.00956653
2699	-0.06277
2700	-0.0703745
2701	-0.0122907
2702	0.0373784
2703	0.0225168
2704	-0.0269884
2705	-0.0500367
2706	-0.000132476
2707	-0.0510042
2708	0.00367525
2709	-0.0573851
2710	0.0750224
2711	0.0383056
2712	0.0211694
2713	0.0423302
2714	-0.0848055
2715	0.0563816
2716	0.0959103
2717	-0.0414978
2718	0.0971543
2719	-0.0578907
2720	-0.0665552
2721	0.0144965
2722	-0.0826365
2723	-0.0436603
2724	0.0550346
2725	0.0173541
2726	0.0104363
2727	0.0488988
2728	-0.086113
2729	0.0152419
2730	-0.0722207
2731	-0.00703547
2732	0.0219242
2733	-0.00746895
2734	-0.0291599
2735	-0.0791444
2736	0.0225535
2737	-0.0278279
2738	0.0816194
2739	-0.046602
2740	-0.00122303
2741	0.0298888
2742	-0.0719144
2743	-0.0857283
2744	0.0580973
2745	-0.0779616
2746	-0.0487129
2747	-0.0209288
2748	0.0247446
2749	-0.026369
2750	0.0746517
2751	-0.0125103
2752	0.0363081
2753	0.00628024
2754	-0.0441099
2755	-0.0687569
2756	0.054938
2757	-0.0349732
2758	0.0679801
2759	-0.0681565
2760	-0.03413
2761	0.0887717
2762	0.0488131
2763	0.0135943
2764	0.0460181
2765	0.00253225
2766	0.0364328
2767	0.0106607
2768	0.00659505
2769	0.0554476
2770	0.0952668
2771	-0.0704941
2772	0.0732052
2773	0.0415819
2774	-0.0135037
2775	0.0799008
2776	0.0924856
2777	0.0318606
2778	-0.0702926
2779	-0.0437797
2780	0.0115379
2781	0.0028193
2782	-0.0181184
2783	-0.0843957
2784	-0.0663831
2785	-0.0355754
2786	-0.0799869
2787	0.0152153
2788	-0.0630006
2789	-0.0693231
2790	-0.0357676
2791	0.0797027
2792	0.0843435
2793	-0.0941582
2794	0.00259449
2795	-0.072144
2796	0.00102061
2797	-0.0342292
2798	-0.0663381
2799	0.00616235
2800	-0.0606073
2801	0.0455024
2802	-0.0242098
2803	0.0580562
2804	-0.0544105
2805	-0.0210735
2806	0.0317705
2807	0.0902353
2808	0.0812583
2809	0.0384787
2810	0.000993346
2811	-0.076631
2812	0.0116134
2813	0.0159771
2814	-0.0483273
2815	-0.0738774
2816	-0.0825784
2817	0.012599
2818	-0.0726934
2819	0.0300147
2820	0.0346701
2821	-0.0950632
2822	-0.0539605
2823	-0.0978314
2824	-0.0284824
2825	0.0237016
2826	0.0247108
2827	-0.0166003
2828	0.0598912
2829	0.0312928
2830	0.0687242
2831	-0.00837209
2832	-0.0500903
2833	-0.0672527
2834	-0.0555804
2835	-0.0952341
2836	0.088242
2837	-0.0122462
2838	-0.0940636
2839	-0.0288244
2840	-0.000537754
2841	0.0877046
2842	0.036586
2843	-0.0175139
2844	-0.0886226
2845	0.092261
2846	0.0705265
2847	-0.0772226
2848	-0.0876532
2849	-0.0358374
2850	0.0167474
2851	-0.0777313
2852	0.0836587
2853	0.0651573
2854	-0.0367181
2855	0.0165877
2856	-0.0324308
2857	-0.0631849
2858	0.0108211
2859	-0.0909022
2860	0.0931321
2861	-0.0140024
2862	-0.0553934
2863	-0.0109783
2864	0.0613927
2865	-0.0232801
2866	-0.0923697
2867	0.0260386
2868	-0.099827
2869	-0.0311263
2870	-0.0288258
2871	-0.0157592
2872	0.02776
2873	-0.0522123
2874	0.0929709
2875	-0.041215
2876	0.0752469
2877	-0.0289268
2878	0.00794975
2879	0.0441082
2880	0.0629652
2881	-0.0773196
2882	-0.0489648
2883	-0.0395402
2884	0.00843248
2885	0.0110314
2886	-0.0767891
2887	-0.0807661
2888	-0.0130331
2889	-0.0843923
2890	0.0920517
2891	-0.0800698
2892	-0.0930349
2893	0.041758
2894	0.0982858
2895	-0.0829929
2896	-0.00955107
2897	0.0860127
2898	-0.00490521
2899	0.0278651
2900	-0.0877252
2901	0.0786816
2902	0.015329
2903	0.0846917
2904	-0.0101689
2905	-0.0735611
2906	-0.0758086
2907	0.0765971
2908	0.0226445
2909	0.0834296
2910	-0.0997751
2911	0.0403321
2912	-0.0226319
2913	0.0682107
2914	0.0966135
2915	0.00204259
2916	0.00422297
2917	0.0755023
2918	0.00716912
2919	0.0408342
2920	-0.0581721
2921	0.0999844
2922	-0.00734694
2923	0.0764483
2924	0.0652441
2925	0.0886492
2926	-0.0413023
2927	-0.0961094
2928	-0.0683626
2929	0.0621255
2930	-0.00909704
2931	0.0554407
2932	0.0666521
2933	0.0825286
2934	-0.0922295
2935	-0.017728
2936	0.0147619
2937	0.0111294
2938	0.0083939
2939	0.0796058
2940	0.00370576
2941	0.0612371
2942	-0.0955028
2943	0.0359348
2944	0.0194779
2945	-0.0997245
2946	-0.0980666
2947	0.0731096
2948	-0.0210851
2949	0.0844009
2950	-0.0112478
2951	-0.00798465
2952	-0.014649
2953	0.0311768
2954	-0.0200067
2955	0.0385203
2956	0.0112234
2957	0.00391073
2958	-0.015319
2959	0.0435228
2960	-0.0310149
2961	-0.0800826
2962	0.0944829
2963	0.0393999
2964	-0.0731431
2965	0.0837785
2966	-0.0485641
2967	0.0173534
2968	-0.048749
2969	-0.0227452
2970	0.0798124
2971	0.00318859
2972	0.0857959
2973	0.096113
2974	0.0754181
2975	-0.040574
2976	0.0656188
2977	-0.0871551
2978	-0.0218905
2979	-0.0255526
2980	0.0243611
2981	0.0162643
2982	-0.0863183
2983	-0.079334
2984	-0.0807518
2985	-0.0177819
2986	0.0367936
2987	-0.0301552
2988	-0.0307026
2989	-0.0696828
2990	0.0888542
2991	0.0598885
2992	-0.0632703
2993	-0.0375971
2994	0.0705057
2995	-0.0495123
2996	0.0989732
2997	0.0597752
2998	-0.0308146
2999	-0.0631429
3000	0.0583404
3001	0.0990288
3002	0.0222573
3003	0.0386705
3004	-0.049982
3005	-0.00946936
3006	0.0616792
3007	-0.0702869
3008	-0.053259
3009	-0.045024
3010	0.0503861
3011	0.0705775
3012	0.0945405
3013	-0.072888
3014	-0.00595248
3015	-0.0265925
3016	0.0226925
3017	-0.0827286
3018	-0.0216259
3019	-0.00154162
3020	-0.0411166
3021	0.0962264
3022	0.00869113
3023	0.0868935
3024	0.0600749
3025	0.0752759
3026	-0.0478912
3027	0.00757498
3028	-0.0588001
3029	0.000245132
3030	0.0576619
3031	0.089141
3032	-0.0685524
3033	-0.0416765
3034	0.0529643
3035	-0.003365
3036	0.0361953
3037	-0.0702017
3038	-0.010797
3039	0.0951614
3040	-0.0684171
3041	0.0902645
3042	0.0745999
3043	0.0154613
3044	0.0737739
3045	0.0481365
3046	0.0419315
3047	-0.0706909
3048	-0.0707199
3049	-0.0576382
3050	-0.0837524
3051	-0.0131223
3052	-0.0146572
3053	0.0133667
3054	-0.0994841
3055	-0.0412924
3056	0.00510054
3057	-0.033699
3058	0.071715
3059	-0.05304
3060	-0.0994757
3061	-0.0644044
3062	0.0740012
3063	0.0895149
3064	0.0423605
3065	0.0409466
3066	0.0375512
3067	0.074685
3068	-0.0941927
3069	-0.0214566
3070	-0.0368931
3071	0.0726473
3072	0.030748
3073	0.0706398
3074	-0.0730162
3075	0.0519823
3076	0.0108469
3077	0.00678607
3078	-0.0160354
3079	-0.00723435
3080	0.00840327
3081	-0.0089576
3082	0.0851398
3083	-0.0263868
3084	0.0727185
3085	0.0283618
3086	0.00401854
3087	0.0781588
3088	-0.00613266
3089	0.0880726
3090	-0.0994097
3091	0.0555957
3092	0.00865916
3093	0.080349
3094	-0.0369463
3095	0.0158927
3096	-0.0744906
3097	-0.00235265
3098	-0.0102399
3099	-0.0277176
3100	-0.0583895
3101	0.0699446
3102	-0.00505178
3103	-0.00504687
3104	-0.034867
3105	-0.0545708
3106	0.0548608
3107	0.0160175
3108	-0.0731925
3109	0.0561235
3110	-0.0180825
3111	-0.0911828
3112	-0.0286267
3113	0.00349294
3114	-0.0053744
3115	-0.0999101
3116	-0.0727924
3117	-0.0431049
3118	0.0375597
3119	0.00365671
3120	0.0120929
3121	-0.0664047
3122	0.0594985
3123	-0.0555556
3124	-0.00653321
3125	0.0355045
3126	0.0837139
3127	0.0959852
3128	-0.0932024
3129	0.0279263
3130	0.0871926
3131	-0.00514699
3132	-0.0551528
3133	-0.0374991
3134	-0.0347073
3135	-0.0386763
3136	-0.0386568
3137	0.0609764
3138	-0.0509379
3139	-0.0829593
3140	0.0741789
3141	0.038751
3142	0.0865964
3143	-0.0194857
3144	0.0669113
3145	0.00819361
3146	-0.0167179
3147	-0.0778851
3148	0.0774204
3149	-0.0294345
3150	0.00750962
3151	0.0357839
3152	-0.0870796
3153	0.0867836
3154	0.0894421
3155	-0.0213297
3156	0.0373709
3157	0.0220787
3158	-0.0013372
3159	0.0175905
3160	0.0321202
3161	0.0931335
3162	0.0837805
3163	0.0771634
3164	0.0755251
3165	0.0944901
3166	0.0548777
3167	0.0482127
3168	0.0619223
3169	-0.0601252
3170	-0.0953492
3171	0.0274853
3172	0.0776114
3173	0.0223478
3174	-0.0675422
3175	-0.0664272
3176	-0.0122849
3177	-0.0567393
3178	0.0484099
3179	0.042455
3180	0.0785751
3181	0.045512
3182	0.0277207
3183	-0.0609978
3184	-0.0214134
3185	-0.049919
3186	-0.0815787
3187	0.0766621
3188	0.0585345
3189	-0.0257282
3190	-0.0678917
3191	-0.0142868
3192	-0.0820838
3193	-0.0249964
3194	0.0291148
3195	-0.0196838
3196	0.0525429
3197	0.00989277
3198	-0.0555926
3199	-0.0485099
3200	-0.0702158
3201	-0.0592222
3202	-0.0285842
3203	-0.0342998
3204	-0.0999433
3205	0.032417
3206	0.0488443
3207	0.0126797
3208	0.0566907
3209	-0.0275044
3210	-0.0724413
3211	0.0179791
3212	0.0132485
3213	0.0516472
3214	0.0481577
3215	-0.0487955
3216	0.0168553
3217	0.0864305
3218	-0.019753
3219	0.0746445
3220	0.0463485
3221	-0.0572657
3222	-0.0956704
3223	-0.0140983
3224	-0.0715315
3225	0.0655246
3226	-0.0333616
3227	-0.0204108
3228	0.0656301
3229	-0.05737
3230	-0.0459003
3231	0.059702
3232	-0.0100073
3233	0.0535548
3234	-0.02915
3235	0.03401
3236	-0.0164384
3237	-0.0201325
3238	-0.0861424
3239	-0.0352079
3240	0.00165252
3241	-0.0389713
3242	0.0456918
3243	-0.058008
3244	0.0941741
3245	0.0424203
3246	0.0788657
3247	0.0096818
3248	0.0792317
3249	0.0572323
3250	-0.0835227
3251	-0.0116221
3252	0.0801576
3253	0.0304101
3254	0.0920392
3255	0.0883169
3256	0.0309488
3257	-0.0531773
3258	-0.051618
3259	-0.0401494
3260	0.000442335
3261	0.0340652
3262	-0.0497044
3263	-0.0838584
3264	0.024495
3265	0.039649
3266	0.0279825
3267	-0.0985795
3268	0.0128279
3269	-0.0363244
3270	-0.0180326
3271	-0.0280161
3272	-0.016022
3273	0.04286
3274	-0.0143627
3275	0.0626929
3276	-0.0957607
3277	-0.0251989
3278	-0.0152969
3279	0.0718288
3280	0.00503484
3281	0.0611729
3282	-0.0843639
3283	0.0515921
3284	0.0883769
3285	0.0223573
3286	0.060244
3287	-0.0962147
3288	-0.0904939
3289	0.0986963
3290	0.0327044
3291	-0.0950753
3292	0.0488503
3293	0.00725017
3294	-0.0753889
3295	0.0913248
3296	0.0515277
3297	-0.0741806
3298	-0.0817565
3299	-0.0906542
3300	-0.0106946
3301	-0.0864567
3302	-0.0139075
3303	-0.0293373
3304	-0.0674026
3305	0.0731083
3306	0.0900076
3307	-0.0938244
3308	-0.00771106
3309	-0.0863523
3310	0.0386978
3311	0.0694397
3312	0.0943012
3313	-0.0729093
3314	0.0692608
3315	0.0569331
3316	-0.0409461
3317	0.0285098
3318	0.0967042
3319	-0.0667742
3320	0.00135705
3321	-0.0753365
3322	0.0751894
3323	0.031009
3324	0.0615979
3325	0.0355747
3326	0.0689404
3327	-0.039237
3328	0.0701162
3329	-0.0594266
3330	0.0530814
3331	-0.0985062
3332	0.0094766
3333	-0.0994256
3334	-0.0302098
3335	-0.0599069
3336	-0.069984
3337	-0.0572455
3338	0.0316519
3339	0.00346579
3340	0.0523129
3341	-0.0705521
3342	-0.0937655
3343	0.0373118
3344	0.0237622
3345	0.0704596
3346	-0.0874043
3347	0.0318786
3348	-0.0130424
3349	-0.0328109
3350	0.0760993
3351	0.0827704
3352	-0.0406055
3353	-0.021241
3354	0.0211518
3355	0.0112242
3356	-0.0740128
3357	-0.0434278
3358	-0.0224594
3359	-0.0153865
3360	-0.00590574
3361	0.0679531
3362	0.0439308
3363	0.0537128
3364	0.0200955
3365	-0.0296753
3366	0.0213048
3367	-0.0705189
3368	-0.0619687
3369	0.0237246
3370	0.0115826
3371	-0.0435903
3372	-0.0791836
3373	0.075778
3374	0.0670092
3375	0.00913198
3376	-0.0490716
3377	-0.0912291
3378	-0.0430646
3379	0.0937332
3380	0.0683996
3381	0.0945859
3382	-0.0861652
3383	-0.0811246
3384	0.0250442
3385	0.0295606
3386	0.0560864
3387	-0.0371873
3388	0.0301605
3389	0.0854115
3390	0.0992843
3391	0.0348776
3392	-0.035421
3393	0.0499445
3394	-0.00479267
3395	-0.0760873
3396	0.0513082
3397	0.0523683
3398	-0.0713126
3399	-0.0392644
3400	-0.0495427
3401	0.0815051
3402	0.00450163
3403	0.0548228
3404	-0.0541719
3405	-0.0260466
3406	0.0843054
3407	0.0504116
3408	-0.0235828
3409	0.0853754
3410	0.0697831
3411	-0.00762901
3412	0.031799
3413	-0.0926851
3414	-0.0373446
3415	0.0399332
3416	0.09446
3417	0.0167703
3418	-0.0737622
3419	-0.0914186
3420	-0.0333059
3421	-0.0466792
3422	-0.0612713
3423	0.0977082
3424	-0.0285568
3425	-0.0513278
3426	-0.020747
3427	-0.0574846
3428	0.0685696
3429	0.0625835
3430	-0.0982348
3431	0.0946207
3432	0.066301
3433	-0.00715512
3434	0.0533525
3435	-0.062384
3436	-0.0999427
3437	0.0667994
3438	-0.0489453
3439	0.0691871
3440	0.00010318
3441	-0.0675623
3442	0.028738
3443	0.053041
3444	-0.0515232
3445	0.0628392
3446	0.0836598
3447	-0.0184128
3448	-0.0925
3449	0.079103
3450	0.0444099
3451	-0.0910454
3452	0.0530567
3453	-0.0913527
3454	-0.0685032
3455	-0.061631
3456	-0.0943094
3457	-0.0535246
3458	-0.0218548
3459	0.0752368
3460	0.017237
3461	0.0191777
3462	-0.0563164
3463	-0.066036
3464	-0.0153024
3465	0.00331221
3466	0.0811315
3467	0.0823035
3468	0.038513
3469	-0.0746504
3470	0.00208837
3471	0.0314302
3472	-0.0675921
3473	0.0765833
3474	-0.0248543
3475	-0.00172327
3476	0.00737872
3477	0.0361447
3478	0.0368017
3479	0.0504569
3480	0.064416
3481	-0.0539092
3482	0.0629684
3483	-0.0855099
3484	-0.091615
3485	-0.00871566
3486	-0.0843402
3487	-0.0928389
3488	0.0704606
3489	-0.0512724
3490	-0.0618575
3491	-0.036312
3492	-0.0423631
3493	0.0678539
3494	0.0270233
3495	0.00685248
3496	-0.0104042
3497	-0.0626112
3498	-0.0578843
3499	0.097334
3500	-0.0395164
3501	-0.0591478
3502	-0.00253156
3503	-0.00533686
3504	-0.0162415
3505	-0.0538254
3506	0.071984
3507	-0.00117929
3508	0.098224
3509	-0.0848176
3510	-0.0749204
3511	-0.0376987
3512	0.0524711
3513	0.0612133
3514	0.0376034
3515	-0.0585052
3516	-0.0712374
3517	0.059011
3518	0.0452624
3519	-0.0329788
3520	0.0874951
3521	0.0882638
3522	-0.00899483
3523	0.0100788
3524	-0.0407301
3525	0.0154117
3526	-0.082964
3527	-0.0781394
3528	0.0331761
3529	0.043304
3530	-0.00158618
3531	0.0701775
3532	0.0401922
3533	-0.0828628
3534	0.0562521
3535	0.0430378
3536	0.0102717
3537	-0.09444
3538	-0.0434626
3539	-0.0268031
3540	0.0246655
3541	-0.0504776
3542	-0.0297439
3543	0.057304
3544	-0.075882
3545	0.0415274
3546	0.0444744
3547	-0.0697353
3548	-0.0886473
3549	-0.0996076
3550	-0.0822338
3551	0.0125612
3552	-0.0372113
3553	-0.0974023
3554	0.0470236
3555	-0.0346525
3556	-0.0178871
3557	-0.0669633
3558	-0.0505045
3559	-0.053143
3560	-0.0767763
3561	0.00499296
3562	-0.0996439
3563	0.0705976
3564	0.0943513
3565	0.0401223
3566	-0.0906122
3567	0.0737325
3568	0.0248308
3569	0.0511401
3570	-0.000700809
3571	0.0702911
3572	-0.0893317
3573	-0.0925993
3574	-0.0449748
3575	0.0555683
3576	0.060303
3577	0.00447544
3578	0.0586362
3579	0.00842662
3580	0.0906837
3581	0.0430243
3582	0.0623389
3583	-0.083007
3584	-0.0339939
3585	0.0656161
3586	0.0847133
3587	-0.0914575
3588	-0.0419529
3589	0.0244273
3590	0.0380813
3591	-0.0416109
3592	0.0579757
3593	-0.025451
3594	0.088381
3595	-0.0764594
3596	-0.0661133
3597	-0.00034808
3598	0.0828219
3599	0.00460877
3600	-0.0762189
3601	-0.0891672
3602	0.0061721
3603	0.087279
3604	0.0910385
3605	-0.0368771
3606	-0.0610502
3607	0.0456081
3608	-0.0912935
3609	-0.0932048
3610	-0.0924816
3611	-0.018013
3612	-0.0431804
3613	-0.0601069
3614	0.0699662
3615	0.014893
3616	-0.0403132
3617	-0.0690838
3618	0.0648995
3619	-0.0643115
3620	0.0144775
3621	-0.00659785
3622	0.0365509
3623	0.0136294
3624	-0.0822475
3625	-0.023783
3626	0.0491038
3627	-0.0193367
3628	0.0114627
3629	-0.0520309
3630	-0.0112042
3631	-0.0778731
3632	-0.0949016
3633	-0.0270066
3634	-0.0613065
3635	-0.0466085
3636	-0.0827493
3637	-0.0965593
3638	0.0212283
3639	-0.0610838
3640	0.0321166
3641	0.0248315
3642	0.045578
3643	-0.0196603
3644	-0.097651
3645	-0.0570546
3646	-0.071773
3647	0.0111715
3648	-0.0745843
3649	-0.034431
3650	-0.00394092
3651	0.0722006
3652	0.0636033
3653	-0.0863465
3654	0.0525591
3655	-0.0221041
3656	-0.0448769
3657	-0.0628652
3658	0.0508646
3659	0.00758801
3660	-0.0452742
3661	0.0676448
3662	0.00148805
3663	-0.0281652
3664	0.0531442
3665	-0.079753
3666	0.00253495
3667	-0.0551078
3668	-0.0125329
3669	0.0179234
3670	0.0331892
3671	0.0688108
3672	0.0427255
3673	-0.0574868
3674	-0.0988862
3675	-0.0951648
3676	-0.0227261
3677	-0.0220742
3678	-0.0841787
3679	0.0652549
3680	0.00375255
3681	-0.0155015
3682	-0.0772921
3683	-0.0454945
3684	0.0105032
3685	-0.0521098
3686	0.0292446
3687	0.0787586
3688	-0.0345166
3689	0.0224988
3690	0.00913738
3691	0.0723726
3692	-0.0991311
3693	-0.0277107
3694	-0.0826305
3695	-0.0481192
3696	-0.0111198
3697	-0.078533
3698	0.0379001
3699	-0.0127873
3700	0.0956195
3701	0.049683
3702	-0.00970591
3703	-0.0193104
3704	0.0785624
3705	-0.0693466
3706	0.0385951
3707	-0.0787321
3708	0.0537832
3709	-0.0564974
3710	0.0343892
3711	-0.0465614
3712	0.0916312
3713	-0.0316121
3714	0.0733768
3715	0.0117759
3716	0.00580524
3717	0.0769497
3718	-0.0285059
3719	-0.052077
3720	-0.0602173
3721	-0.0384688
3722	-0.030926
3723	0.0938478
3724	0.0441781
3725	-0.0123311
3726	-0.0977803
3727	0.0766881
3728	-0.0685919
3729	-0.0753138
3730	0.0718965
3731	0.0158285
3732	0.0562186
3733	-0.00539142
3734	0.0961142
3735	0.0443894
3736	0.0560579
3737	0.0524791
3738	0.00502858
3739	0.041754
3740	-0.0711335
3741	0.022392
3742	0.0389283
3743	-0.00506977
3744	-0.0855469
3745	0.00469987
3746	-0.0692235
3747	-0.0951437
3748	0.089401
3749	-0.0362801
3750	-0.0542949
3751	0.0115527
3752	0.0631051
3753	0.0232594
3754	0.0502279
3755	0.0198016
3756	-0.0779207
3757	-0.00946407
3758	-0.055909
3759	-0.0992836
3760	0.00731272
3761	-0.0645516
3762	-0.091806
3763	-0.0103008
3764	0.0479821
3765	0.0660908
3766	0.00175945
3767	-0.0663609
3768	-0.0181809
3769	-0.0443215
3770	-0.0450359
3771	0.0110324
3772	-0.0417208
3773	-0.060553
3774	0.0489423
3775	-0.0617411
3776	0.0684044
3777	0.0278098
3778	0.0117668
3779	0.0207073
3780	-0.0831378
3781	-0.0333878
3782	-0.0391962
3783	0.0772924
3784	-0.0590805
3785	0.0863688
3786	-0.0906102
3787	-0.0542758
3788	-0.0916071
3789	0.0424472
3790	-0.0268465
3791	-0.06681
3792	-0.0466213
3793	0.0101806
3794	0.0368072
3795	0.0470212
3796	-0.0611157
3797	0.0175288
3798	-0.0317112
3799	-0.0818099
3800	-0.00151762
3801	0.0146523
3802	0.0683252
3803	0.0973075
3804	-0.0742478
3805	0.0473415
3806	0.0642915
3807	0.0184193
3808	-0.0591286
3809	-0.0449548
3810	0.0294282
3811	-0.0320817
3812	0.0800995
3813	-0.048614
3814	0.00830517
3815	0.0782326
3816	0.0719773
3817	-0.0483942
3818	-0.0753357
3819	-0.0383863
3820	0.0421299
3821	-0.0773255
3822	0.0149543
3823	0.0496213
3824	-0.0950973
3825	-0.0953082
3826	-0.0244038
3827	0.0637268
3828	0.0476134
3829	0.0415624
3830	-0.0470178
3831	0.0313585
3832	0.0451908
3833	-0.00635673
3834	0.0435299
3835	-0.0666121
3836	-0.0601094
3837	-0.0292967
3838	0.0390661
3839	0.0152
3840	0.0952215
3841	0.0275239
3842	0.0386382
3843	0.0251339
3844	0.0404284
3845	0.0639023
3846	-0.094684
3847	0.0773816
3848	0.0273095
3849	0.0475103
3850	-0.048286
3851	-0.0719243
3852	0.0206657
3853	0.0532908
3854	-0.0697409
3855	-0.0506827
3856	-0.0561447
3857	0.0542118
3858	0.0376812
3859	-0.0268333
3860	0.00180011
3861	-0.0858974
3862	0.0784463
3863	-0.0506092
3864	-0.0683944
3865	0.0894356
3866	0.0295527
3867	0.0920591
3868	-0.073707
3869	-0.069004
3870	0.0297193
3871	0.0609015
3872	0.0932824
3873	-0.0349624
3874	-0.0404203
3875	0.0442839
3876	-0.00295389
3877	-0.0318156
3878	-0.0445477
3879	-0.0931061
3880	-0.0534017
3881	0.0861742
3882	-0.0281216
3883	0.0809196
3884	0.0373943
3885	0.0653163
3886	0.0744365
3887	0.0945135
3888	0.0728832
3889	0.0501469
3890	0.0157056
3891	0.0607416
3892	-0.061314
3893	0.0110683
3894	-0.0543535
3895	-0.092707
3896	-0.0246402
3897	-0.0989285
3898	-0.0213461
3899	-0.0623451
3900	-0.0871342
3901	0.0965762
3902	0.0459936
3903	-0.0468975
3904	-0.0383391
3905	-0.0379449
3906	-0.0895485
3907	-0.0938616
3908	0.00155076
3909	-0.0453742
3910	-0.0431934
3911	-0.0439637
3912	-0.0277957
3913	-0.0896324
3914	-0.03719
3915	0.0111211
3916	-0.0367905
3917	-0.0125315
3918	-0.0420733
3919	0.0748985
3920	0.0219562
3921	0.00475027
3922	0.0160521
3923	0.0211901
3924	-0.0225576
3925	0.0427905
3926	0.0549553
3927	0.0550065
3928	-0.0662525
3929	-0.0258
3930	0.00264523
3931	0.00835801
3932	-0.0524638
3933	-0.00256409
3934	0.0991974
3935	0.0567094
3936	-0.00142543
3937	0.0736162
3938	-0.0399372
3939	-0.0367298
3940	0.019433
3941	0.0769203
3942	-0.0670136
3943	-0.0596611
3944	-0.0876908
3945	0.0126503
3946	-0.0357176
3947	-0.0784399
3948	-0.0225362
3949	0.0591079
3950	-0.0477514
3951	-0.0062396
3952	-0.0812649
3953	0.0885454
3954	0.0195599
3955	-0.0519288
3956	-0.0630129
3957	0.0725439
3958	0.0802131
3959	-0.0434226
3960	-0.0885362
3961	-0.0177036
3962	-0.0777022
3963	-0.004117
3964	-0.0692896
3965	0.0371166
3966	0.0569341
3967	-0.0924248
3968	-0.0902353
3969	0.0178695
3970	-0.0186315
3971	-0.0284754
3972	0.082434
3973	0.092273
3974	0.0248921
3975	0.0279223
3976	0.0825066
3977	-0.0491948
3978	0.0932029
3979	0.0807043
3980	-0.032101
3981	0.0509127
3982	0.0469429
3983	0.0846546
3984	-0.0561466
3985	-0.0885027
3986	0.0679014
3987	0.00610765
3988	0.0321888
3989	-0.0741351
3990	0.0278201
3991	-0.00979509
3992	0.0408294
3993	-0.0174425
3994	-0.0315327
3995	-0.0986465
3996	0.0663044
3997	-0.0146123
3998	-0.00117056
3999	0.0515888
4000	-0.0615443
4001	-0.0347377
4002	0.0963088
4003	-3.38621e-05
4004	0.0942464
4005	-0.0380227
4006	0.0209073
4007	0.0766669
4008	-0.0126846
4009	-0.0164301
4010	-0.0754784
4011	0.0302702
4012	-0.0547762
4013	-0.0933668
4014	-0.0800236
4015	-0.0513851
4016	0.0429162
4017	0.00312125
4018	0.0217778
4019	0.0973495
4020	-0.0015811
4021	0.0987847
4022	0.0445295
4023	0.00395149
4024	0.0863529
4025	-0.0355444
4026	-0.0545815
4027	0.0995873
4028	0.0207265
4029	0.0811624
4030	-0.0889594
4031	0.0994147
4032	0.0713211
4033	0.0562868
4034	0.0192986
4035	0.00482694
4036	0.0338
4037	-0.0591271
4038	-0.0356326
4039	0.0478656
4040	0.085157
4041	0.0518637
4042	-0.0336918
4043	0.0473911
4044	0.0604202
4045	-0.00120654
4046	-0.089423
4047	-0.085831
4048	0.0418681
4049	0.0166872
4050	0.0307748
4051	0.00607217
4052	0.0133949
4053	0.0435545
4054	-0.0314463
4055	0.0964103
4056	-0.0175145
4057	-0.0766095
4058	0.0685026
4059	-0.0346236
4060	-0.0384559
4061	0.0621786
4062	-0.078407
4063	0.0958956
4064	0.0654884
4065	0.0706212
4066	0.0925603
4067	-0.0332321
4068	-0.0436577
4069	0.00821843
4070	-0.0121489
4071	-0.0186513
4072	-0.0387605
4073	0.0454897
4074	0.0617957
4075	0.0496489
4076	-0.0262368
4077	-0.0759085
4078	-0.0729488
4079	-0.070257
4080	0.0483475
4081	0.0534797
4082	-0.0427042
4083	0.0101424
4084	0.000327022
4085	0.0857416
4086	-0.0251884
4087	0.0243723
4088	-0.0476712
4089	0.0871847
4090	0.0312959
4091	-0.0504777
4092	0.0922777
4093	0.075251
4094	0.041833
4095	0.0407764
4096	0.0462764
4097	-0.0940535
4098	0.0449329
4099	0.0968951
4100	-0.0285494
4101	0.0404159
4102	0.00778208
4103	-0.00241542
4104	0.0329863
4105	-0.0245208
4106	0.0970883
4107	-0.0257147
4108	0.0135548
4109	0.0589543
4110	-0.0658631
4111	0.0513063
4112	-0.0217922
4113	0.0336426
4114	0.0142841
4115	-0.0777266
4116	0.0663189
4117	0.0970793
4118	-0.0387423
4119	0.086692
4120	0.0877207
4121	-0.000828657
4122	-0.0507436
4123	0.036446
4124	0.00325496
4125	-0.0720168
4126	-0.00930137
4127	-0.0140839
4128	0.0917133
4129	0.0884539
4130	0.0162141
4131	-0.077912
4132	-0.0243874
4133	0.0705841
4134	0.014015
4135	-0.0983652
4136	0.00468198
4137	-0.0939278
4138	0.039945
4139	0.0482371
4140	0.0828326
4141	-0.0913291
4142	0.00011118
4143	-0.0214457
4144	0.0553346
4145	0.0856071
4146	0.0366486
4147	0.0574116
4148	-0.0468866
4149	0.0937456
4150	0.067064
4151	-0.077316
4152	0.0330912
4153	-0.0436635
4154	0.0315715
4155	0.0529193
4156	-0.0870509
4157	-0.0649015
4158	-0.0800428
4159	-0.0451202
4160	0.0838259
4161	0.0372649
4162	0.0397082
4163	0.0408721
4164	-0.0509292
4165	-0.0719051
4166	0.0475845
4167	0.024942
4168	0.0443098
4169	0.0455544
4170	0.023044
4171	-0.000519848
4172	-0.0415874
4173	-0.065373
4174	0.0222122
4175	-0.0325576
4176	0.0634194
4177	0.0660817
4178	-0.0141157
4179	-0.0381204
4180	-0.0964329
4181	-0.0693683
4182	-0.0447036
4183	0.0392904
4184	0.0900143
4185	-0.00136178
4186	-0.0227012
4187	-0.00489848
4188	-0.0153918
4189	-0.0153824
4190	0.0649726
4191	-0.0322017
4192	-0.0932828
4193	0.0302492
4194	-0.0288418
4195	-0.0720534
4196	-0.0522501
4197	0.0406356
4198	0.0258132
4199	0.0273348
4200	0.0616294
4201	0.0269928
4202	0.0746776
4203	-0.0410569
4204	-0.0754946
4205	-0.0901745
4206	-0.0819217
4207	0.071309
4208	0.059085
4209	-0.0091046
4210	0.0837635
4211	0.0336053
4212	-0.082923
4213	-0.0669417
4214	-0.0896792
4215	0.0631704
4216	-0.0827303
4217	-0.00252838
4218	0.090154
4219	0.019809
4220	0.0361505
4221	-0.0864329
4222	0.0820874
4223	-0.00443051
4224	0.0715708
4225	0.0421155
4226	-0.0584829
4227	0.00664865
4228	0.0229949
4229	0.00782998
4230	-0.0727272
4231	0.0559669
4232	-0.0890001
4233	0.0983565
4234	0.064802
4235	0.0537608
4236	0.0629605
4237	-0.0352218
4238	0.00273338
4239	-0.00919606
4240	0.00684031
4241	-0.0683416
4242	-0.0816884
4243	0.0572612
4244	0.0476041
4245	0.09565
4246	-0.0216161
4247	0.014783
4248	-0.0482922
4249	0.0672976
4250	0.0714487
4251	-0.0176279
4252	-0.0787377
4253	0.0460377
4254	0.0752136
4255	0.0122694
4256	-0.0268486
4257	-0.0715937
4258	-0.0364955
4259	0.0845997
4260	0.0387414
4261	-0.0180206
4262	0.0800398
4263	-0.0799572
4264	-0.0166771
4265	0.0336043
4266	0.0314307
4267	0.0805575
4268	-0.0964349
4269	-0.0700264
4270	-0.0581071
4271	-0.0690621
4272	0.0209943
4273	-0.0515853
4274	0.0588145
4275	-0.0778146
4276	0.00650737
4277	-0.0625336
4278	-0.0684482
4279	0.0374795
4280	0.0336487
4281	0.0927801
4282	0.0200666
4283	0.0267897
4284	-0.0412515
4285	0.0320947
4286	0.0862623
4287	0.0434731
4288	0.0524306
4289	0.023123
4290	0.0616071
4291	-0.0247724
4292	0.0691626
4293	0.0858203
4294	0.0986902
4295	0.0143555
4296	0.0926657
4297	-0.0312891
4298	-0.0392771
4299	0.0570152
4300	-0.0716517
4301	-0.069712
4302	-0.0338083
4303	0.0202997
4304	-0.0708104
4305	0.0815775
4306	-0.0325142
4307	0.0650457
4308	0.0907915
4309	0.0186751
4310	-0.0614817
4311	0.0816466
4312	-0.020655
4313	0.0289566
4314	-0.0249014
4315	-0.0945713
4316	0.0185819
4317	-0.0642609
4318	-0.055555
4319	-0.00281251
4320	-0.0765999
4321	-0.0512619
4322	0.0475131
4323	-0.0884945
4324	-0.0464015
4325	0.0936314
4326	0.000784948
4327	-0.0806728
4328	-0.0663355
4329	0.00686446
4330	-0.034565
4331	-0.0485562
4332	0.0397163
4333	-0.0367329
4334	0.0631225
4335	-0.0350479
4336	-0.0948582
4337	0.0236352
4338	0.0184947
4339	0.0405387
4340	0.00854364
4341	-0.0149761
4342	0.0402753
4343	-0.0289274
4344	-0.0990993
4345	0.0952143
4346	-0.0907895
4347	-0.0523395
4348	0.0304174
4349	-0.0230855
4350	-0.0381604
4351	0.0105965
4352	-0.087175
4353	0.0704164
4354	0.0773599
4355	-0.0471333
4356	-0.00941336
4357	0.00495169
4358	-0.0250925
4359	0.00675565
4360	-0.0490728
4361	-0.0635486
4362	-0.0708936
4363	-0.00985715
4364	0.0157888
4365	-0.0563746
4366	-0.0248481
4367	-0.00761109
4368	0.078658
4369	-0.0157795
4370	-0.0926658
4371	0.0602754
4372	0.0144753
4373	-0.023467
4374	-0.0445267
4375	-0.0825033
4376	-0.0436154
4377	-0.0308464
4378	-0.0103756
4379	0.0590526
4380	-0.0369481
4381	-0.01884
4382	-0.071463
4383	-0.00617851
4384	0.0158086
4385	-0.0718543
4386	-0.0435912
4387	-0.0858757
4388	0.0205266
4389	-0.0717184
4390	-0.0762363
4391	-0.0563435
4392	0.0918444
4393	0.0958032
4394	0.0154971
4395	-0.0724855
4396	0.0196098
4397	0.0995327
4398	0.0253691
4399	0.0347299
4400	-0.0515157
4401	-0.0606693
4402	0.0810511
4403	-0.0334214
4404	-0.0902147
4405	-0.0250816
4406	-0.0922873
4407	0.0506287
4408	-0.0409232
4409	0.0579695
4410	-0.0881709
4411	-0.0029191
4412	0.0319975
4413	0.059667
4414	-0.0435414
4415	-0.0587997
4416	0.0351761
4417	-0.0837237
4418	0.00232982
4419	-0.0253652
4420	0.0850166
4421	-0.00455355
4422	-0.0675739
4423	0.0275758
4424	0.0160553
4425	-0.0444317
4426	0.087
4427	0.0398921
4428	0.0186058
4429	-0.0012881
4430	-0.023343
4431	0.0411203
4432	-0.0896886
4433	-0.0366594
4434	0.00720183
4435	-0.0903682
4436	-0.084886
4437	-0.0370425
4438	0.00273116
4439	0.0370378
4440	-0.0773131
4441	-0.00598851
4442	-0.0238928
4443	0.0421543
4444	0.017876
4445	0.0687225
4446	0.0114666
4447	0.0815067
4448	0.0815408
4449	0.0050424
4450	0.0047773
4451	-0.0267989
4452	0.0706636
4453	0.0611157
4454	0.096973
4455	0.0250094
4456	-0.0855062
4457	0.0916042
4458	-0.0370565
4459	0.0857366
4460	0.0363089
4461	-0.0140664
4462	-0.089418
4463	0.0385633
4464	0.0809609
4465	0.0421863
4466	0.0456568
4467	-0.0420684
4468	0.099414
4469	0.0668732
4470	0.0262588
4471	-0.0277253
4472	0.0883384
4473	-0.029179
4474	-0.0630095
4475	-0.0327395
4476	0.0652663
4477	0.0469667
4478	0.0435658
4479	-0.0257203
4480	-0.063248
4481	0.0565561
4482	0.00815803
4483	0.0930588
4484	0.0917681
4485	0.0228878
4486	-0.0704386
4487	-0.00436999
4488	-0.0265374
4489	0.0454241
4490	0.0900525
4491	0.0462618
4492	0.0312474
4493	0.0351951
4494	0.0489944
4495	-0.0802864
4496	0.0520473
4497	0.0380252
4498	-0.0591072
4499	0.000948138
4500	0.00255246
4501	-0.00977324
4502	0.0448085
4503	-0.0601377
4504	0.0291592
4505	-0.0151378
4506	0.0835474
4507	-0.0127982
4508	0.0248061
4509	-0.0893505
4510	-0.0227074
4511	-0.0171615
4512	0.059883
4513	-0.0394727
4514	-0.072463
4515	0.092407
4516	0.0914306
4517	0.0339726
4518	-0.0467539
4519	-0.0239096
4520	0.0540094
4521	0.0885291
4522	-0.0398729
4523	0.032176
4524	-0.0716532
4525	0.0199511
4526	-0.0736562
4527	-0.0434794
4528	-0.0861849
4529	-0.028885
4530	0.0614939
4531	-0.0755218
4532	-0.0683066
4533	0.0219767
4534	-0.00201002
4535	-0.0654701
4536	-0.0294897
4537	0.0722331
4538	-0.0186451
4539	-0.0747794
4540	0.0385391
4541	0.0653057
4542	-0.00724288
4543	0.0508775
4544	0.0809344
4545	-0.00947907
4546	-0.00632925
4547	0.0738384
4548	-0.0877556
4549	0.0634455
4550	0.0212972
4551	-0.0263593
4552	-0.0300986
4553	-0.0641433
4554	-0.00812178
4555	-0.0469129
4556	-0.0665888
4557	-0.0743582
4558	-0.0137561
4559	0.0824722
4560	0.0279868
4561	-0.0313196
4562	-0.0887208
4563	0.0128605
4564	0.0707294
4565	-0.0929361
4566	-0.046201
4567	-0.0955241
4568	-0.0832399
4569	0.0770848
4570	0.0692193
4571	-0.0781575
4572	-0.0829453
4573	-0.0788521
4574	0.0570248
4575	-0.0952531
4576	-0.000740083
4577	-0.0598732
4578	0.0739029
4579	0.0373151
4580	0.0905995
4581	-0.0201349
4582	-0.050942
4583	-0.0759124
4584	-0.0477721
4585	-0.0265565
4586	0.0313474
4587	0.0652018
4588	0.0394282
4589	-0.0799921
4590	0.0451619
4591	-0.0679986
4592	-0.0871587
4593	-0.05185
4594	0.0522774
4595	-0.014187
4596	0.0920415
4597	-0.0495354
4598	0.046216
4599	-0.0183574
4600	0.0917643
4601	0.0329728
4602	0.0593341
4603	-5.48572e-05
4604	0.0480047
4605	-0.0932958
4606	0.032848
4607	0.00177178
4608	-0.040671
4609	-0.0117324
4610	0.072405
4611	0.0886554
4612	-0.0353009
4613	0.0681968
4614	0.0276825
4615	-0.0706725
4616	-0.0461292
4617	-0.0971725
4618	-0.0478613
4619	0.0257117
4620	-0.0332254
4621	-0.0512429
4622	-0.0247779
4623	-0.0712327
4624	-0.0372991
4625	-0.0312106
4626	-0.0608554
4627	0.0782129
4628	-0.0496336
4629	0.0336935
4630	-0.000154379
4631	-0.0615141
4632	-0.0261556
4633	-0.0998705
4634	0.0461487
4635	0.0262923
4636	0.0853605
4637	-0.0967792
4638	0.0481825
4639	0.0111995
4640	-0.0324143
4641	-0.020495
4642	0.034094
4643	-0.0120294
4644	0.0986396
4645	0.0251029
4646	0.0475442
4647	0.0369773
4648	0.0927838
4649	0.0717527
4650	0.0181365
4651	0.0278693
4652	-0.083544
4653	-0.056362
4654	-0.0944266
4655	-0.0410783
4656	-0.0233135
4657	-0.0567574
4658	-0.0326589
4659	0.0976555
4660	-0.0492102
4661	-0.0877305
4662	-0.048102
4663	0.0145382
4664	-0.0849706
4665	0.0513473
4666	0.0852025
4667	-0.0156446
4668	-0.0274343
4669	0.0894658
4670	-0.0112343
4671	-0.0918038
4672	-0.0561382
4673	-0.0232568
4674	0.0776105
4675	0.0916756
4676	-0.0139807
4677	-0.0124126
4678	0.0192872
4679	-0.00195215
4680	0.0373727
4681	-0.012541
4682	-0.0884339
4683	-0.00495391
4684	0.0419964
4685	0.00897264
4686	0.0614876
4687	0.00741631
4688	0.0093635
4689	0.00873673
4690	-0.00215007
4691	0.0703994
4692	0.0373688
4693	-0.0413332
4694	-0.0712078
4695	0.0434813
4696	-0.0521779
4697	-0.0309236
4698	-0.0679566
4699	-0.0760566
4700	-0.0893887
4701	-0.0617535
4702	0.0348343
4703	0.0878534
4704	0.0215962
4705	-0.0786306
4706	-0.0978319
4707	0.0672476
4708	0.0856843
4709	-0.0210295
4710	-0.0446116
4711	0.0792627
4712	-0.0187816
4713	0.0771868
4714	-0.098702
4715	-0.0725497
4716	0.0809294
4717	0.0758017
4718	0.0596336
4719	0.021077
4720	0.0645068
4721	0.0735118
4722	-0.0996274
4723	-0.098708
4724	-0.0365037
4725	0.0309185
4726	-0.0993951
4727	0.0932327
4728	-0.0507648
4729	0.0069505
4730	-0.0719527
4731	0.0990299
4732	0.0883494
4733	0.0939247
4734	0.0588693
4735	0.0660681
4736	0.0497868
4737	0.0406493
4738	-0.0390909
4739	0.051015
4740	0.0847482
4741	0.0863046
4742	-0.0962631
4743	0.07614
4744	0.0437069
4745	0.0529195
4746	-0.0390537
4747	0.00512881
4748	0.0799724
4749	-0.0662965
4750	0.010508
4751	-0.0201991
4752	0.0261108
4753	0.0833061
4754	0.070727
4755	-0.0654657
4756	-0.0766092
4757	0.0561949
4758	-0.0665966
4759	0.052826
4760	0.085957
4761	0.0851574
4762	0.0397468
4763	-0.080588
4764	-0.0741422
4765	-0.0574605
4766	0.0737767
4767	0.0929087
4768	0.0794544
4769	0.0704222
4770	-0.0521777
4771	-0.0774652
4772	-0.037556
4773	0.0946657
4774	0.0200234
4775	0.0840369
4776	-0.00909126
4777	-0.0404568
4778	0.0839457
4779	-0.0175455
4780	0.0705806
4781	-0.0725043
4782	0.0398686
4783	-0.0746266
4784	-0.0948204
4785	-0.00793301
4786	-0.0416521
4787	-0.0883248
4788	0.0959877
4789	0.0858192
4790	-0.0103702
4791	0.000885402
4792	0.0011612
4793	0.0172637
4794	0.0276926
4795	0.00560591
4796	0.0403803
4797	-0.0754005
4798	-0.0346335
4799	-0.0164508
4800	-0.0847207
4801	0.0235668
4802	0.0474885
4803	-0.00708767
4804	-0.0731967
4805	-0.0259349
4806	0.0577787
4807	0.0593774
4808	0.0501982
4809	-0.0276771
4810	0.047645
4811	0.0103112
4812	-0.0550587
4813	-0.0893509
4814	-0.0995033
4815	0.0359541
4816	-0.0971829
4817	0.0824196
4818	-0.0423396
4819	-0.0275295
4820	0.0717057
4821	0.0252066
4822	-0.0701138
4823	0.0312809
4824	0.0312793
4825	0.0470986
4826	0.0464
4827	-0.06201
4828	-0.0843728
4829	-0.0384939
4830	-0.0579186
4831	0.0868396
4832	-0.00857238
4833	-0.0253327
4834	-0.0721719
4835	0.0978268
4836	0.0697273
4837	0.084464
4838	0.00478209
4839	0.0269751
4840	-0.0179474
4841	0.0933231
4842	-0.063684
4843	0.0082993
4844	-0.0796938
4845	0.0867155
4846	0.0645758
4847	0.0480946
4848	-0.00880849
4849	-0.0489011
4850	0.00223993
4851	-0.0596025
4852	-0.0911465
4853	0.0761709
4854	-0.0244488
4855	-0.0590324
4856	-0.0929609
4857	0.00913975
4858	0.0713963
4859	-0.0811661
4860	-0.0431137
4861	0.0893713
4862	0.0145711
4863	0.0908853
4864	-0.0949352
4865	0.00986181
4866	0.00275122
4867	-0.0494277
4868	-0.0580056
4869	-0.0724813
4870	-0.0664973
4871	-0.071774
4872	0.0829923
4873	0.075992
4874	-0.0721324
4875	-0.0123738
4876	-0.0316222
4877	-0.0047979
4878	-0.00354883
4879	-0.0877212
4880	-0.09185
4881	0.0628236
4882	0.0798695
4883	0.0588581
4884	0.0241365
4885	-0.060947
4886	0.0636652
4887	0.042964
4888	-0.0581462
4889	0.0298664
4890	0.0987618
4891	0.0599315
4892	-0.0840576
4893	0.0690642
4894	-0.0486037
4895	-0.0391959
4896	0.0559101
4897	0.0853778
4898	0.0102154
4899	0.0719203
4900	-0.056046
4901	0.0651945
4902	-0.0332579
4903	0.0168193
4904	-0.0307235
4905	0.0151677
4906	0.0576958
4907	0.038679
4908	-0.0775174
4909	-0.0422302
4910	0.0467521
4911	0.0114929
4912	-0.0800614
4913	-0.0700513
4914	0.0780927
4915	-0.0773882
4916	-0.0324743
4917	-0.0961115
4918	0.0383302
4919	0.0543013
4920	0.0902462
4921	-0.0642195
4922	-0.0577335
4923	0.0254193
4924	0.0542806
4925	0.0852797
4926	0.00762352
4927	-0.0870027
4928	0.0596256
4929	-0.0627923
4930	0.056524
4931	0.0628866
4932	-0.0501765
4933	0.0297634
4934	0.0807385
4935	-0.0931458
4936	0.0782499
4937	-0.0999105
4938	0.0987769
4939	-0.00756541
4940	-0.0143317
4941	-0.0158104
4942	-0.0749993
4943	0.0851642
4944	0.0809439
4945	0.0865719
4946	-0.00847503
4947	-0.0260169
4948	0.00222937
4949	0.0876718
4950	0.0706643
4951	0.00928793
4952	0.0404718
4953	0.0849043
4954	0.0579049
4955	-0.0395763
4956	0.0729809
4957	-0.0862152
4958	-0.092505
4959	0.0831726
4960	-0.0997585
4961	-0.00719244
4962	0.0730803
4963	0.0224185
4964	0.0888101
4965	0.0671911
4966	-0.0971192
4967	-0.0835887
4968	0.0479764
4969	-0.0038648
4970	0.0878592
4971	-0.0338208
4972	0.0839663
4973	0.0597686
4974	0.044534
4975	0.0562078
4976	0.0556862
4977	0.0696383
4978	0.0990768
4979	0.00829105
4980	-0.0557702
4981	0.0420491
4982	0.0930781
4983	0.0277032
4984	-0.0827049
4985	0.0153034
4986	-0.00428122
4987	0.059518
4988	0.0332562
4989	0.0993232
4990	0.0911624
4991	0.0656518
4992	-0.020695
4993	0.0703694
4994	-0.0854194
4995	-0.0161984
4996	0.0420303
4997	0.0299628
4998	-0.0423379
4999	-0.0150986
5000	0.0488976
5001	-0.0287821
5002	-0.0208011
5003	0.0155708
5004	0.0645585
5005	-0.0757564
5006	0.0352095
5007	0.00576722
5008	0.0885593
5009	0.0790416
5010	0.0927031
5011	-0.00163654
5012	-0.063739
5013	-0.0949243
5014	0.0310882
5015	0.0927915
5016	0.0752555
5017	-0.0327176
5018	0.00240455
5019	0.0524712
5020	-0.0615768
5021	-0.0130215
5022	-0.083521
5023	-0.0921686
5024	-0.0749763
5025	-0.0761008
5026	-0.0594736
5027	0.0489237
5028	-0.0770629
5029	-0.0394914
5030	-0.0423325
5031	0.0461722
5032	-0.0203122
5033	0.0487231
5034	-0.0204368
5035	0.0365887
5036	-0.0947329
5037	-0.0685342
5038	0.0151356
5039	-0.0955373
5040	-0.0116359
5041	0.0773846
5042	0.0972493
5043	-0.0721326
5044	-0.0401925
5045	-0.0486996
5046	0.0678454
5047	0.0562796
5048	0.0415352
5049	0.0681448
5050	0.00669627
5051	0.0633152
5052	-0.0161715
5053	0.0737508
5054	-0.0113096
5055	-0.0610254
5056	0.0215898
5057	-0.0565709
5058	0.0401297
5059	-0.0352536
5060	0.0126492
5061	0.0973659
5062	-0.0280601
5063	-0.0859725
5064	-0.0407094
5065	-0.0131512
5066	0.0323814
5067	0.0453859
5068	0.060441
5069	0.0217264
5070	0.0825583
5071	0.0895046
5072	0.0103306
5073	-0.0340722
5074	-0.0473287
5075	-0.0625366
5076	0.0398671
5077	-0.0619086
5078	-0.0044714
5079	0.0268673
5080	-0.0673232
5081	-0.00650216
5082	-0.0209501
5083	-0.0576294
5084	0.0693995
5085	0.00140775
5086	0.0956626
5087	-0.0787639
5088	0.0229843
5089	-0.0718012
5090	-0.0147852
5091	-0.011373
5092	-0.0348039
5093	-0.0852657
5094	-0.0569434
5095	0.0636394
5096	-0.0523133
5097	0.0970573
5098	-0.0512628
5099	-0.0589811
5100	-0.0883593
5101	0.0152899
5102	0.030743
5103	0.0686537
5104	-0.0170041
5105	-0.0741864
5106	0.0713296
5107	0.0960188
5108	-0.0908925
5109	0.00187257
5110	-0.0830523
5111	-0.0257021
5112	0.0610943
5113	0.0983792
5114	-0.00792559
5115	0.0470846
5116	0.0150331
5117	-0.0878662
5118	-0.0046282
5119	-0.0964046
5120	0.0643126
5121	0.0932406
5122	0.00634377
5123	-0.030958
5124	0.0929568
5125	0.0429849
5126	-0.0524895
5127	-0.06741
5128	-0.0304417
5129	0.0647543
5130	0.0153113
5131	-0.0410749
5132	-0.0461885
5133	-0.0923072
5134	0.0836512
5135	-0.0203657
5136	0.0642169
5137	0.0260731
5138	-0.0860413
5139	-0.00148867
5140	0.0351002
5141	-0.0477535
5142	0.0369621
5143	0.0753527
5144	-0.0751543
5145	-0.0394344
5146	-0.0725187
5147	0.0786728
5148	0.0544998
5149	-0.0732255
5150	-0.0454037
5151	0.0442416
5152	0.0262509
5153	0.0821324
5154	0.0739221
5155	0.0457161
5156	-0.0609308
5157	0.0104634
5158	-0.0670769
5159	-0.0582961
5160	-0.0699857
5161	-0.0122237
5162	-0.0910817
5163	0.0167092
5164	-0.014397
5165	-0.0772955
5166	-0.0514485
5167	0.0334792
5168	-0.0420083
5169	-0.0622611
5170	0.0859083
5171	-0.0959046
5172	-0.034054
5173	0.0505934
5174	0.0832613
5175	-0.0514892
5176	0.0371385
5177	-0.0993073
5178	-0.077889
5179	0.0947794
5180	0.0347742
5181	0.00211653
5182	-0.0104169
5183	0.0938854
5184	-0.0982422
5185	-0.0821392
5186	0.0879522
5187	0.0517247
5188	-0.0969845
5189	0.00864374
5190	0.094713
5191	-0.0786519
5192	0.00453722
5193	-0.0342443
5194	-0.0389292
5195	-0.0297953
5196	-0.056162
5197	0.0178003
5198	-0.0683232
5199	-0.0232225
5200	-0.073757
5201	-0.0489942
5202	-0.0208518
5203	-0.00898532
5204	-0.0728692
5205	0.0398889
5206	-0.0586607
5207	0.0842313
5208	0.0438742
5209	0.0418737
5210	-0.0128839
5211	0.0686299
5212	0.0481578
5213	0.0335366
5214	0.0439546
5215	0.0227782
5216	-0.000930999
5217	-0.0099198
5218	0.08417
5219	0.0977262
5220	-0.0794496
5221	-0.0134733
5222	0.0665449
5223	-0.0155101
5224	0.0287048
5225	0.0869182
5226	-0.098855
5227	0.0385507
5228	-0.0299914
5229	-0.0418489
5230	0.0737913
5231	0.0481
5232	-0.0669302
5233	-0.0449291
5234	0.029386
5235	-0.0641035
5236	0.0374173
5237	0.0601353
5238	-0.0277223
5239	-0.0535635
5240	0.0549447
5241	-0.0134038
5242	-0.0172872
5243	0.079451
5244	-0.0714761
5245	0.0385148
5246	-0.0293411
5247	0.0609847
5248	-0.0373551
5249	0.0761455
5250	0.026161
5251	-0.0114144
5252	-0.0449045
5253	-0.0459069
5254	-0.0628453
5255	-0.0377002
5256	0.0444368
5257	0.0749452
5258	0.093958
5259	0.0512389
5260	0.0807665
5261	0.0435602
5262	-0.0448273
5263	-0.00294199
5264	-0.0994761
5265	-0.0497484
5266	-0.0977462
5267	0.00297293
5268	0.0434298
5269	-0.0232891
5270	-0.0901428
5271	-0.0801046
5272	-0.0761962
5273	0.025016
5274	0.069651
5275	-0.0877889
5276	0.084948
5277	0.00787566
5278	0.088448
5279	0.0431329
5280	-0.023265
5281	0.0391704
5282	-0.0304359
5283	0.0494367
5284	0.0851775
5285	0.0282417
5286	0.0255714
5287	0.0370861
5288	-0.0570508
5289	0.00853036
5290	0.0861524
5291	0.0881709
5292	-0.0489633
5293	-0.0524532
5294	-0.0692935
5295	-0.0741414
5296	0.0843779
5297	-0.034735
5298	0.0924152
5299	-0.0835152
5300	0.00680408
5301	-0.00839797
5302	-0.0651428
5303	-0.00809556
5304	0.0488307
5305	0.0295433
5306	-0.0350244
5307	0.0971712
5308	0.0356475
5309	0.0436673
5310	0.00783827
5311	-0.047222
5312	0.0469573
5313	0.0133978
5314	0.0832704
5315	-0.0606388
5316	-0.0329154
5317	-0.0643878
5318	0.097878
5319	0.0971743
5320	0.053418
5321	-0.0826861
5322	0.00633444
5323	0.08616
5324	-0.0663392
5325	0.0764632
5326	0.00133744
5327	0.0111849
5328	0.0216499
5329	-0.0535361
5330	0.0569256
5331	0.0947672
5332	-0.0612874
5333	0.0944189
5334	-0.0598836
5335	0.089907
5336	0.0059028
5337	-0.0212304
5338	0.0362213
5339	0.0573191
5340	0.0369094
5341	-0.0049076
5342	-0.0335632
5343	0.0731754
5344	0.0668441
5345	-0.0829131
5346	-0.0868785
5347	0.0336667
5348	0.0740125
5349	0.0826227
5350	0.0974188
5351	0.0988055
5352	0.0651912
5353	-0.00951441
5354	-0.00536361
5355	0.0728902
5356	-0.0332216
5357	-0.0609886
5358	0.0300054
5359	-0.0836244
5360	-0.0180667
5361	-0.0772567
5362	0.0964222
5363	0.0751681
5364	-0.0995082
5365	0.0444691
5366	-0.0810869
5367	0.03793
5368	0.0828063
5369	0.0313825
5370	0.0802104
5371	-0.0568929
5372	0.0490986
5373	-0.0450505
5374	0.000944834
5375	0.0223488
5376	-0.0438597
5377	0.0613054
5378	-0.0966586
5379	-0.0861622
5380	-0.00823606
5381	-0.00371473
5382	0.0370103
5383	0.0835968
5384	0.0948641
5385	-0.0484
5386	0.0859297
5387	-0.012213
5388	0.0524383
5389	-0.0908615
5390	-0.0834531
5391	0.0271692
5392	1.81682e-05
5393	-0.0224081
5394	0.0236348
5395	-0.0162476
5396	0.0468297
5397	0.0183551
5398	-0.0439239
5399	0.0105643
5400	0.0603958
5401	-0.0803859
5402	-0.0655208
5403	0.0223263
5404	0.0182959
5405	0.0414696
5406	-0.0408899
5407	-0.0584933
5408	0.0762585
5409	-0.0725027
5410	-0.0601147
5411	-0.035593
5412	0.0488757
5413	-0.0849598
5414	0.0834103
5415	0.0535134
5416	0.0319702
5417	0.0307516
5418	-0.0511755
5419	0.0676485
5420	0.00663456
5421	0.0465446
5422	-0.0860404
5423	-0.0504832
5424	0.0198967
5425	0.0780984
5426	-0.0305906
5427	-0.042626
5428	-0.0957086
5429	0.0262188
5430	-0.0726837
5431	0.0594664
5432	0.0411102
5433	-0.0678661
5434	-0.0639245
5435	-0.0373754
5436	0.00463031
5437	-0.00572514
5438	0.0165305
5439	0.014772
5440	0.0562602
5441	0.0455946
5442	-0.0438532
5443	-0.0261852
5444	0.0887194
5445	-0.0515139
5446	-0.00935257
5447	0.0545459
5448	-0.0631314
5449	-0.00722927
5450	0.0928749
5451	0.0300629
5452	-0.0841893
5453	-0.0515153
5454	-0.0206654
5455	-0.0813429
5456	0.092121
5457	-0.0236713
5458	-0.0941145
5459	-0.00160494
5460	-0.0403581
5461	-0.0254393
5462	0.061444
5463	0.0306197
5464	0.0317857
5465	-0.00075005
5466	0.0836429
5467	-0.020432
5468	0.00434948
5469	-0.0636655
5470	-0.0680471
5471	0.091114
5472	0.0304136
5473	0.0143608
5474	-0.0528527
5475	-0.0111946
5476	-0.0941935
5477	0.00272228
5478	-0.0365822
5479	0.00727049
5480	0.00951957
5481	-0.0330828
5482	0.0846484
5483	0.0570135
5484	0.0712783
5485	-0.0423668
5486	-0.0626152
5487	0.0592168
5488	0.033535
5489	0.0977456
5490	0.0475354
5491	-0.038712
5492	0.0663234
5493	-0.00585554
5494	-0.0138603
5495	-0.0558623
5496	-0.0272871
5497	0.0153987
5498	-0.0621217
5499	-0.0777939
5500	0.0977128
5501	0.0196364
5502	-0.00335765
5503	-0.0669294
5504	0.00296629
5505	0.0153941
5506	0.0114082
5507	-0.0731078
5508	0.0841252
5509	-0.049192
5510	0.027073
5511	0.095966
5512	0.0289184
5513	0.0506826
5514	-0.0569805
5515	0.0987157
5516	-0.0966885
5517	-0.0491967
5518	0.0729946
5519	-0.0371605
5520	-0.0585691
5521	-0.0685872
5522	-0.062906
5523	0.0440925
5524	-0.0103227
5525	-0.0265957
5526	-0.00765233
5527	-0.062671
5528	0.0532272
5529	-0.097963
5530	-0.0168312
5531	0.0155902
5532	-0.0396879
5533	-0.0695702
5534	0.045018
5535	0.00708622
5536	-0.0894628
5537	-0.0925988
5538	-0.0487122
5539	-0.0627784
5540	0.000181741
5541	0.0656961
5542	-0.0918983
5543	-0.0575497
5544	0.0835654
5545	-0.0582505
5546	-0.0952942
5547	-0.0672186
5548	-0.0328546
5549	0.0624304
5550	0.0922337
5551	0.0875739
5552	0.0112738
5553	-0.0685057
5554	-0.0516623
5555	0.0948729
5556	-0.0522766
5557	-0.00380131
5558	0.0648294
5559	-0.0378534
5560	0.0639948
5561	0.0762286
5562	-0.0921786
5563	0.0131705
5564	0.0512016
5565	0.0927561
5566	-0.0148755
5567	0.0353485
5568	0.0645892
5569	0.00259746
5570	0.0982842
5571	-0.0906598
5572	0.0959658
5573	-0.0511241
5574	0.0526707
5575	-0.0954431
5576	-0.060908
5577	0.0632935
5578	-0.0321109
5579	0.00421323
5580	0.0384985
5581	0.0738964
5582	0.00330593
5583	-0.0372987
5584	0.0899047
5585	0.0120736
5586	0.0588864
5587	0.0881546
5588	0.0043939
5589	0.0926025
5590	-0.0420678
5591	0.00051519
5592	0.0526194
5593	-0.0254824
5594	-0.0876006
5595	0.0228677
5596	-0.0296873
5597	-0.0256426
5598	-0.0189921
5599	-0.0198288
5600	-0.02861
5601	0.0674326
5602	0.0345788
5603	0.0491179
5604	-0.0410525
5605	-0.0812779
5606	0.0950267
5607	0.0723205
5608	-0.0167965
5609	-0.0980326
5610	0.0840636
5611	0.0553875
5612	-0.0404784
5613	0.0939774
5614	-0.0812302
5615	-0.076978
5616	0.0752531
5617	-0.0516778
5618	-0.0165339
5619	-0.0619918
5620	0.0440794
5621	-0.0164173
5622	-0.0797205
5623	-0.0544056
5624	-0.0478987
5625	0.0538683
5626	0.0569113
5627	-0.0337321
5628	-0.0984401
5629	0.0595932
5630	-0.0745516
5631	-0.00629848
5632	-0.0875595
5633	0.0842388
5634	0.0872371
5635	-0.0457011
5636	-0.0181949
5637	-0.0647832
5638	-0.0201349
5639	-0.0294365
5640	0.0119511
5641	0.0300815
5642	-0.086339
5643	-0.0533092
5644	0.0729633
5645	0.0738768
5646	0.064917
5647	-0.0117228
5648	-0.00353372
5649	0.0470375
5650	-0.0657529
5651	-0.0701839
5652	0.00888797
5653	0.0926075
5654	0.0367201
5655	-0.0874013
5656	0.0784308
5657	-0.0370736
5658	-0.0769827
5659	-0.0572171
5660	0.0412138
5661	0.075538
5662	-0.0567912
5663	0.0110661
5664	0.0245218
5665	0.080371
5666	-0.0859104
5667	-0.0786171
5668	-0.0507136
5669	-0.0207585
5670	0.0035693
5671	0.00662053
5672	0.0370235
5673	0.0928508
5674	0.066464
5675	0.0961717
5676	-0.023254
5677	0.00632284
5678	-0.0132547
5679	0.0930537
5680	0.0951591
5681	0.0224924
5682	-0.0751988
5683	-0.0310163
5684	-0.0685975
5685	0.00311996
5686	-0.0116718
5687	0.0957626
5688	0.0185901
5689	-0.0285673
5690	0.0948709
5691	-0.0532565
5692	0.00232019
5693	0.0919682
5694	0.0720248
5695	0.0391784
5696	-0.0737172
5697	0.00455284
5698	0.0360056
5699	-0.0526607
5700	0.0710167
5701	-0.0336508
5702	-0.0280299
5703	0.00588054
5704	0.093456
5705	0.00656739
5706	-0.0128616
5707	0.0428947
5708	0.0772217
5709	-0.0608821
5710	0.017196
5711	0.059824
5712	-0.0753978
5713	0.0562606
5714	0.00553583
5715	-0.0104389
5716	-0.00963773
5717	0.0162168
5718	-0.0740423
5719	0.0174322
5720	-0.0372299
5721	0.0813319
5722	0.048479
5723	-0.0930705
5724	0.0638605
5725	0.00680939
5726	0.0743549
5727	-0.000403443
5728	-0.0919827
5729	0.0936697
5730	0.050939
5731	-0.0757953
5732	-0.0969461
5733	-0.0235981
5734	-0.0519301
5735	0.00415232
5736	-0.0491964
5737	-0.0759978
5738	-0.0805846
5739	-0.0896004
5740	-0.0505894
5741	0.00146495
5742	-0.0082497
5743	-0.0296219
5744	-0.0814393
5745	0.028175
5746	0.0209306
5747	0.072283
5748	0.0946669
5749	0.0893887
5750	-0.0780336
5751	-0.091299
5752	-0.0302428
5753	-0.0431008
5754	0.0763865
5755	0.0985142
5756	-0.0754851
5757	0.03953
5758	-7.94687e-05
5759	-0.00546285
5760	0.0428431
5761	0.0171157
5762	-0.0472168
5763	-0.090527
5764	-0.032071
5765	0.0179601
5766	-0.0760235
5767	-0.0276029
5768	-0.0920283
5769	0.0614547
5770	0.035422
5771	0.0307623
5772	0.0149832
5773	0.0279189
5774	0.0105368
5775	0.0613965
5776	-0.0984976
5777	-0.0650907
5778	0.0677698
5779	-0.0496261
5780	-0.0150653
5781	0.0749029
5782	-0.0196923
5783	0.0814215
5784	-0.0101951
5785	-0.0397829
5786	0.0060105
5787	0.0134922
5788	0.0276728
5789	0.0496449
5790	0.00515172
5791	0.00452927
5792	0.0145255
5793	0.0682892
5794	0.00381891
5795	-0.00440183
5796	-0.0777558
5797	0.0128521
5798	-0.0039159
5799	0.0987026
5800	0.0471006
5801	0.00226754
5802	0.0168531
5803	-0.0619632
5804	-0.013072
5805	0.0041527
5806	-0.0510069
5807	-0.0838079
5808	0.082655
5809	-0.0563633
5810	0.00658333
5811	-0.0251143
5812	-0.0481112
5813	-0.051248
5814	-0.0245695
5815	-0.0738333
5816	-0.00231034
5817	0.0929437
5818	0.0128197
5819	0.0365715
5820	-0.0527625
5821	0.0035201
5822	0.0755537
5823	0.045382
5824	0.0959617
5825	0.0789975
5826	-0.0542685
5827	-0.0807708
5828	0.0256861
5829	0.0615036
5830	0.0290037
5831	0.0936658
5832	0.0308446
5833	0.0286995
5834	0.0887031
5835	-0.0477238
5836	-0.0791866
5837	-0.0493817
5838	-0.0187566
5839	0.0393215
5840	-0.0615971
5841	0.020404
5842	0.0560774
5843	-0.0969548
5844	-0.08255
5845	-0.0557365
5846	-0.0773136
5847	-0.0124628
5848	0.0187205
5849	0.0633424
5850	0.0528845
5851	-0.0231886
5852	-0.0312233
5853	-0.0290537
5854	-0.0843795
5855	0.0965313
5856	0.099729
5857	0.09398
5858	0.0966317
5859	-0.00202421
5860	0.0345491
5861	0.041369
5862	-0.0323637
5863	-0.0245369
5864	0.0951703
5865	0.0421152
5866	-0.0603774
5867	-0.0498146
5868	-0.0620642
5869	-0.0407436
5870	-0.0323619
5871	-0.0715951
5872	-0.0958046
5873	0.0765928
5874	0.0721337
5875	0.0447617
5876	-0.0675154
5877	0.0904308
5878	0.0177965
5879	0.0595757
5880	-0.0334161
5881	0.0331183
5882	-0.0925864
5883	0.0954622
5884	-0.081635
5885	0.0463548
5886	-0.0416617
5887	0.0402363
5888	-0.0142957
5889	-0.00416628
5890	-0.075291
5891	0.0938068
5892	0.00562179
5893	-0.0638639
5894	0.0559902
5895	0.069314
5896	-0.0779966
5897	0.0535933
5898	-0.0525738
5899	-0.000801393
5900	0.0736967
5901	0.0261461
5902	-0.0325298
5903	-0.0207606
5904	0.0969408
5905	0.073602
5906	0.0540924
5907	0.0620433
5908	0.0611858
5909	0.0300919
5910	0.0879235
5911	0.0187721
5912	-0.0634703
5913	-0.0264529
5914	0.0849374
5915	0.0742667
5916	-0.0368111
5917	-0.0501902
5918	-0.00858074
5919	0.0749613
5920	-0.00554372
5921	0.0387982
5922	0.0107158
5923	0.017715
5924	-0.0717137
5925	0.0598851
5926	-0.0562306
5927	0.0433237
5928	-0.00166061
5929	0.0818611
5930	0.0317574
5931	-0.0348064
5932	-0.00866677
5933	-0.0334158
5934	0.0103516
5935	0.0382855
5936	-0.0611429
5937	0.0792463
5938	0.0724822
5939	0.013075
5940	0.059669
5941	-0.0059932
5942	0.0326866
5943	0.0387839
5944	0.0651178
5945	-0.0820941
5946	0.0624621
5947	0.0403384
5948	0.097034
5949	-0.0769518
5950	0.0251002
5951	0.0511331
5952	-0.0528817
5953	-0.0760689
5954	0.0747264
5955	0.0822128
5956	0.0322184
5957	0.0364269
5958	-0.0769502
5959	-0.0133245
5960	-0.00942978
5961	-0.00210128
5962	0.0997834
5963	-0.0754624
5964	0.0178029
5965	0.0346453
5966	0.0286563
5967	-0.0209411
5968	-0.0955213
5969	0.0630863
5970	-0.0582274
5971	0.0153946
5972	-0.0978865
5973	-0.0430224
5974	0.0963974
5975	0.0512165
5976	-0.0362692
5977	-0.0526236
5978	0.0306482
5979	-0.0744145
5980	-0.0121186
5981	-0.0677582
5982	-0.0522986
5983	0.0315259
5984	0.0844341
5985	-0.0864699
5986	-0.000839064
5987	-0.0801037
5988	-0.0639898
5989	-0.0076369
5990	0.0425602
5991	-0.0939124
5992	0.0700169
5993	0.007847
5994	-0.0234193
5995	-0.0818199
5996	-0.0179136
5997	0.0206821
5998	-0.0985811
5999	-0.0346381
6000	0.0564444
6001	0.0851873
6002	0.0374211
6003	0.0145357
6004	-0.023286
6005	-0.010102
6006	0.0634923
6007	0.0951423
6008	-0.0973821
6009	-0.0501665
6010	0.0337219
6011	0.0618792
6012	0.0612659
6013	-0.0572145
6014	0.00743248
6015	0.0383552
6016	-0.0622851
6017	0.0252829
6018	-0.0831736
6019	-0.0889703
6020	0.0864248
6021	0.052619
6022	0.0945647
6023	0.0197386
6024	0.0122598
6025	0.0501909
6026	0.047225
6027	-0.00729107
6028	-0.0634322
6029	0.00973073
6030	-0.0456988
6031	-0.00337878
6032	0.0717355
6033	-0.0494872
6034	0.0991384
6035	0.0297412
6036	0.047058
6037	0.0524509
6038	0.0238398
6039	-0.00540216
6040	-0.0825207
6041	0.0999358
6042	-0.0749722
6043	-0.0958672
6044	0.0405947
6045	-0.0698419
6046	-0.00200491
6047	0.0833329
6048	-0.0528862
6049	-0.0450718
6050	-0.0652523
6051	-0.0481528
6052	0.0624411
6053	-0.0568577
6054	0.0864588
6055	-0.0239422
6056	0.0782596
6057	-0.0493661
6058	-0.0283809
6059	0.00745231
6060	-0.0563872
6061	0.0665959
6062	0.0346997
6063	-0.00554152
6064	0.00587376
6065	-0.0518872
6066	-0.0495905
6067	0.0820096
6068	-0.05634
6069	-0.0978546
6070	0.00227315
6071	-0.0160999
6072	0.0161752
6073	0.0711368
6074	-0.0336338
6075	0.0679985
6076	-0.038241
6077	0.093793
6078	-0.0779431
6079	-0.0604949
6080	0.0918582
6081	-0.00790381
6082	0.087584
6083	-0.0857404
6084	-0.0770485
6085	-0.0635991
6086	0.0642784
6087	-0.000381615
6088	0.023327
6089	-0.0170929
6090	-0.0415367
6091	0.00951723
6092	0.0929591
6093	0.00241318
6094	0.00460828
6095	-0.0380893
6096	0.0206341
6097	0.000138953
6098	0.00677778
6099	0.0524498
6100	-0.0533516
6101	-0.0640131
6102	0.0136134
6103	-0.0122894
6104	0.00897942
6105	0.0738206
6106	-0.012876
6107	-0.0421819
6108	0.057248
6109	-0.0415867
6110	0.0732301
6111	-0.0708577
6112	0.0291284
6113	-0.00844837
6114	0.0339098
6115	-0.0774446
6116	-0.0757571
6117	-0.0779303
6118	-0.0528732
6119	-0.0529349
6120	-0.0206123
6121	-0.0301755
6122	-0.0661402
6123	-0.0989495
6124	-0.0299882
6125	-0.00815977
6126	-0.0974617
6127	-0.0436426
6128	0.0935044
6129	0.0629383
6130	-0.0416719
6131	-0.0591984
6132	-0.079485
6133	0.00442383
6134	-0.0838558
6135	0.0398742
6136	-0.0951193
6137	-0.03767
6138	0.0110874
6139	0.0689834
6140	0.019231
6141	-0.00767584
6142	0.0746931
6143	0.0317025
6144	-0.0640206
6145	-0.030306
6146	-0.0825109
6147	0.000962417
6148	-0.0377121
6149	0.0239019
6150	0.042625
6151	-0.00592312
6152	-0.0452955
6153	0.0618195
6154	-0.0747295
6155	-0.0821798
6156	0.0475775
6157	0.0102114
6158	-0.0437865
6159	0.0796385
6160	0.0434988
6161	0.00874991
6162	-0.00629862
6163	0.0921777
6164	-0.0936145
6165	0.0406402
6166	-0.0740566
6167	0.00681235
6168	-0.0721277
6169	-0.0856883
6170	0.031419
6171	0.0460097
6172	0.0369506
6173	0.0090876
6174	0.0755386
6175	0.016485
6176	0.00795275
6177	-0.0478223
6178	-0.0916215
6179	-0.056645
6180	0.00954619
6181	-0.0696948
6182	-0.0639903
6183	-0.060622
6184	-0.0625051
6185	-0.0774137
6186	0.0498252
6187	-0.0585061
6188	-0.0936803
6189	-0.0493714
6190	-0.00474271
6191	-0.00241399
6192	-0.0891266
6193	-0.0568648
6194	-0.0899776
6195	0.0755374
6196	-0.0915727
6197	0.0843488
6198	0.0611393
6199	0.0833503
6200	-0.0529132
6201	0.0255563
6202	-0.0296485
6203	-0.0536494
6204	0.080799
6205	-0.0212724
6206	0.025752
6207	0.0527283
6208	-0.00141216
6209	-0.0444335
6210	0.0319319
6211	0.00261201
6212	0.0368191
6213	-0.0290558
6214	0.083065
6215	0.0506389
6216	-0.0343113
6217	0.0108834
6218	-0.0346225
6219	0.000835776
6220	0.0201346
6221	0.0501655
6222	-0.041421
6223	0.0542609
6224	-0.094371
6225	-0.0170383
6226	-0.0745384
6227	-0.054613
6228	0.0954173
6229	-0.0767509
6230	0.0949173
6231	-0.0489329
6232	-0.0575174
6233	-0.0296623
6234	0.0656861
6235	-0.0769012
6236	-0.00466773
6237	-0.0967585
6238	0.0499622
6239	0.0824768
6240	0.097688
6241	-0.0861494
6242	-0.0719195
6243	-0.0643718
6244	0.0456267
6245	-0.0480555
6246	0.0488076
6247	0.0152433
6248	-0.0788018
6249	0.0366742
6250	0.0171049
6251	0.0794667
6252	0.0210309
6253	-0.0443357
6254	0.0405402
6255	0.0344872
6256	-0.0927933
6257	0.0226743
6258	-0.0258146
6259	0.0692621
6260	-0.0485689
6261	0.000923209
6262	-0.0666109
6263	0.0986676
6264	-0.0687379
6265	0.0596217
6266	0.0540969
6267	0.0242775
6268	-0.0647904
6269	-0.00262067
6270	-0.0722251
6271	0.00909428
6272	-0.00368334
6273	-0.0538445
6274	-0.0693314
6275	0.00323091
6276	-0.0370277
6277	0.0482763
6278	0.0179532
6279	-0.064471
6280	0.0975263
6281	-0.0392225
6282	-0.0377157
6283	-0.0133428
6284	-0.0412798
6285	0.0805746
6286	-0.00196069
6287	-0.0302175
6288	-0.077528
6289	0.029059
6290	-0.0126633
6291	0.0886962
6292	-0.0591913
6293	0.0619154
6294	-0.0372509
6295	0.0702113
6296	0.0851401
6297	-0.00751917
6298	-0.0971384
6299	0.0276238
6300	0.0925207
6301	0.0457459
6302	0.0456404
6303	0.0195027
6304	-0.0378909
6305	-0.0648207
6306	0.0618315
6307	-0.0891797
6308	0.0963888
6309	0.0223865
6310	-0.0731582
6311	-0.0852489
6312	-0.0238539
6313	-0.0379268
6314	-0.037372
6315	-0.0159829
6316	0.04517
6317	0.0881894
6318	0.00313868
6319	0.0359019
6320	0.0629538
6321	0.0268655
6322	0.093123
6323	0.0754736
6324	-0.0476279
6325	0.00767717
6326	0.0777723
6327	0.0520453
6328	0.0668938
6329	-0.0686014
6330	-0.0205567
6331	0.0843715
6332	0.0817473
6333	0.00860558
6334	-0.0901946
6335	0.069133
6336	0.0736519
6337	0.0626521
6338	-0.0916996
6339	-0.0614015
6340	0.0942102
6341	0.0169012
6342	-0.0403916
6343	0.0490726
6344	0.0705058
6345	-0.0319547
6346	-0.0382451
6347	0.0802306
6348	-0.0242376
6349	-0.026984
6350	0.0810989
6351	-0.0772617
6352	-0.0118069
6353	0.0150307
6354	-0.0612248
6355	-0.0310467
6356	-0.0703484
6357	0.0885924
6358	0.0505273
6359	-0.031855
6360	-0.0603416
6361	-0.0426815
6362	-0.0729012
6363	0.0594363
6364	0.0505672
6365	0.06754
6366	-0.0275104
6367	-0.0660609
6368	0.00159822
6369	-0.0829384
6370	0.0086368
6371	-0.0273506
6372	-0.0326391
6373	-0.0247301
6374	-0.0990545
6375	-0.0340676
6376	0.07213
6377	0.0981025
6378	0.0914576
6379	0.015105
6380	0.00913397
6381	-0.0266926
6382	-0.0130137
6383	0.00660117
6384	-0.0589346
6385	-0.0139817
6386	0.0608659
6387	-0.0863592
6388	0.000914538
6389	-0.0311196
6390	-0.0801622
6391	0.0784551
6392	-0.0527496
6393	-0.0548122
6394	0.0833304
6395	-0.0241211
6396	0.0367064
6397	-0.0114669
6398	-0.0351431
6399	0.0933452
6400	-0.00827295
6401	0.073949
6402	-0.0740411
6403	-0.00813792
6404	0.00726557
6405	0.00237325
6406	0.0355127
6407	-0.0895618
6408	0.0784953
6409	-0.0460524
6410	0.0906061
6411	0.0891546
6412	0.0424044
6413	-0.0475729
6414	-0.0710533
6415	0.0978237
6416	-0.00172432
6417	-0.0836074
6418	-0.00101846
6419	-0.0999932
6420	-0.0538036
6421	0.0949719
6422	0.0730327
6423	0.0280574
6424	-0.0977721
6425	-0.0119784
6426	-0.0823879
6427	-0.0935347
6428	0.0822206
6429	-0.0136574
6430	0.0517509
6431	-0.0478752
6432	-0.0111079
6433	0.0622395
6434	0.0152253
6435	0.0551334
6436	-0.0117677
6437	-0.0856071
6438	-0.0324113
6439	-0.093261
6440	-0.0118579
6441	-0.0623909
6442	-0.0289821
6443	-0.0160966
6444	0.0710937
6445	-0.0673667
6446	-0.010561
6447	-0.0584188
6448	-0.085107
6449	0.0609408
6450	-0.0459244
6451	0.00243906
6452	0.000781374
6453	-0.0393162
6454	-0.0509699
6455	-0.0807037
6456	-0.0381119
6457	-0.0732573
6458	-0.0908641
6459	0.0250021
6460	0.0543584
6461	0.0391582
6462	0.0066218
6463	-0.00798583
6464	-0.0791154
6465	-0.00562053
6466	0.00523674
6467	0.042863
6468	0.0115284
6469	0.0339677
6470	0.0508521
6471	0.0637944
6472	-0.0115854
6473	-0.0451647
6474	-0.00528412
6475	0.041186
6476	0.0170594
6477	0.0305065
6478	0.00399638
6479	0.0312636
6480	0.0269416
6481	-0.0313821
6482	-0.0526735
6483	0.0283585
6484	0.0458907
6485	0.0228423
6486	-0.062179
6487	-0.0503633
6488	0.0320935
6489	0.0895559
6490	-0.0789055
6491	-0.043955
6492	0.0978725
6493	-0.050212
6494	-0.0463109
6495	0.046862
6496	-0.0115285
6497	0.0700661
6498	0.084412
6499	0.0562668
6500	0.0989024
6501	-0.0179444
6502	0.0656682
6503	-0.0777738
6504	-0.0614602
6505	-0.0191583
6506	0.0136216
6507	-0.0231272
6508	-0.0404225
6509	-0.0983072
6510	-0.0517758
6511	0.00952414
6512	0.0484626
6513	-0.0930282
6514	-0.0871588
6515	-0.0664431
6516	-0.0197568
6517	-0.0987512
6518	0.0614921
6519	0.0986685
6520	-0.0559632
6521	0.0334569
6522	0.0155187
6523	0.0967148
6524	0.00773996
