0	0.0771526
1	0.0854445
2	-0.0368366
3	0.0368154
4	-0.00464383
5	0.0608231
6	-0.00935458
7	0.0834862
8	0.000256823
9	0.079279
10	0.0152883
11	0.0755302
12	0.0562977
13	-0.0719037
14	0.0607328
15	-0.0783762
16	-0.0724117
17	0.000574399
18	0.0780226
19	-0.0402412
20	0.0600413
21	0.00460807
22	0.0337739
23	-0.0134076
24	-0.086434
25	-0.0109419
26	-0.0408691
27	-0.0670765
28	0.0961723
29	0.0777954
30	-0.0173921
31	-0.0477937
32	0.0533928
33	0.019853
34	0.0261486
35	-0.082325
36	-0.0145476
37	-0.00251626
38	-0.0844709
39	-0.0501651
40	0.0595851
41	0.00890773
42	0.0728649
43	-0.0576934
44	0.0999494
45	-0.0445875
46	0.0481004
47	0.0425473
48	-0.0578443
49	0.0556397
50	0.0747665
51	0.0616141
52	0.0974102
53	0.0394626
54	0.0655484
55	0.0438679
56	-0.0484428
57	0.0260918
58	-0.0770475
59	-0.0246456
60	0.0404999
61	0.0763423
62	-0.0984635
63	-0.0185036
64	-0.0988991
65	0.0291015
66	-0.0995133
67	-0.0654925
68	0.028354
69	-0.0446711
70	-0.00316371
71	0.000266324
72	0.057212
73	0.0437527
74	0.0343224
75	-0.00707887
76	0.0563761
77	0.094102
78	0.0363377
79	-0.074813
80	0.026285
81	0.0504128
82	0.00652392
83	-0.0575863
84	0.0673126
85	0.0373665
86	0.0762084
87	-0.00813275
88	-0.0805538
89	0.0361476
90	-0.00185378
91	0.0613951
92	-0.0122892
93	-0.0871833
94	-0.0332805
95	0.0456946
96	0.0758958
97	-0.00141925
98	-0.0795497
99	0.0226658
100	-0.0483802
101	-0.0893909
102	-0.0893879
103	0.0684866
104	0.00704045
105	0.0760409
106	0.0388145
107	-0.0414701
108	-0.0214317
109	0.0137605
110	-0.0527922
111	-0.0772549
112	-0.0341993
113	-0.0892453
114	-0.0297615
115	0.0611795
116	-0.0779771
117	0.0748749
118	-0.0615211
119	-0.0805303
120	0.0329927
121	-0.0332114
122	0.00549197
123	0.0191021
124	-0.0249294
125	0.000797065
126	-0.0637205
127	0.0388307
128	0.0674238
129	0.0653531
130	0.0313872
131	-0.0293701
132	-0.0415471
133	0.0455229
134	-0.0437898
135	-0.0348155
136	0.0637265
137	-0.0600923
138	0.0840623
139	0.0161103
140	0.0949167
141	-0.0715443
142	0.0571879
143	-0.0512796
144	-0.0719508
145	0.0148649
146	0.00459725
147	0.0412154
148	0.00440694
149	0.0992168
150	0.0726473
151	-0.0437489
152	0.00648101
153	0.0968046
154	-0.00513485
155	-0.0338102
156	-0.0986835
157	0.091373
158	0.0673464
159	0.0664429
160	0.0102163
161	-0.0810867
162	-0.0355442
163	-0.0310895
164	0.0473444
165	-0.0862578
166	0.0496196
167	-0.0675379
168	-0.0909994
169	-0.080441
170	-0.0960725
171	-0.0878928
172	0.0165911
173	0.0400222
174	-0.0331888
175	0.0012831
176	0.055736
177	0.0069289
178	0.02639
179	-0.0299664
180	0.0804584
181	0.0679617
182	0.0385499
183	-0.00208934
184	-0.0144566
185	0.0924147
186	0.0545086
187	-0.0593766
188	-0.0302603
189	0.0203115
190	0.055375
191	-0.0567171
192	-0.0323632
193	0.0683228
194	-0.0397178
195	0.0363642
196	0.0947697
197	-0.0278388
198	0.0307587
199	0.061181
200	0.0806745
201	0.0188128
202	-0.0743494
203	0.0800808
204	0.0226664
205	-0.0567097
206	0.0483888
207	0.0852892
208	-0.0689969
209	0.0823813
210	-0.0948602
211	-0.0718026
212	0.0218877
213	0.0309632
214	0.0284443
215	-0.0767885
216	0.0272577
217	-0.0478333
218	0.0472387
219	-0.0460966
220	0.0648011
221	-0.0779146
222	0.073508
223	-0.0105287
224	-0.0970282
225	-0.0921546
226	-0.0467955
227	0.0938485
228	0.0789264
229	-0.0938589
230	-0.02884
231	-0.0352276
232	-0.0993167
233	-0.036915
234	-0.0958388
235	-0.07035
236	0.017307
237	0.0490171
238	0.06561
239	0.00913563
240	-0.0345083
241	-0.0327536
242	-0.0570475
243	-0.054533
244	0.0351164
245	-0.0854828
246	0.0540814
247	-0.0690986
248	-0.0311508
249	-0.045439
250	0.0201774
251	-0.0596026
252	-0.0274093
253	-0.0332635
254	-0.041917
255	0.0704679
256	-0.0888777
257	0.0207523
258	0.046473
259	-0.0918784
260	0.0502646
261	-0.0277466
262	0.0658681
263	-0.0596606
264	-0.0271432
265	-0.0253544
266	0.0241681
267	-0.0802397
268	0.0789793
269	0.0582243
270	-0.0317216
271	-0.0987822
272	-0.0677754
273	0.0560137
274	0.0970501
275	-0.0441687
276	-0.0335946
277	0.0371313
278	0.0576775
279	0.0371489
280	-0.074855
281	-0.0858081
282	-0.0919097
283	0.0996837
284	0.0706693
285	0.0971789
286	0.0189538
287	-0.0260351
288	-0.0919573
289	-0.0052832
290	-0.0783567
291	0.0734001
292	-0.0358725
293	-0.0374919
294	0.0916411
295	0.0585329
296	-0.0536413
297	-0.00062762
298	-0.0418734
299	-0.027984
300	0.0170181
301	0.0489324
302	0.0683504
303	-0.0411636
304	0.073928
305	0.0713351
306	-0.0169863
307	0.0160352
308	0.0609443
309	-0.0109917
310	-0.0209199
311	0.0426395
312	0.0177829
313	0.0963777
314	0.0974979
315	-0.0201965
316	-0.0635976
317	-0.0779281
318	0.0436966
319	-0.0639769
320	0.0617958
321	0.00526868
322	-0.0169014
323	-0.0916609
324	-0.0362356
325	0.0783492
326	0.068096
327	-0.0189403
328	0.0716571
329	-0.0360686
330	-0.0165543
331	-0.00797218
332	-0.0685282
333	-0.00162968
334	-0.0274583
335	0.0384301
336	0.0128838
337	0.018553
338	-0.0667326
339	-0.0365316
340	0.00384976
341	0.0382652
342	0.0712272
343	-0.0662588
344	-0.00374757
345	0.0433648
346	-0.00950075
347	0.0671604
348	-0.0504038
349	0.08277
350	0.0514829
351	-0.0284844
352	-0.0708039
353	0.0385427
354	-0.0953502
355	-0.069985
356	-0.0566698
357	-0.0463514
358	-0.0371022
359	-0.0909261
360	0.0487113
361	-0.00476383
362	-0.0706168
363	-0.0936633
364	0.0756122
365	0.0326688
366	-0.0149378
367	-0.0913986
368	-0.0801797
369	-0.00539464
370	0.0681189
371	-0.0611873
372	-0.0905947
373	0.0672039
374	-0.09734
375	-0.00820202
376	0.0243739
377	-0.0729864
378	-0.0933356
379	-0.00835934
380	0.0185977
381	-0.007885
382	-0.0136844
383	0.030459
384	-0.0802056
385	-0.0622063
386	-0.0135957
387	-0.0272079
388	0.0910191
389	-0.0915999
390	-0.054167
391	0.0353029
392	0.0188781
393	0.0195802
394	-0.00244191
395	0.0616927
396	-0.00940756
397	-0.0693298
398	-0.0871723
399	0.0724388
400	-0.0427954
401	-0.0443275
402	0.00246952
403	-0.00982853
404	0.0301202
405	0.0228745
406	0.00713914
407	0.0725645
408	0.0944767
409	0.0382288
410	-0.0103803
411	-0.0706284
412	-0.0288084
413	-0.0521778
414	-0.0540265
415	0.080532
416	-0.0800851
417	0.0892339
418	-0.0192717
419	-0.0868544
420	-0.0667683
421	0.0978048
422	0.0264868
423	0.0382599
424	-0.0227711
425	0.042017
426	0.0936679
427	-0.0867702
428	-0.0817116
429	0.097253
430	0.00758202
431	-0.0625795
432	0.0298896
433	0.0487504
434	0.0397888
435	-0.0350484
436	0.0160211
437	0.0399703
438	-0.0908607
439	-0.0712287
440	0.0222733
441	-0.0518215
442	-0.0686815
443	-0.00600201
444	0.0735527
445	-0.0284199
446	-0.0245817
447	-0.0162663
448	-0.00400492
449	0.0455179
450	0.0782592
451	-0.0185556
452	-0.088967
453	0.0346105
454	-0.00801427
455	0.0970545
456	0.0608258
457	-0.0453732
458	0.0583213
459	0.0489577
460	-0.0540411
461	-0.0391867
462	0.0750008
463	0.0238699
464	-0.0327072
465	-0.0196493
466	0.0507786
467	0.0183602
468	0.0217001
469	-0.0670299
470	-0.0474915
471	0.0957777
472	0.0231672
473	-0.0175185
474	-0.099138
475	0.0140686
476	-0.0227458
477	0.0570087
478	0.0515774
479	-0.0465117
480	0.0911175
481	0.0406493
482	-0.059417
483	0.0496354
484	-0.0973842
485	-0.0157221
486	0.066111
487	0.0261659
488	-0.075629
489	-0.0762923
490	0.0152152
491	-0.0771453
492	0.0385102
493	0.00162313
494	0.0910507
495	0.0832195
496	-0.083201
497	0.0363902
498	-0.0880823
499	-0.0983828
500	-0.00921898
501	-0.0566045
502	0.00085578
503	0.0772659
504	0.0111581
505	-0.0642741
506	-0.0834011
507	0.0327771
508	-0.0267445
509	0.0337478
510	0.0812071
511	0.0023904
512	0.0310328
513	-0.0628904
514	0.0698424
515	-0.0321118
516	-0.0374497
517	0.0574716
518	0.034704
519	-0.0717766
520	-0.00855792
521	-0.0670834
522	0.0563517
523	0.0910395
524	0.0672716
525	-0.0896266
526	-0.0189804
527	0.0856609
528	0.0939855
529	-0.0849547
530	-0.0554363
531	0.0858873
532	-0.0382072
533	-0.0278589
534	-0.0962487
535	0.0661966
536	-0.0764432
537	-0.0348215
538	0.0195105
539	0.0784709
540	0.0172159
541	0.00483962
542	0.0269521
543	0.0350755
544	0.0864017
545	-0.0759527
546	0.0931652
547	0.0663307
548	-0.0649228
549	-0.0789312
550	0.0958653
551	0.0995001
552	-0.0376815
553	-0.0472504
554	-0.0639142
555	0.0800708
556	0.019386
557	0.0886735
558	-0.0839062
559	-0.0397834
560	0.0605352
561	-0.0939338
562	-0.0999511
563	-0.0747039
564	-0.065971
565	0.0513272
566	0.0521854
567	-0.0652392
568	0.0189808
569	-0.0809436
570	-0.0123823
571	-0.060985
572	-0.00447556
573	-0.0307855
574	0.0820769
575	0.0864039
576	0.0589648
577	0.0532219
578	0.00902337
579	0.0709109
580	-0.0329337
581	0.0383565
582	-0.0804723
583	0.0919997
584	-0.0468213
585	-0.0320465
586	-0.00926938
587	0.083356
588	-0.0237456
589	0.0886994
590	-0.00702691
591	-0.077632
592	-0.0505005
593	0.0359691
594	-0.0622613
595	0.0212014
596	0.0896508
597	-0.0706835
598	0.0247969
599	-0.0425227
600	-0.00667316
601	-0.00954385
602	-0.0814337
603	-0.079759
604	-0.0312125
605	0.0804998
606	0.0713425
607	-0.0280799
608	0.0787697
609	-0.0314834
610	0.0597557
611	-0.00213073
612	0.00705732
613	-0.0586355
614	0.0335379
615	0.0120727
616	-0.0293905
617	-0.0292078
618	-0.0800769
619	-0.0800722
620	-0.0120228
621	-0.0264214
622	-0.0835545
623	0.0408907
624	-0.0645584
625	-0.0580095
626	0.0284807
627	0.0214921
628	-0.0714231
629	-0.0932093
630	-0.0651462
631	0.0877453
632	0.0826147
633	0.093673
634	-0.0322563
635	0.0342689
636	-0.041106
637	0.0380982
638	0.0708172
639	-0.0527244
640	-0.0969216
641	-0.0587833
642	-0.0568999
643	0.0581036
644	0.0491723
645	-0.0565118
646	-0.0810372
647	-0.0608461
648	-0.0177716
649	-0.0673036
650	0.071092
651	-0.0604942
652	-0.0986373
653	-0.042298
654	-0.083462
655	0.0560883
656	0.0178472
657	-0.0315218
658	-0.063322
659	0.0879113
660	-5.97432e-05
661	0.0125069
662	-0.0887847
663	0.0190688
664	-0.00296912
665	-0.0684636
666	-0.0495346
667	-0.0244225
668	-0.0815431
669	0.075382
670	0.0983374
671	0.0121583
672	0.0315655
673	-0.0029375
674	-0.088301
675	-0.0143555
676	0.0208517
677	0.045881
678	0.087973
679	0.0370161
680	0.0606739
681	-0.0381926
682	0.0597913
683	0.07312
684	0.00219579
685	-0.0443954
686	-0.0910595
687	-0.0568008
688	-0.0439767
689	-0.019329
690	0.063349
691	-0.0428907
692	0.0294727
693	0.0980076
694	-0.0445221
695	0.0521344
696	0.0787092
697	-0.0181781
698	-0.0137922
699	0.0160389
700	0.0780572
701	-0.0295701
702	-0.0886498
703	0.0397056
704	0.0504907
705	0.000208201
706	-0.0654665
707	-0.0701475
708	-0.0184895
709	0.0330246
710	-0.0717352
711	0.0364468
712	0.0521913
713	-0.0109184
714	0.0983892
715	-0.00724228
716	0.0495532
717	-0.0135856
718	0.0252469
719	-0.00272353
720	-0.0977207
721	-0.0877428
722	0.0132436
723	-0.0735399
724	-0.00602034
725	0.0982601
726	0.0767659
727	-0.0595057
728	-0.0979341
729	-0.0366149
730	0.0494372
731	-0.0641227
732	0.0345493
733	-0.00488803
734	-0.0951461
735	-0.0538506
736	-0.0792142
737	-0.0973549
738	0.075766
739	-0.0975586
740	-0.0833341
741	-0.0832244
742	-0.0813477
743	-0.0939151
744	-0.0472762
745	-0.0346987
746	0.00926765
747	0.0156908
748	0.0110244
749	-0.020552
750	-0.00823703
751	0.0135937
752	-0.000658227
753	0.00580475
754	-0.0115854
755	0.0787971
756	0.0387229
757	0.0295441
758	0.0100564
759	-0.086675
760	-0.0477585
761	-0.0166798
762	0.00476321
763	0.025257
764	0.0776361
765	0.00259529
766	-0.0577233
767	0.0114974
768	-0.0920453
769	0.0807513
770	0.00231745
771	0.0738432
772	0.09508
773	0.0992661
774	0.0417345
775	0.0645424
776	0.0793001
777	-0.0569096
778	0.084503
779	-0.045088
780	0.0475055
781	-0.0248817
782	-0.0162164
783	-0.0176351
784	-0.0485772
785	-0.0610903
786	0.0754796
787	-0.0319155
788	0.0840792
789	-0.0171601
790	0.0935049
791	-0.0812507
792	0.0370672
793	0.0203216
794	-0.0761104
795	-0.00604186
796	0.0601576
797	-0.0537745
798	0.0740158
799	0.0901974
800	0.0717307
801	-0.0310845
802	0.00672328
803	-0.0451431
804	-0.095661
805	-0.0159358
806	0.0317523
807	-0.0130902
808	-0.0811248
809	-0.0346265
810	0.0822948
811	-0.0290619
812	-0.000944619
813	0.0211184
814	0.0504859
815	-0.00421012
816	0.0870344
817	0.0913106
818	0.036902
819	0.0418738
820	-0.00557725
821	0.0087922
822	0.0135661
823	0.0474611
824	-0.0719445
825	0.0223204
826	-0.0950907
827	0.0871169
828	-0.0023131
829	0.0732464
830	-0.0320524
831	-0.0635556
832	-0.0594979
833	-0.0006961
834	0.0606817
835	0.0914917
836	-0.0754181
837	-0.0707644
838	0.0250023
839	-0.0450355
840	0.0148444
841	0.0654325
842	-0.0332711
843	-0.0815058
844	-0.0981936
845	0.0550911
846	-0.00780458
847	0.0763862
848	0.0923909
849	0.091786
850	0.00201601
851	0.0455068
852	0.0977215
853	-0.015254
854	-0.0665498
855	-0.0800014
856	0.00882126
857	0.0694071
858	-0.0109643
859	-0.0273673
860	0.0374427
861	0.0482417
862	-0.0433131
863	-0.0387155
864	0.0246221
865	0.0957397
866	-0.0835258
867	-0.0689569
868	-0.0960866
869	-0.0247914
870	-0.00498113
871	-0.0195863
872	-0.0332309
873	0.00519391
874	-0.061248
875	0.0335345
876	0.08494
877	0.0464939
878	-0.0196995
879	-0.020129
880	0.0627422
881	0.0211107
882	-0.0839643
883	0.0555117
884	-0.0259278
885	-0.0229409
886	0.0667361
887	-0.0489025
888	-0.0802133
889	0.0472026
890	-0.0429571
891	-0.0675598
892	-0.05806
893	-0.0402164
894	0.0611551
895	0.0320073
896	0.0106653
897	0.0834989
898	-0.0485686
899	-0.0577934
900	0.0308345
901	-0.0728597
902	0.0801518
903	-0.0702477
904	-0.00312066
905	0.00589793
906	-0.0792191
907	-0.0256373
908	0.0877358
909	0.0102266
910	-0.0482132
911	-0.0420013
912	-0.0123036
913	0.0189061
914	0.0580703
915	0.00825578
916	-0.0271865
917	0.0552797
918	-0.0390599
919	-0.0194261
920	0.0549199
921	0.00576564
922	0.0779506
923	-0.0447799
924	-0.0904231
925	-0.0168067
926	0.0347619
927	0.0868295
928	-0.021132
929	-0.0822185
930	0.0144407
931	0.0141472
932	-0.0212872
933	-0.0668874
934	-0.0556069
935	0.00795652
936	-0.0123412
937	0.0978382
938	0.0755284
939	-0.0396828
940	0.0965287
941	-0.0470305
942	0.00243843
943	0.071367
944	0.0311062
945	-0.0558171
946	0.0437193
947	-0.0958004
948	0.0309902
949	0.0596777
950	-0.0963709
951	0.0535402
952	-0.0493809
953	0.00452941
954	0.0772482
955	0.0645161
956	0.0907877
957	-0.0165471
958	0.0804934
959	-0.0386563
960	0.0077897
961	-0.0370522
962	-0.00392805
963	-0.026591
964	0.0911155
965	-0.0654335
966	-0.0506384
967	-0.0981914
968	0.0596569
969	0.0821966
970	-0.00789101
971	-0.0933792
972	0.070235
973	0.0602337
974	0.0529306
975	-0.0185935
976	0.0164246
977	-0.0548838
978	0.0297947
979	-0.0503237
980	-0.00753087
981	-0.0311094
982	0.0642788
983	-0.00612857
984	-0.0442968
985	-0.0592405
986	-0.0986698
987	0.0865301
988	-0.0468437
989	0.0875656
990	0.00093523
991	0.0958313
992	0.0468809
993	-0.0927395
994	-0.0926123
995	0.0138242
996	-0.0376657
997	-0.0552354
998	-0.00394499
999	-0.0883918
1000	-0.0240971
1001	0.0756206
1002	0.0176319
1003	-0.030402
1004	0.0969854
1005	0.0816598
1006	-0.00225973
1007	0.0751957
1008	-0.0551515
1009	-0.0899112
1010	0.0764388
1011	-0.0339667
1012	-0.0624632
1013	-0.045323
1014	0.0473161
1015	-0.0996642
1016	-0.0270869
1017	0.0772267
1018	0.0476974
1019	-0.0640128
1020	-0.0248719
1021	-0.0613864
1022	-0.0355439
1023	-0.00469344
1024	-0.0306492
1025	-0.00125602
1026	-0.046903
1027	0.0589915
1028	0.0276663
1029	-0.0679372
1030	-0.0876932
1031	0.0808407
1032	0.0769894
1033	-0.0128686
1034	-0.045101
1035	-0.0482789
1036	0.0769265
1037	0.0886177
1038	0.0171066
1039	0.0546244
1040	-0.0911917
1041	-0.0670479
1042	0.0728388
1043	0.088237
1044	-0.0508813
1045	-0.0986679
1046	0.0249114
1047	-0.0518259
1048	-0.0171454
1049	0.0397607
1050	0.00970136
1051	0.0948952
1052	0.0949695
1053	0.028875
1054	0.00169625
1055	0.0391134
1056	-0.0297129
1057	0.0852676
1058	0.0904233
1059	-0.0261978
1060	0.0939112
1061	-0.00122516
1062	-0.0246717
1063	0.0723493
1064	-0.099194
1065	0.0774873
1066	0.0796886
1067	0.00657522
1068	-0.0456631
1069	-0.0335256
1070	-0.0602282
1071	0.0764409
1072	-0.0692384
1073	0.0718931
1074	-0.0514169
1075	-0.0352073
1076	0.087719
1077	0.0922283
1078	0.0386387
1079	0.032079
1080	-0.0598437
1081	-0.078967
1082	0.0544944
1083	-0.096105
1084	-0.00542767
1085	-0.00646522
1086	0.00230633
1087	0.098014
1088	-0.0622298
1089	0.0665342
1090	-0.0835418
1091	-0.0796785
1092	-0.0805183
1093	0.0435628
1094	0.0101764
1095	0.084839
1096	0.050519
1097	-0.0182928
1098	-0.0228294
1099	-0.0869511
1100	-0.00618528
1101	0.0502188
1102	0.084045
1103	0.0528983
1104	-0.0213583
1105	-0.0088536
1106	-0.0429639
1107	0.098128
1108	0.0826738
1109	0.075156
1110	-0.0204622
1111	0.0483455
1112	0.000910024
1113	-0.0379964
1114	0.06529
1115	-0.0337627
1116	0.0491503
1117	-0.00880057
1118	0.0688454
1119	-0.0524016
1120	0.0391389
1121	-0.0102394
1122	-0.023658
1123	0.0369701
1124	0.096123
1125	0.0700945
1126	0.00885886
1127	0.091784
1128	0.0982794
1129	-0.0304752
1130	-0.093871
1131	-0.0843019
1132	0.0993051
1133	-0.0785435
1134	0.00121202
1135	0.0331959
1136	0.0735798
1137	0.0921861
1138	0.0386913
1139	0.01524
1140	-0.0571775
1141	-0.0656836
1142	0.072177
1143	-0.0846871
1144	-0.0583176
1145	-0.0723375
1146	-0.0201988
1147	-0.0793454
1148	-0.0979815
1149	-0.0832565
1150	0.0648812
1151	-0.0301978
1152	0.0648193
1153	-0.0838097
1154	-0.0286635
1155	0.0128156
1156	-0.0077636
1157	0.0972263
1158	-0.0575846
1159	-0.064566
1160	0.0371794
1161	-0.0809024
1162	0.0655348
1163	-0.0644941
1164	-0.0484217
1165	0.0630464
1166	-0.0584988
1167	-0.0214753
1168	0.0389257
1169	-0.0387238
1170	-0.0625728
1171	0.0780075
1172	-0.0479677
1173	-0.0740091
1174	-0.0763459
1175	0.0933879
1176	0.0711986
1177	-0.0436802
1178	0.0785641
1179	0.0480973
1180	0.0619934
1181	-0.0335401
1182	-0.0967844
1183	-0.00680355
1184	-0.0717171
1185	-0.0732143
1186	-0.0594761
1187	-0.0016611
1188	-0.0587164
1189	0.02988
1190	0.00958729
1191	0.02875
1192	0.0443431
1193	-0.0872769
1194	-0.0904967
1195	-0.0522404
1196	0.0534855
1197	-0.029849
1198	-0.0632916
1199	0.0547917
1200	-0.047049
1201	-0.0703309
1202	0.04038
1203	-0.0667113
1204	-0.0506535
1205	0.0851454
1206	-0.0205823
1207	0.0319623
1208	-0.0988783
1209	0.0104291
1210	-0.0736888
1211	0.028303
1212	-0.0961315
1213	0.0127168
1214	0.0956527
1215	0.00451679
1216	-0.0332654
1217	0.0942968
1218	0.0154932
1219	-0.00643782
1220	0.0373016
1221	0.0522441
1222	-0.0884684
1223	0.0778553
1224	-0.0542349
1225	0.0651009
1226	-0.0117298
1227	0.015446
1228	-0.0361101
1229	-0.062203
1230	0.0364736
1231	-0.0136924
1232	-0.0274546
1233	-0.0849555
1234	-0.0963753
1235	-0.0726637
1236	0.0741617
1237	-0.0448979
1238	-0.0927596
1239	-0.0115576
1240	0.0733137
1241	-0.0574905
1242	0.0159282
1243	0.0792455
1244	0.0970605
1245	-0.0537761
1246	0.0869549
1247	0.0932944
1248	0.0312996
1249	-0.0897641
1250	-0.0884795
1251	0.0174666
1252	0.0668678
1253	-0.0881218
1254	0.0140889
1255	0.0487346
1256	-0.0596654
1257	0.0303135
1258	0.0771828
1259	-0.0352577
1260	0.0721738
1261	0.0430017
1262	-0.0671158
1263	0.0508878
1264	0.0674729
1265	0.0918509
1266	0.00961185
1267	-0.00752456
1268	0.0157469
1269	0.0504416
1270	0.0184233
1271	0.0716088
1272	-0.0946282
1273	0.016143
1274	0.0478782
1275	0.0693154
1276	-0.0299011
1277	0.0326527
1278	-0.009242
1279	-0.0476095
1280	-0.0194691
1281	0.0631761
1282	0.085833
1283	-0.0196225
1284	0.0528872
1285	0.0159335
1286	-0.0139287
1287	-0.0251029
1288	-0.0595893
1289	0.0549041
1290	0.022573
1291	-0.041439
1292	-0.0300684
1293	0.0284594
1294	-0.0800546
1295	-0.0847198
1296	0.0308727
1297	-0.071385
1298	-0.0148935
1299	0.076934
1300	0.00788665
1301	-0.0968095
1302	-0.00293084
1303	0.029806
1304	0.0526347
1305	0.0473723
1306	-0.0731564
1307	-0.0981738
1308	0.00984066
1309	0.0682204
1310	0.0676747
1311	-0.0525977
1312	0.0679362
1313	-0.00733148
1314	0.0965629
1315	-0.0327065
1316	-0.012616
1317	-0.0899606
1318	0.00745312
1319	0.0981348
1320	-0.0923135
1321	-0.0826853
1322	0.0375152
1323	0.0361601
1324	0.0762242
1325	-0.0702149
1326	0.0415277
1327	-0.0448829
1328	-0.0432491
1329	-0.0720256
1330	-0.00509665
1331	-0.0106043
1332	-0.0289916
1333	-0.0464698
1334	-0.0831662
1335	0.0122807
1336	0.0529237
1337	-0.0990849
1338	0.0926858
1339	0.0651565
1340	0.0246007
1341	0.0298479
1342	-0.0894208
1343	0.0442122
1344	-0.0856649
1345	-0.0392525
1346	0.0111172
1347	-0.027987
1348	-0.038942
1349	-0.021561
1350	-0.0685199
1351	-0.0567876
1352	0.00641283
1353	-0.0598348
1354	0.0839367
1355	-0.0580425
1356	0.031909
1357	0.0643434
1358	-0.0470814
1359	0.00630843
1360	-0.0124974
1361	-0.0212159
1362	0.0635812
1363	0.0446284
1364	-0.00193006
1365	0.0197185
1366	-0.0299725
1367	-0.0422094
1368	-0.099589
1369	-0.0351375
1370	0.0347662
1371	-0.0663226
1372	-0.0721562
1373	-0.0878778
1374	-0.0085471
1375	0.03466
1376	-0.0121099
1377	-0.0593428
1378	-0.0385344
1379	0.0799351
1380	-0.0175918
1381	0.00839905
1382	-0.0706434
1383	-0.00133411
1384	0.0999917
1385	0.00997067
1386	-0.083318
1387	0.0459728
1388	0.0787355
1389	-0.00692709
1390	0.00897214
1391	-0.0795357
1392	-0.0195152
1393	0.0234598
1394	-0.0864679
1395	-0.0825428
1396	0.0179498
1397	-0.0950739
1398	0.0863544
1399	0.00975651
1400	-0.0951934
1401	0.00315677
1402	-0.0767895
1403	-0.0518026
1404	0.0297121
1405	0.0547132
1406	0.0616076
1407	0.0854371
1408	-0.0286591
1409	-0.0616357
1410	-0.0882866
1411	0.0149603
1412	-0.0601603
1413	0.0111991
1414	0.0904673
1415	0.0728975
1416	-0.0931756
1417	0.0133868
1418	-0.058201
1419	-0.0133346
1420	-0.0439507
1421	-0.0563892
1422	0.0503956
1423	0.0816907
1424	0.0621366
1425	-0.0810018
1426	0.021047
1427	-0.0350518
1428	-0.0897051
1429	-0.0188574
1430	-0.0931175
1431	-0.0437755
1432	0.00550434
1433	0.0119204
1434	0.0917694
1435	0.0404834
1436	0.0995073
1437	-0.0624683
1438	0.0290318
1439	-0.0716352
1440	0.0837355
1441	-0.0553135
1442	0.004293
1443	0.0805527
1444	-0.0702677
1445	-0.0970892
1446	-0.0626121
1447	0.02978
1448	-0.0508551
1449	0.0286271
1450	0.0374081
1451	0.00877327
1452	-0.0100758
1453	-0.0227733
1454	-0.0630615
1455	0.0464276
1456	0.00901186
1457	-0.0807585
1458	0.0841018
1459	-0.0262096
1460	0.0304681
1461	0.0799113
1462	-0.0426245
1463	0.0850791
1464	0.0246778
1465	0.0599217
1466	-0.00517799
1467	-0.013733
1468	-0.0186587
1469	-0.0291797
1470	-0.0010778
1471	0.058124
1472	-0.0100881
1473	-0.0743545
1474	-0.055271
1475	0.0914431
1476	0.0215338
1477	0.0737116
1478	-0.0826525
1479	-0.0940909
1480	-0.00706886
1481	-0.083164
1482	-0.0725278
1483	0.0932077
1484	0.0397393
1485	-0.0831376
1486	-0.0765083
1487	-0.035358
1488	0.0932274
1489	0.0529403
1490	-0.0231078
1491	0.099377
1492	0.0909378
1493	-0.0616597
1494	0.0908045
1495	0.0252827
1496	-0.0894993
1497	0.0624631
1498	-0.0552175
1499	-0.0188549
1500	0.0995568
1501	0.0889197
1502	0.0817727
1503	0.0326967
1504	0.0943266
1505	0.0250193
1506	-0.0529866
1507	-0.079173
1508	-0.0588643
1509	-0.0200993
1510	-0.00758341
1511	0.0945345
1512	-0.0851013
1513	-0.0907303
1514	0.0594906
1515	-0.00613335
1516	-0.0133224
1517	-0.0250251
1518	-0.0584976
1519	-0.0655623
1520	-0.0442692
1521	-0.0900244
1522	0.0436671
1523	-0.00874768
1524	0.0122818
1525	0.0597597
1526	0.00867761
1527	-0.0411819
1528	0.0505708
1529	0.042252
1530	0.00268064
1531	-0.000650487
1532	0.0630709
1533	0.0816568
1534	-0.0950908
1535	-0.0307069
1536	-0.0955816
1537	0.0475937
1538	-0.0323329
1539	0.0312339
1540	0.0356241
1541	-0.0916144
1542	0.00808661
1543	0.0466268
1544	0.0656176
1545	0.0587998
1546	0.0925473
1547	0.0828336
1548	-0.0181292
1549	0.0290259
1550	0.0710844
1551	-0.0873761
1552	0.0367465
1553	0.0983436
1554	-0.0144794
1555	0.00526475
1556	0.0575265
1557	0.0293387
1558	0.0445837
1559	0.0243405
1560	-0.0182707
1561	-0.0289858
1562	0.0652222
1563	0.0915984
1564	0.0693824
1565	0.0269709
1566	-0.0153806
1567	-0.0074905
1568	-0.0895594
1569	-0.0152554
1570	-0.0549317
1571	0.067583
1572	0.0533206
1573	0.0639977
1574	0.0634747
1575	0.0964587
1576	0.00916024
1577	0.0440503
1578	-0.0468458
1579	0.0208073
1580	-0.0993829
1581	-0.0869923
1582	-0.0864601
1583	0.0211754
1584	-0.0696951
1585	-0.000577562
1586	-0.0697207
1587	0.0929635
1588	0.0634975
1589	-0.0440504
1590	-0.0584609
1591	-0.089465
1592	-0.0533911
1593	-0.0441315
1594	-0.0797015
1595	0.0264831
1596	-0.0833116
1597	0.0883616
1598	0.024191
1599	0.0600972
1600	0.0201135
1601	-0.0428525
1602	0.0410263
1603	-0.0875018
1604	-0.0777614
1605	0.0474362
1606	-0.0752935
1607	0.0152794
1608	-0.07244
1609	0.0145544
1610	0.0943347
1611	-0.0784088
1612	0.00513261
1613	0.0849509
1614	0.086786
1615	-0.0863429
1616	-0.0613065
1617	0.000256884
1618	-0.0563041
1619	-0.0118229
1620	0.000856933
1621	0.0333454
1622	-0.0092182
1623	0.00859203
1624	-0.0426718
1625	0.018938
1626	0.0822274
1627	0.0654901
1628	0.0945889
1629	0.0512243
1630	0.0159692
1631	-0.0794782
1632	0.0265452
1633	-0.0129194
1634	-0.0599679
1635	0.0886462
1636	0.0373784
1637	0.0812483
1638	-0.0645058
1639	0.0559785
1640	0.0835594
1641	0.0866007
1642	-0.0604041
1643	0.0758803
1644	0.0119182
1645	-0.0672316
1646	-0.0281064
1647	0.0752344
1648	-0.055336
1649	-0.0659216
1650	0.00383701
1651	-0.0396083
1652	-0.0821052
1653	-0.00917771
1654	0.0995339
1655	0.0656293
1656	-0.0672603
1657	-0.0452484
1658	0.0857786
1659	0.0992481
1660	-0.0651896
1661	-0.0766749
1662	-0.0586503
1663	-0.0801397
1664	-0.0606669
1665	-0.0892141
1666	-0.0883158
1667	-0.0805586
1668	0.0297255
1669	0.0974031
1670	0.0602955
1671	-0.0988364
1672	0.0173831
1673	-0.0742867
1674	0.0819949
1675	0.0905318
1676	-0.00212424
1677	-0.0780964
1678	-0.0972012
1679	0.0483106
1680	-0.00294544
1681	0.00731923
1682	0.0627966
1683	-0.099748
1684	-0.0527849
1685	0.0390361
1686	0.0206632
1687	0.0120384
1688	0.0640181
1689	-0.0962829
1690	-0.0141438
1691	0.0145515
1692	-0.0944219
1693	0.0529588
1694	-0.0175485
1695	0.0845007
1696	-0.0538786
1697	-0.0982562
1698	-0.00313515
1699	0.00609929
1700	-0.0470577
1701	0.0682209
1702	0.0726503
1703	-0.0405682
1704	-0.0820041
1705	0.0470633
1706	-0.0776566
1707	0.0237857
1708	-0.00340954
1709	-0.0119605
1710	0.0625437
1711	-0.0455234
1712	-0.0773606
1713	-0.0955314
1714	0.0699555
1715	-0.0390358
1716	0.0499612
1717	-0.0921783
1718	-0.0958985
1719	0.0440326
1720	-0.0132661
1721	-0.0134459
1722	0.0838893
1723	-0.0787837
1724	0.00803635
1725	0.0796701
1726	-0.0836214
1727	0.0449512
1728	-0.0376958
1729	-0.0849838
1730	0.0168989
1731	-0.0804945
1732	0.0214643
1733	-0.0851821
1734	0.0401038
1735	-0.00705785
1736	0.0378189
1737	-0.0399456
1738	-0.0542275
1739	0.037725
1740	-0.0567133
1741	0.0258666
1742	-0.0636621
1743	0.0236662
1744	0.00584555
1745	-0.058186
1746	-0.0376969
1747	-0.0305351
1748	-0.0940476
1749	-0.0611524
1750	-0.054606
1751	-0.082328
1752	0.0854516
1753	0.0667235
1754	-0.0523584
1755	-0.0571087
1756	-0.0108599
1757	0.054124
1758	-0.0802878
1759	-0.0538229
1760	0.0759747
1761	0.080554
1762	0.0080752
1763	0.0749296
1764	0.0688128
1765	0.0436734
1766	0.0786621
1767	0.0314329
1768	0.0466404
1769	0.0693594
1770	-0.00760464
1771	-0.0931999
1772	-0.00709489
1773	-0.041492
1774	0.0939464
1775	-0.0849183
1776	0.0720056
1777	-0.083745
1778	-0.0118459
1779	-0.0814644
1780	0.0621584
1781	0.0162337
1782	0.0416665
1783	-0.0394012
1784	0.0703722
1785	-0.0182254
1786	-0.0239448
1787	0.0519793
1788	0.00552986
1789	0.040902
1790	-0.0263728
1791	0.0121936
1792	-0.0800319
1793	0.0286353
1794	0.0332197
1795	-0.0862637
1796	0.0109135
1797	-0.0422536
1798	0.029552
1799	0.0187439
1800	-0.027002
1801	0.0998985
1802	-0.0170826
1803	-0.0537871
1804	0.0614735
1805	-0.046283
1806	-0.0159472
1807	-0.0810825
1808	0.0399845
1809	-0.0390831
1810	-0.0106743
1811	-0.0926612
1812	-0.00473916
1813	-0.0321675
1814	-0.0108227
1815	-0.0532999
1816	0.0177466
1817	0.0999406
1818	-0.0167997
1819	-0.0202767
1820	-0.0146791
1821	0.0641464
1822	0.0690092
1823	-0.035726
1824	0.0839921
1825	-0.0609256
1826	-0.0486006
1827	-0.0552052
1828	-0.0192316
1829	-0.0194501
1830	-0.0857592
1831	-0.0091471
1832	-0.0383859
1833	0.0755943
1834	-0.058023
1835	-0.0482275
1836	0.0291197
1837	0.00626549
1838	0.0465033
1839	-0.0375236
1840	-0.00771378
1841	-0.000708434
1842	-0.0421499
1843	-0.0549549
1844	0.0151716
1845	-0.0556959
1846	0.0495511
1847	-0.0958532
1848	0.0342847
1849	0.058033
1850	0.0729579
1851	-0.0285027
1852	0.0866576
1853	-0.0918081
1854	0.0178383
1855	-0.0245655
1856	0.0872865
1857	-0.0358773
1858	-0.0439061
1859	-0.0572554
1860	0.056245
1861	0.0288329
1862	0.0619732
1863	0.0425576
1864	0.0912495
1865	0.0176758
1866	0.0382877
1867	0.0466794
1868	0.0819158
1869	0.0228222
1870	-0.0108787
1871	-0.0809373
1872	-0.0604718
1873	-0.0883556
1874	0.0904674
1875	-0.0365502
1876	-0.0873086
1877	-0.043617
1878	0.0601387
1879	0.0742633
1880	0.0313085
1881	0.030072
1882	-0.00457555
1883	0.0928184
1884	0.00902085
1885	-0.0880267
1886	0.0348513
1887	0.05995
1888	-0.0248601
1889	0.0216851
1890	0.0865386
1891	0.0549454
1892	-0.0193065
1893	-0.0667963
1894	-0.0873697
1895	0.0433455
1896	-0.00425152
1897	0.0467424
1898	0.049104
1899	-0.0738613
1900	-0.0443191
1901	0.0687145
1902	-0.0324697
1903	0.0133954
1904	0.0556791
1905	0.0585243
1906	0.0672986
1907	-0.0391587
1908	-0.0751578
1909	-0.0345013
1910	0.0501092
1911	0.0943897
1912	-0.00171824
1913	0.0672748
1914	0.0667799
1915	0.000372586
1916	0.00537082
1917	0.0865468
1918	0.0966276
1919	5.62676e-05
1920	-0.0407288
1921	-0.0266606
1922	0.0153515
1923	-0.0603249
1924	-0.0409107
1925	0.0165263
1926	-0.0958985
1927	0.0786886
1928	-0.0765189
1929	0.0970395
1930	-0.0494914
1931	0.054438
1932	-0.0591283
1933	0.029413
1934	0.0135666
1935	-0.0344932
1936	0.0226386
1937	-0.044506
1938	-0.0779637
1939	-0.0668221
1940	0.0324138
1941	-0.0960094
1942	0.00393774
1943	-0.053308
1944	-0.000766972
1945	0.0930723
1946	0.0575594
1947	-0.0728573
1948	0.0056321
1949	-0.0814058
1950	-0.0753154
1951	-0.0892774
1952	-0.0439743
1953	0.0808077
1954	-0.0449779
1955	-0.0637869
1956	0.0322815
1957	-0.0860356
1958	-0.0742102
1959	-0.0548434
1960	-0.0699096
1961	0.00991697
1962	0.0904879
1963	0.0143523
1964	0.0854953
1965	-0.00884752
1966	-0.077234
1967	-0.0270634
1968	-0.0474712
1969	0.0301812
1970	0.0100028
1971	-0.0184282
1972	-0.020376
1973	0.0187528
1974	-0.0633644
1975	-0.00515116
1976	-0.0187726
1977	-0.0512685
1978	-0.0378471
1979	-0.0425586
1980	0.0136753
1981	0.0545216
1982	-0.0888443
1983	-0.0316797
1984	0.0990403
1985	-0.0964034
1986	0.0294434
1987	-0.0851862
1988	-0.0742972
1989	-0.0435758
1990	-0.0898697
1991	-0.0041852
1992	0.094451
1993	0.0677264
1994	-0.0849266
1995	-0.0815835
1996	-0.0755688
1997	-0.0198691
1998	0.0399515
1999	0.0249309
2000	-0.0327679
2001	0.0681821
2002	0.00963175
2003	-0.0337163
2004	-0.0627104
2005	0.0768042
2006	0.0847817
2007	-0.0277806
2008	-0.039391
2009	0.0799024
2010	-0.0739201
2011	0.0384237
2012	0.00746118
2013	0.0912617
2014	0.0875321
2015	-0.013092
2016	0.0514375
2017	-0.0761668
2018	0.0268016
2019	0.0715238
2020	0.0621273
2021	-0.0206992
2022	0.056038
2023	0.026141
2024	-0.0342643
2025	-0.0928007
2026	-0.04374
2027	0.0503477
2028	0.0701102
2029	-0.00911408
2030	-0.0434949
2031	-0.0176088
2032	-0.00891404
2033	0.0205447
2034	-0.0154033
2035	-0.00135836
2036	-0.012644
2037	-0.0612935
2038	-0.088168
2039	0.0919713
2040	-0.0998879
2041	0.00295574
2042	0.0837513
2043	0.0118954
2044	-0.0880939
2045	-0.0315632
2046	0.0580248
2047	-0.0422036
2048	-0.0382136
2049	0.0538364
2050	-0.0417679
2051	-0.014471
2052	-0.0167788
2053	0.064754
2054	0.0512697
2055	-0.0939843
2056	0.0367418
2057	-0.0862097
2058	-0.0958202
2059	0.0254118
2060	0.0264721
2061	0.0409104
2062	0.0761608
2063	-0.00793692
2064	0.00407208
2065	0.0816308
2066	-0.0940189
2067	-0.072232
2068	-0.0834841
2069	0.0629098
2070	0.0284042
2071	0.0417552
2072	-0.0149508
2073	0.0579067
2074	0.0299159
2075	-0.0695735
2076	-0.0380648
2077	0.0485448
2078	-0.0222429
2079	-0.0794829
2080	0.0751543
2081	0.0881261
2082	-0.0746863
2083	-0.0201143
2084	-0.0575926
2085	-0.0413578
2086	-0.0458101
2087	0.0074122
2088	-0.070123
2089	0.0201572
2090	-0.0611269
2091	-0.0738355
2092	-0.0691018
2093	0.0700386
2094	0.0796727
2095	0.0525315
2096	-0.0175113
2097	0.0672541
2098	0.0102311
2099	-0.0844012
2100	0.00443734
2101	-0.0149735
2102	0.0278818
2103	-0.0165183
2104	-0.0112649
2105	-0.0721758
2106	-0.0283836
2107	0.0332443
2108	-0.0562905
2109	-0.00246584
2110	-0.0285111
2111	0.0110926
2112	-0.088179
2113	0.0709813
2114	0.06325
2115	0.0392336
2116	0.0786628
2117	-0.0415492
2118	-0.0360647
2119	0.0470865
2120	0.0470949
2121	-0.0422023
2122	-0.0688602
2123	-0.0691073
2124	0.0730072
2125	0.00111688
2126	-0.0204018
2127	0.00606735
2128	0.0942372
2129	0.0341588
2130	0.0615287
2131	0.0610926
2132	0.045239
2133	0.00568856
2134	-0.0182086
2135	-0.05142
2136	-0.0944903
2137	-0.0699948
2138	0.0685798
2139	0.065601
2140	0.0684835
2141	-0.0961515
2142	-0.0707391
2143	-0.0711314
2144	0.0373106
2145	0.0857826
2146	0.0828263
2147	-0.0434326
2148	0.0605364
2149	-0.0487156
2150	-0.0637787
2151	0.0280163
2152	0.0476443
2153	0.0165064
2154	0.0153955
2155	-0.0981929
2156	0.0931002
2157	0.0067136
2158	0.010875
2159	-0.0626449
2160	0.0961846
2161	0.0890803
2162	0.0434367
2163	-0.0342237
2164	0.082495
2165	0.0988977
2166	0.0914483
2167	0.0561116
2168	0.0179874
2169	0.0584237
2170	0.0315003
2171	0.0402627
2172	0.090573
2173	-0.0421517
2174	-0.0325905
2175	-0.00705114
2176	0.0139335
2177	-0.0726773
2178	0.0168279
2179	-0.0197251
2180	0.0952115
2181	-0.00183905
2182	0.092075
2183	-0.0174876
2184	-0.0540739
2185	-0.0714425
2186	-0.0198336
2187	-0.0870359
2188	0.0775139
2189	-0.0198716
2190	0.0313605
2191	0.0075403
2192	0.0462395
2193	0.0679692
2194	-0.0225767
2195	-0.0696409
2196	-0.0081272
2197	-0.0388616
2198	-0.0372171
2199	0.0860345
2200	-0.0051726
2201	0.0447625
2202	-0.00208853
2203	0.0776417
2204	-0.0473919
2205	-0.0894268
2206	0.0671605
2207	-0.0872917
2208	-0.0622459
2209	-0.0956907
2210	-0.0343268
2211	-0.0486792
2212	-0.00725101
2213	0.017583
2214	-0.064121
2215	-0.0171018
2216	-0.070636
2217	0.0203259
2218	0.0911466
2219	-0.0694107
2220	0.0581558
2221	0.0701367
2222	0.041423
2223	-0.0878101
2224	0.0180633
2225	0.0398338
2226	0.0690865
2227	0.0505436
2228	-0.029451
2229	-0.0371313
2230	-0.0522117
2231	-0.0191653
2232	0.00524092
2233	-0.053516
2234	0.0880992
2235	0.0256805
2236	0.0505693
2237	-0.0148359
2238	0.0291663
2239	0.0926394
2240	0.0534158
2241	0.0306111
2242	0.0327153
2243	0.0612072
2244	0.0509637
2245	0.0871068
2246	0.059654
2247	0.0236516
2248	-0.0898989
2249	-0.00415589
2250	-0.000542365
2251	-0.084954
2252	-0.0734068
2253	0.00131437
2254	0.0786513
2255	0.0702837
2256	-0.0725176
2257	-0.0544564
2258	0.0787444
2259	-0.08879
2260	0.0205139
2261	-0.0191088
2262	0.0426774
2263	-0.0478829
2264	-0.0172097
2265	0.0348546
2266	-0.0314188
2267	-0.0286476
2268	0.0675184
2269	0.0365046
2270	0.0660929
2271	-0.0182727
2272	-0.00836821
2273	-0.00729383
2274	0.0528135
2275	0.050625
2276	-0.00815921
2277	-0.0250596
2278	0.0181144
2279	-0.0496132
2280	-0.0122724
2281	0.0831552
2282	0.0357616
2283	-0.0364896
2284	0.053611
2285	-0.0424203
2286	0.0839649
2287	-0.0316597
2288	-0.0542749
2289	0.0611342
2290	-0.0824277
2291	-0.0941423
2292	0.085944
2293	-0.0999103
2294	-0.00524086
2295	-0.0051341
2296	-0.0906001
2297	-0.0844452
2298	-0.0335252
2299	0.0562349
2300	-0.0996172
2301	-0.0842965
2302	-0.0323565
2303	-0.039084
2304	0.0966696
2305	-0.0268346
2306	-0.0843293
2307	-0.056663
2308	-0.0928788
2309	0.0507012
2310	0.0715447
2311	-0.0925929
2312	0.0179318
2313	0.0233462
2314	0.0656858
2315	0.0324964
2316	0.0603715
2317	-0.0502259
2318	0.0841183
2319	0.0505951
2320	-0.0493581
2321	-0.0510021
2322	0.0175716
2323	0.045914
2324	0.0725478
2325	-0.0193905
2326	-0.0622801
2327	0.077797
2328	-0.078925
2329	-0.0438883
2330	-0.041314
2331	-0.0707883
2332	-0.00274695
2333	0.00972003
2334	-0.0980693
2335	0.0526884
2336	-0.0362514
2337	-0.00797733
2338	-0.0502559
2339	0.0922744
2340	-0.0419967
2341	0.0492674
2342	0.0149632
2343	-0.0494847
2344	0.0252934
2345	-0.0110397
2346	0.0920543
2347	-0.0218183
2348	-0.0321369
2349	0.0624489
2350	0.00149224
2351	0.0894224
2352	0.0862862
2353	-0.00481079
2354	-0.0145303
2355	-0.0389725
2356	0.0813317
2357	0.0121294
2358	0.0797329
2359	-0.0593947
2360	-0.0460492
2361	0.0880635
2362	0.0326074
2363	0.00052943
2364	0.0926156
2365	-0.0960337
2366	0.0533428
2367	-0.0976178
2368	-0.00225638
2369	-0.000132846
2370	-0.020096
2371	-0.0679369
2372	-0.078019
2373	-0.0772578
2374	-0.00776217
2375	-0.0254968
2376	0.0443913
2377	0.0338446
2378	0.027071
2379	0.0397643
2380	-0.0853647
2381	0.0765108
2382	0.0472849
2383	0.0799677
2384	0.0598979
2385	-0.0291071
2386	-0.0166351
2387	0.0013435
2388	0.0797593
2389	-0.0845178
2390	0.0407948
2391	-0.0371138
2392	0.07554
2393	-0.089888
2394	0.0216539
2395	0.0390189
2396	0.0119777
2397	-0.0568743
2398	-0.0928592
2399	0.00806172
2400	-0.0262266
2401	-0.023677
2402	0.0739757
2403	-0.0436067
2404	0.0650114
2405	0.0104909
2406	-0.0589416
2407	-0.0742956
2408	-0.0119645
2409	-0.077997
2410	0.0720411
2411	0.0586987
2412	-0.0825576
2413	-0.052745
2414	-0.0969945
2415	0.0395896
2416	-0.0758081
2417	0.0989995
2418	0.0643538
2419	0.00822408
2420	0.0557294
2421	-0.0253753
2422	0.00164954
2423	0.0467697
2424	0.032906
2425	0.0549209
2426	-0.0717729
2427	0.0392336
2428	-0.0993539
2429	-0.0620044
2430	-0.09432
2431	-0.0594627
2432	0.0337555
2433	0.0521941
2434	-0.0627929
2435	0.0719848
2436	-0.0985677
2437	0.0277486
2438	-0.0868663
2439	0.0325558
2440	0.0550678
2441	-0.0785238
2442	0.0121762
2443	-0.0822918
2444	-0.0884588
2445	0.0202202
2446	0.0409892
2447	0.0632107
2448	0.00152648
2449	0.0228304
2450	0.0871979
2451	-0.0127034
2452	0.0468998
2453	-0.0615792
2454	0.0891065
2455	-0.0253402
2456	-0.0649331
2457	0.0684759
2458	-0.0464443
2459	0.0248662
2460	0.0712649
2461	0.0247686
2462	0.00273551
2463	-0.0953254
2464	-0.00364637
2465	0.0966002
2466	-0.0248804
2467	0.0782736
2468	-0.0578954
2469	-0.00656138
2470	0.0441231
2471	0.0655862
2472	0.0263574
2473	-0.092144
2474	-0.0697566
2475	0.0343819
2476	0.0313344
2477	0.0397594
2478	-0.0726413
2479	0.0732102
2480	0.00260329
2481	0.0186661
2482	-0.0370656
2483	0.0154842
2484	-0.0359352
2485	0.0923667
2486	-0.00221701
2487	-0.0983006
2488	0.00220358
2489	0.0765031
2490	0.00405539
2491	0.0472756
2492	0.0420078
2493	0.0929874
2494	-0.0207291
2495	0.0420375
2496	-0.0390689
2497	0.0325134
2498	-0.0675929
2499	0.0163659
2500	0.0197333
2501	-0.0253503
2502	0.0446326
2503	0.0188798
2504	-0.00468867
2505	0.0867826
2506	-0.0808456
2507	-0.00960137
2508	-0.0705222
2509	-0.08703
2510	-0.056851
2511	-0.0363696
2512	0.0272359
2513	0.0322316
2514	-0.0223185
2515	-0.0533994
2516	-0.0975023
2517	-0.0542783
2518	-0.0938494
2519	-0.0900868
2520	-0.0175556
2521	0.0717468
2522	-0.0518913
2523	-0.0711187
2524	-0.0336571
2525	0.038171
2526	0.0117389
2527	-0.0461751
2528	0.0497456
2529	0.0479182
2530	-0.0689562
2531	-0.0159971
2532	-0.0275275
2533	-0.0806418
2534	-0.06217
2535	-0.0865724
2536	-0.0778703
2537	-0.0320933
2538	0.00857895
2539	0.00384725
2540	0.019947
2541	0.0352436
2542	-0.0472304
2543	-0.0265654
2544	0.0568762
2545	-0.0820003
2546	-0.0181062
2547	-0.0836941
2548	-0.0534419
2549	0.050707
2550	0.00777687
2551	-0.0763905
2552	0.0304323
2553	-0.0949283
2554	-0.0385969
2555	-0.0445965
2556	0.0788693
2557	0.0493571
2558	0.0455547
2559	-0.05855
2560	0.0135249
2561	-0.0686137
2562	0.0222311
2563	-0.0612294
2564	0.0475956
2565	0.0288977
2566	-0.0124057
2567	0.0602236
2568	-0.0657704
2569	0.0424199
2570	-0.0403357
2571	-0.0956435
2572	0.0180131
2573	-0.0185087
2574	0.0314876
2575	0.0200324
2576	-0.0805062
2577	0.095026
2578	0.0550861
2579	-0.0417391
2580	0.0175965
2581	0.0330778
2582	-0.0948211
2583	0.0361263
2584	0.0862112
2585	0.0779742
2586	0.0158073
2587	-0.0525891
2588	0.0112106
2589	0.0329059
2590	-0.052482
2591	-0.0543018
2592	0.0608208
2593	-0.0216862
2594	-0.0839543
2595	0.084614
2596	0.00550475
2597	-0.0991003
2598	0.00185239
2599	-0.0336437
2600	0.0210468
2601	0.0789131
2602	0.0611556
2603	-0.095693
2604	0.0884163
2605	-0.0241607
2606	-0.0137252
2607	0.0267147
2608	0.041894
2609	0.0885999
2610	0.0329236
2611	0.0708617
2612	-0.016879
2613	-0.0676949
2614	0.0336547
2615	-0.0858173
2616	-0.00205724
2617	0.049561
2618	0.0618586
2619	-0.0172283
2620	-0.068718
2621	0.0582952
2622	0.0532909
2623	-0.0647918
2624	-0.0835534
2625	0.00222881
2626	-0.0457376
2627	-0.0204423
2628	0.00417845
2629	-0.0344496
2630	-0.0459905
2631	-0.0236455
2632	0.0433829
2633	-0.00952015
2634	-0.0697615
2635	-0.0892702
2636	-0.0778231
2637	0.0133177
2638	-0.0987289
2639	0.0600243
2640	0.0778285
2641	-0.0597913
2642	0.0608591
2643	0.0157913
2644	-0.0158436
2645	0.0459278
2646	0.0171619
2647	-0.0933087
2648	-0.00667591
2649	-0.0855429
2650	0.0692215
2651	0.0562621
2652	-0.00376015
2653	-0.0626712
2654	-0.0584133
2655	0.0727426
2656	-0.0720262
2657	-0.0999658
2658	0.0703116
2659	-0.0325477
2660	0.0105039
2661	0.0642601
2662	-0.0711081
2663	-0.0542102
2664	-0.0183581
2665	-0.0664079
2666	0.0370576
2667	0.0930445
2668	0.0569476
2669	-0.093993
2670	0.0255432
2671	-0.0738577
2672	-0.000519843
2673	0.0100103
2674	0.0738883
2675	0.0285365
2676	-0.0499981
2677	0.040466
2678	-0.033131
2679	0.0132545
2680	0.0988965
2681	0.0438236
2682	-0.0747935
2683	-0.0485082
2684	0.00532226
2685	0.000990112
2686	-0.0939365
2687	-0.0691456
2688	0.0344601
2689	0.0400554
2690	0.0519041
2691	0.0140597
2692	0.0824986
2693	-0.00875652
2694	0.0982062
2695	-0.0888301
2696	0.0938378
2697	0.0689268
2698	0.0127331
2699	-0.0427395
2700	0.0304525
2701	-0.0161581
2702	0.0445527
2703	0.0726573
2704	-0.0908604
2705	-0.00245772
2706	0.00937534
2707	-0.00210772
2708	-0.0530732
2709	-0.077892
2710	-0.0696857
2711	0.0368511
2712	0.00517113
2713	0.00803989
2714	0.0320885
2715	0.0802017
2716	0.0871458
2717	-0.00810582
2718	0.0409816
2719	0.0600655
2720	-0.0248122
2721	0.0110683
2722	-0.061016
2723	0.0393712
2724	0.0432298
2725	-0.0671092
2726	0.0117194
2727	-0.0271557
2728	0.0153541
2729	-0.0129457
2730	-0.0726064
2731	0.00715062
2732	0.00964523
2733	-0.00143415
2734	0.00931495
2735	0.0644572
2736	-0.0909229
2737	-0.000954581
2738	-0.0805085
2739	0.00449076
2740	0.043855
2741	-0.0133289
2742	-0.0681502
2743	0.0399902
2744	-0.0371916
2745	0.0852185
2746	0.00267235
2747	0.080907
2748	0.024283
2749	-0.0161143
2750	0.0779615
2751	0.0851618
2752	-0.0990014
2753	0.0842161
2754	0.0242091
2755	0.0114936
2756	-0.0476495
2757	-0.0767338
2758	-0.0861158
2759	0.011465
2760	-0.073921
2761	-0.0725405
2762	-0.0533849
2763	-0.0386067
2764	-0.00573324
2765	0.0404905
2766	-0.00156199
2767	0.0655196
2768	-0.035032
2769	0.00515005
2770	-0.0334023
2771	0.0900734
2772	-0.0836941
2773	-0.0540424
2774	0.0986798
2775	0.0839223
2776	0.0847032
2777	0.0777677
2778	0.000692442
2779	-0.0229894
2780	0.0457773
2781	0.0660154
2782	0.00245918
2783	0.0570988
2784	-0.0820016
2785	0.0575458
2786	-0.0992275
2787	0.00789004
2788	-0.0562666
2789	0.00630647
2790	-0.0725866
2791	-0.0091384
2792	0.0442915
2793	-0.0252268
2794	-0.0590996
2795	0.0196889
2796	0.0482165
2797	-0.0135797
2798	0.0966133
2799	-0.0246932
2800	0.0784409
2801	0.0502767
2802	0.0700329
2803	-0.0938123
2804	-0.0220815
2805	0.0232796
2806	0.0724877
2807	-0.094709
2808	-0.0880542
2809	-0.0305541
2810	0.0735278
2811	-0.0623595
2812	-0.0578407
2813	0.0763895
2814	0.0871946
2815	-0.00749572
2816	-0.00573176
2817	-0.0692034
2818	-0.00382548
2819	0.0254523
2820	-0.0901498
2821	-0.0369173
2822	-0.0724571
2823	0.0446679
2824	0.0523872
2825	-0.0968784
2826	0.0353832
2827	-0.0749866
2828	-0.0798368
2829	0.0162207
2830	-0.0502716
2831	0.0551477
2832	-0.0145245
2833	-0.0657011
2834	0.0825436
2835	0.0972424
2836	0.0582532
2837	0.0442507
2838	0.00570142
2839	0.0737097
2840	0.0805744
2841	0.0909525
2842	0.0990639
2843	0.0317875
2844	-0.0477975
2845	-0.0460419
2846	0.0968782
2847	0.0667184
2848	0.0761708
2849	0.00814109
2850	0.0483987
2851	0.0720663
2852	-0.043418
2853	0.0656465
2854	0.0462474
2855	-0.0554634
2856	0.0601711
2857	-0.0160923
2858	0.092673
2859	0.0283344
2860	-0.015911
2861	0.0420339
2862	0.0720951
2863	0.09983
2864	-0.00989455
2865	-0.00502494
2866	0.0346079
2867	0.0607575
2868	0.0875074
2869	0.0941343
2870	-0.00235908
2871	-0.0995028
2872	-0.0976301
2873	-0.0904991
2874	0.0704653
2875	0.00319713
2876	0.00379072
2877	0.0986024
2878	-0.0381533
2879	0.0747074
2880	-0.0566436
2881	0.0478294
2882	-0.0597255
2883	0.0414856
2884	-0.00348327
2885	-0.0964637
2886	0.0147154
2887	0.056784
2888	0.0391909
2889	-0.0779418
2890	-0.0962906
2891	-0.0868456
2892	0.0186913
2893	0.0281548
2894	-0.02658
2895	0.000550992
2896	0.0926841
2897	-0.090457
2898	-0.0552537
2899	0.0118698
2900	0.0929004
2901	0.0285406
2902	0.0195104
2903	-0.0827844
2904	0.0936118
2905	-0.00891757
2906	-0.0738079
2907	0.0899462
2908	-0.0104948
2909	-0.0975405
2910	-0.0788322
2911	-0.0376075
2912	0.0406661
2913	0.0571162
2914	-0.014116
2915	0.0645504
2916	0.0620079
2917	0.0553387
2918	0.0593446
2919	0.0138162
2920	0.0365428
2921	0.0417143
2922	-0.020817
2923	-0.0437661
2924	-0.0841335
2925	-0.0348337
2926	0.0219382
2927	-0.0745206
2928	-0.0247333
2929	-0.0548753
2930	0.0317763
2931	0.0593758
2932	0.0917075
2933	-0.017893
2934	0.00301535
2935	-0.0579705
2936	-0.0524184
2937	0.0614661
2938	-0.0648488
2939	0.000844943
2940	0.0775713
2941	0.00252142
2942	0.0567302
2943	0.0213679
2944	0.063977
2945	0.0909949
2946	-0.0378361
2947	0.0939299
2948	-0.0450632
2949	-0.0132299
2950	0.00277834
2951	0.0504685
2952	0.0745082
2953	-0.0467882
2954	-0.0944878
2955	-0.0714499
2956	0.00204381
2957	-0.0737714
2958	-0.0769605
2959	0.0721525
2960	-0.000163045
2961	0.0567591
2962	-0.025311
2963	-0.00317505
2964	0.00113225
2965	0.0664548
2966	-0.0163288
2967	-0.0880981
2968	0.0915617
2969	0.0469939
2970	-0.0296725
2971	0.0108257
2972	0.0713132
2973	-0.0767181
2974	-0.0169778
2975	-0.0285218
2976	0.04182
2977	0.0908867
2978	-0.0241085
2979	0.00625808
2980	-0.0123804
2981	0.0429417
2982	0.0587732
2983	0.0705785
2984	-0.0595566
2985	0.0907578
2986	-0.0811895
2987	-0.0854305
2988	-0.0084409
2989	0.0195098
2990	0.00560644
2991	0.042053
2992	-0.00618729
2993	0.0501403
2994	0.00136538
2995	-0.0174358
2996	-0.0357522
2997	0.00361434
2998	0.0230448
2999	0.00780833
3000	-0.0737413
3001	-0.0171996
3002	0.016283
3003	-0.0410504
3004	0.0803743
3005	0.0398261
3006	-0.0241166
3007	-0.0471395
3008	-0.0204808
3009	-0.033261
3010	-0.0361565
3011	0.0252379
3012	0.0205696
3013	0.051255
3014	0.0265443
3015	0.00396848
3016	-0.0980588
3017	-0.0681135
3018	-0.00217931
3019	-0.0912067
3020	0.0597611
3021	-0.0149871
3022	-0.0182748
3023	0.00130678
3024	0.0864417
3025	0.0384607
3026	0.0629143
3027	-0.0904881
3028	0.015945
3029	0.0561246
3030	0.00228728
3031	0.0906423
3032	0.0933364
3033	-0.0625267
3034	-0.0350238
3035	-0.00668501
3036	-0.0635864
3037	-0.00274029
3038	0.0354414
3039	-0.00685601
3040	0.0712582
3041	0.00483533
3042	0.0552823
3043	-0.0949037
3044	0.00387875
3045	-0.051091
3046	-0.0434973
3047	-0.0131907
3048	-0.0916882
3049	-0.087716
3050	-0.00160432
3051	-0.0576808
3052	-0.0978414
3053	-0.0735996
3054	0.0240236
3055	0.0425824
3056	0.0224264
3057	-0.0231441
3058	-0.0930547
3059	-0.0305593
3060	-0.0964394
3061	-0.064767
3062	0.060563
3063	0.0987656
3064	-0.0891713
3065	0.0506556
3066	-0.0430835
3067	-0.0577993
3068	0.0451709
3069	0.0814052
3070	-0.0413701
3071	0.090504
3072	-0.045452
3073	0.0158753
3074	0.0398662
3075	-0.0285953
3076	0.0775988
3077	-0.0511392
3078	0.0820159
3079	-0.0356381
3080	0.0205974
3081	0.0139478
3082	0.00700564
3083	-0.0509985
3084	0.0229621
3085	-0.0368444
3086	-0.0492476
3087	-0.00482763
3088	0.0524092
3089	-0.021403
3090	0.0487697
3091	-0.0956393
3092	0.0665636
3093	-0.00727749
3094	0.0827777
3095	0.073471
3096	-0.0646321
3097	-0.0243641
3098	0.0866216
3099	-0.0479754
3100	-0.0996115
3101	-0.0373237
3102	0.0194032
3103	-0.00401181
3104	0.0366956
3105	-0.0596651
3106	0.0959294
3107	0.0911367
3108	-0.0403214
3109	0.0340212
3110	0.0863675
3111	0.0742885
3112	0.0114608
3113	-0.0978112
3114	-0.0936238
3115	0.0183832
3116	0.021382
3117	0.0878161
3118	0.00276846
3119	-0.0758854
3120	0.0352222
3121	-0.0823367
3122	-0.0616621
3123	-0.0462038
3124	-0.000643837
3125	-0.0184129
3126	-0.0915742
3127	0.0474095
3128	-0.0372483
3129	-0.00736662
3130	0.0848291
3131	-0.00277845
3132	-0.0780373
3133	0.0799702
3134	-0.0181351
3135	-0.0506107
3136	-0.0860564
3137	-0.0630886
3138	-0.0419541
3139	0.0108876
3140	0.0304036
3141	0.0621696
3142	0.0321381
3143	-0.00193299
3144	-0.0877493
3145	0.0322884
3146	-0.0315026
3147	-0.0427095
3148	0.00147846
3149	-0.0691499
3150	0.0511108
3151	-0.0727476
3152	-0.0879917
3153	-0.0787652
3154	-0.0854763
3155	0.0424143
3156	0.079199
3157	0.00167449
3158	0.0136402
3159	-0.0203887
3160	-0.0809425
3161	-0.0966261
3162	0.0197988
3163	-0.0769837
3164	0.0581497
3165	0.0607683
3166	0.094642
3167	-0.0249257
3168	-0.0659241
3169	-0.0147397
3170	0.0441594
3171	-0.076842
3172	0.0207457
3173	-0.0359138
3174	0.0618429
3175	0.0669043
3176	0.0378955
3177	0.0933662
3178	0.0484892
3179	-0.0866579
3180	0.0234449
3181	0.0921951
3182	0.0537297
3183	-0.0402301
3184	-0.0580324
3185	-0.0651611
3186	-0.034476
3187	0.0855515
3188	0.0390567
3189	-0.097703
3190	0.020998
3191	0.0611837
3192	0.0449145
3193	-0.0351113
3194	-0.0986466
3195	-0.00732081
3196	0.0237362
3197	0.0408093
3198	-0.0156692
3199	0.0506718
3200	0.0123673
3201	0.042554
3202	0.0432166
3203	0.0831899
3204	-0.0956208
3205	0.0452825
3206	-0.0631679
3207	-0.0689906
3208	0.0875659
3209	-0.0788216
3210	-0.00377426
3211	-0.0162551
3212	0.0926813
3213	0.0887388
3214	-0.0823831
3215	-0.0822272
3216	-0.0847064
3217	0.0615491
3218	-0.00128927
3219	-0.0853831
3220	-0.0738272
3221	-0.0972639
3222	0.0908179
3223	0.0375323
3224	0.0983561
3225	0.0215746
3226	0.0785028
3227	0.0387991
3228	0.00791082
3229	0.0194371
3230	0.0917057
3231	-0.0580875
3232	0.00938178
3233	-0.0676442
3234	-0.093613
3235	-0.0632397
3236	0.0716335
3237	-0.0301409
3238	0.0851865
3239	0.0476788
3240	0.070521
3241	-0.0502129
3242	-0.0808289
3243	0.0248414
3244	-0.0940369
3245	0.018272
3246	-0.02353
3247	-0.03609
3248	-0.006979
3249	0.00927508
3250	0.0680352
3251	-0.0209331
3252	0.0295348
3253	-0.0480075
3254	0.0959488
3255	-0.0880002
3256	-0.070087
3257	-0.00762353
3258	-0.0176499
3259	0.0504071
3260	-0.0842399
3261	-0.0963189
3262	0.0644106
3263	0.063656
3264	-0.0383783
3265	-0.0755084
3266	0.0240702
3267	-0.0436366
3268	0.00345918
3269	0.0974771
3270	0.0178671
3271	0.0089801
3272	0.097139
3273	-0.0832139
3274	-0.0495961
3275	0.0560579
3276	-0.0607356
3277	0.0728095
3278	0.0948424
3279	0.0687357
3280	0.0538353
3281	-0.0152106
3282	0.0163227
3283	-0.0587111
3284	-0.050871
3285	-0.043088
3286	-0.0257784
3287	0.0180308
3288	-0.000515053
3289	0.0539226
3290	-0.0193022
3291	-0.0370255
3292	-0.0374576
3293	0.0730104
3294	-0.0670188
3295	0.0655571
3296	-0.0948668
3297	-0.093747
3298	0.0017651
3299	0.0838217
3300	-0.0224009
3301	0.0500018
3302	0.0249916
3303	-0.0461956
3304	-0.0682814
3305	-0.0570596
3306	0.0489944
3307	-0.0883649
3308	-0.0120247
3309	-0.0269889
3310	-0.00318963
3311	-0.0568964
3312	-0.0260319
3313	-0.0183107
3314	0.0507471
3315	0.00488647
3316	-0.0705898
3317	0.0539254
3318	-0.0781311
3319	0.0249885
3320	0.0298138
3321	0.0258851
3322	-0.0061905
3323	0.0331505
3324	-0.0192607
3325	-0.0391817
3326	-0.0614489
3327	0.0782241
3328	0.0419759
3329	0.0174914
3330	0.00185837
3331	-0.0575973
3332	-0.0412109
3333	0.0776252
3334	0.0133086
3335	-0.0349586
3336	-0.0959103
3337	-0.0579603
3338	0.0858005
3339	-0.0788565
3340	-0.0239797
3341	0.0286891
3342	-0.0736412
3343	-0.0078882
3344	0.00593422
3345	-0.0136613
3346	-0.0267839
3347	0.0602679
3348	-0.0753507
3349	0.0336701
3350	0.0653956
3351	-0.0375508
3352	-0.0412927
3353	0.00939891
3354	0.0336918
3355	0.0750499
3356	0.093086
3357	-0.0828979
3358	-0.0265618
3359	-0.0166582
3360	-0.0931973
3361	-0.0901215
3362	-0.0910422
3363	0.0744662
3364	-0.0778441
3365	0.0925367
3366	0.0364731
3367	-0.0839837
3368	-0.016142
3369	0.0470391
3370	0.0910436
3371	-0.0740273
3372	0.0237661
3373	0.0527384
3374	-0.0926979
3375	0.0480856
3376	0.0637563
3377	0.0125907
3378	-0.0557204
3379	-0.0434731
3380	0.0474674
3381	0.0893604
3382	-0.0297365
3383	-0.0981356
3384	0.00635343
3385	0.0860582
3386	0.00482207
3387	-0.0174177
3388	0.00322958
3389	0.0136594
3390	0.0866924
3391	-0.0192151
3392	-0.0255786
3393	-0.0255491
3394	-0.0871084
3395	0.0833065
3396	0.0257706
3397	0.037594
3398	-0.0616453
3399	0.0551662
3400	0.0846667
3401	-0.0916481
3402	-0.0972574
3403	0.0756945
3404	0.0656365
3405	-0.0795387
3406	-0.0812559
3407	-0.0596229
3408	0.0458293
3409	-0.0344553
3410	-0.0438264
3411	0.0742838
3412	-0.0588045
3413	0.00825967
3414	0.0439566
3415	0.0533092
3416	0.0343076
3417	0.0231238
3418	-0.0680984
3419	0.0193925
3420	-0.0643598
3421	0.0323546
3422	-0.0892472
3423	0.0837635
3424	-0.0491647
3425	-0.0618276
3426	0.0988787
3427	-0.0569284
3428	-0.0127009
3429	0.037589
3430	0.0631763
3431	-0.0754356
3432	-0.030548
3433	0.0699261
3434	0.0341206
3435	-0.00042154
3436	0.0422394
3437	0.0200815
3438	0.0476853
3439	0.044221
3440	-0.0409176
3441	-0.078467
3442	-0.0436786
3443	-0.0388103
3444	0.0138731
3445	-0.0370897
3446	0.0715927
3447	-0.0485826
3448	-0.093367
3449	-0.0510812
3450	0.0468174
3451	0.0498016
3452	-0.0788386
3453	0.00807871
3454	0.0184061
3455	-0.0747566
3456	-0.0906004
3457	0.0490112
3458	-0.0901984
3459	-0.0848773
3460	0.00572886
3461	0.0853979
3462	0.06344
3463	-0.0252232
3464	0.0853043
3465	0.0274173
3466	0.0696844
3467	0.0962143
3468	0.086963
3469	0.0102895
3470	0.0762393
3471	-0.0800393
3472	-0.0161427
3473	0.0639201
3474	0.0794372
3475	0.0413499
3476	0.0833382
3477	0.0388276
3478	-0.0350904
3479	-0.00579728
3480	-0.0718912
3481	0.0426112
3482	-0.0236921
3483	0.0270723
3484	0.0373359
3485	-0.0642163
3486	-0.0896451
3487	0.0629693
3488	0.0997223
3489	0.0577532
3490	0.029037
3491	0.0526899
3492	0.00287293
3493	0.0508736
3494	0.0465671
3495	-0.0599152
3496	0.0950254
3497	-0.074377
3498	0.074313
3499	-0.0600215
3500	0.0312391
3501	-0.0661176
3502	0.0923164
3503	-0.0589109
3504	-0.0647287
3505	-0.0148792
3506	-0.081705
3507	-0.0801661
3508	0.0399495
3509	0.0179147
3510	-0.0232828
3511	-0.0529124
3512	0.0373155
3513	0.0679293
3514	-0.0909348
3515	-0.030165
3516	0.00635869
3517	0.0842552
3518	-0.0569796
3519	-0.0419212
3520	0.00985323
3521	0.0606187
3522	0.0798348
3523	0.0141052
3524	-0.0523019
3525	0.0289602
3526	-0.0463562
3527	0.0770633
3528	-0.0529163
3529	0.0939571
3530	0.0521105
3531	0.0521034
3532	-0.0390191
3533	0.000119394
3534	0.0625751
3535	0.00473923
3536	-0.0873721
3537	-0.0681013
3538	0.0203092
3539	-0.0300603
3540	0.0417971
3541	0.0740404
3542	0.0548605
3543	-0.0274389
3544	0.0184204
3545	0.0189555
3546	0.0712206
3547	-0.0253212
3548	-0.0601434
3549	0.00240571
3550	-0.0829836
3551	0.0332196
3552	0.0571328
3553	0.0436979
3554	-0.0346807
3555	0.0203317
3556	0.0531681
3557	-0.0501384
3558	0.0210748
3559	0.0564433
3560	0.00771814
3561	-0.0573376
3562	0.0230611
3563	-0.0386747
3564	0.0838624
3565	0.023795
3566	0.0426421
3567	0.0366438
3568	-0.0817537
3569	-0.0454431
3570	-0.0624661
3571	-0.0138309
3572	-0.0175297
3573	0.0706141
3574	-0.0736852
3575	0.0892179
3576	0.0838973
3577	0.0416201
3578	0.0719692
3579	-0.000440266
3580	0.0498336
3581	0.0893414
3582	0.0571552
3583	0.0538409
3584	-0.0559128
3585	0.0672713
3586	-0.0595463
3587	0.0231005
3588	-0.0113505
3589	-0.00345199
3590	0.0393858
3591	-0.019547
3592	0.0773609
3593	0.0183032
3594	-0.0849546
3595	0.0402394
3596	0.0824635
3597	-0.0782366
3598	-0.0999519
3599	-0.0939674
3600	0.0668882
3601	0.0489037
3602	0.0464944
3603	0.0668517
3604	-0.0913004
3605	0.0489427
3606	-0.0320882
3607	-0.0607321
3608	-0.0372745
3609	-0.00111709
3610	-0.0060851
3611	0.0797358
3612	-0.0415948
3613	-0.0623552
3614	0.0863934
3615	0.0553068
3616	-0.0785004
3617	0.0989742
3618	-0.0493456
3619	0.0967212
3620	-0.0518892
3621	-0.0094128
3622	0.00890289
3623	-0.0509793
3624	0.0331882
3625	-0.0135963
3626	-0.016865
3627	-0.0224906
3628	-0.0666195
3629	0.0386597
3630	-0.061887
3631	-0.0707975
3632	0.0692632
3633	-0.00822686
3634	-0.0932023
3635	-0.0317885
3636	-0.0839966
3637	0.0623257
3638	-0.0245754
3639	0.065662
3640	0.0156814
3641	0.0576855
3642	0.0875556
3643	0.00569641
3644	-0.0872394
3645	-0.046648
3646	-0.0459575
3647	-0.0849838
3648	0.0204492
3649	-0.0906542
3650	0.0112663
3651	0.0564601
3652	0.0920881
3653	-0.0410279
3654	0.0454318
3655	-0.0957365
3656	0.0512281
3657	-0.0409383
3658	-0.0575676
3659	-0.0110764
3660	0.0142096
3661	-0.0122984
3662	-0.0743404
3663	0.0884279
3664	0.0752672
3665	0.0222176
3666	-0.0982348
3667	0.0105923
3668	-0.0553778
3669	-0.0994102
3670	-0.0178137
3671	-0.0877638
3672	0.00454527
3673	-0.0404613
3674	-0.0981172
3675	0.0694578
3676	-0.0408096
3677	-0.0645485
3678	0.0161197
3679	0.0888877
3680	-0.0712443
3681	-0.0926155
3682	0.0147429
3683	-0.0883137
3684	-0.0128976
3685	-0.098747
3686	0.0240259
3687	-0.0494293
3688	0.0542507
3689	-0.0469226
3690	-0.0299109
3691	-0.000677468
3692	0.0124677
3693	-0.0945368
3694	-0.0606827
3695	-0.00362427
3696	-0.0468408
3697	-0.00836433
3698	-0.0721867
3699	0.0626848
3700	-0.0636417
3701	0.0930872
3702	-0.0505983
3703	0.0703921
3704	0.0418552
3705	0.0104945
3706	-0.0772833
3707	0.00767625
3708	-0.0841502
3709	-0.0173976
3710	-0.0652209
3711	0.00346267
3712	0.00884969
3713	-0.0588113
3714	-0.0709199
3715	-0.0492957
3716	-0.0846283
3717	-0.0535907
3718	0.0826024
3719	-0.0494004
3720	0.0280605
3721	-0.0941157
3722	-0.0136603
3723	0.0792368
3724	-0.089954
3725	0.0944206
3726	0.0541124
3727	0.030557
3728	-0.0954083
3729	-0.0487182
3730	-0.0996619
3731	0.0620164
3732	-0.0285457
3733	-0.0781851
3734	0.0311704
3735	0.0610224
3736	-0.099108
3737	-0.0921284
3738	-0.0712807
3739	0.0575463
3740	0.0878289
3741	-0.0604201
3742	0.00936854
3743	-0.0130416
3744	0.0804585
3745	-0.053102
3746	-0.0119728
3747	0.0868685
3748	0.0693585
3749	-0.0541152
3750	0.0268809
3751	0.00768945
3752	0.00788294
3753	0.0221355
3754	-0.0989884
3755	0.0233272
3756	0.0992426
3757	0.0537089
3758	0.00635772
3759	0.0430157
3760	0.0348885
3761	3.02535e-05
3762	0.0460412
3763	0.000955592
3764	-0.0169537
3765	0.0372559
3766	-0.0742964
3767	-0.00575527
3768	0.0716768
3769	-0.0829209
3770	-0.0237175
3771	0.0317565
3772	-0.00963329
3773	-0.074993
3774	-0.0772196
3775	-0.0175604
3776	-0.0543879
3777	-0.0546202
3778	-0.0553304
3779	0.0250231
3780	0.0222393
3781	0.0628954
3782	-0.0329222
3783	-0.0425803
3784	-0.0823056
3785	0.0989175
3786	-0.00733988
3787	-0.0564005
3788	0.0998997
3789	0.00121285
3790	-0.0433201
3791	0.0272795
3792	0.0079511
3793	0.0303906
3794	-0.0922528
3795	0.0118444
3796	0.0580191
3797	-0.0504985
3798	0.0735911
3799	0.0784751
3800	0.000415424
3801	-0.0614348
3802	0.0401582
3803	-0.0918618
3804	-0.0771678
3805	0.0927914
3806	-0.00988997
3807	0.0100492
3808	-0.000149801
3809	-0.0797143
3810	-0.00988369
3811	-0.0485458
3812	-0.0334958
3813	-0.00419119
3814	0.0422407
3815	0.00198989
3816	-0.0354469
3817	0.024497
3818	-0.0872864
3819	0.0297316
3820	-0.0456017
3821	0.0331033
3822	-0.0800089
3823	-0.0949228
3824	-0.0764863
3825	0.0238445
3826	-0.0477911
3827	0.0971877
3828	-0.0930951
3829	-0.0837517
3830	0.0629236
3831	0.0431772
3832	-0.0216005
3833	-0.0968976
3834	0.0743504
3835	0.0979771
3836	-0.0816924
3837	-0.0843789
3838	-0.038147
3839	-0.0590506
3840	0.0355382
3841	-0.027313
3842	0.0364913
3843	-0.071194
3844	0.0814383
3845	0.0621586
3846	0.0127766
3847	0.069801
3848	-0.0788544
3849	-0.0464205
3850	-0.0618851
3851	0.00108424
3852	-0.0748719
3853	-0.000316373
3854	-0.0378456
3855	-0.0500531
3856	-0.0563701
3857	-0.00972118
3858	0.0119417
3859	-0.00889312
3860	0.0327065
3861	-0.0202771
3862	0.0875075
3863	0.0717928
3864	-0.017387
3865	0.0863341
3866	-0.00690924
3867	0.0403369
3868	0.095919
3869	0.0874619
3870	0.0730878
3871	0.00799309
3872	-0.082782
3873	-0.00822146
3874	0.0618993
3875	-0.0981729
3876	0.0990272
3877	0.0717989
3878	-0.0317923
3879	0.00423421
3880	-0.0725798
3881	-0.0185858
3882	-0.00955805
3883	-0.0846787
3884	-0.0270192
3885	-0.077669
3886	-0.0936931
3887	0.0912247
3888	0.0182477
3889	-0.00205472
3890	0.0217592
3891	-0.0488525
3892	0.0778975
3893	0.0117101
3894	0.0491086
3895	-0.0499077
3896	-0.0530426
3897	0.0236296
3898	-0.0886417
3899	0.0759343
3900	0.0839468
3901	0.0579461
3902	-0.0300622
3903	-0.0397517
3904	0.0733652
3905	0.0828064
3906	0.0117725
3907	-0.0558688
3908	-0.0376613
3909	-0.0207502
3910	0.0547073
3911	-0.093232
3912	-0.0683777
3913	0.0732062
3914	-0.010476
3915	0.0241241
3916	0.0161611
3917	-0.00535278
3918	-0.00913033
3919	0.000460415
3920	-0.0509029
3921	-0.0670142
3922	0.0326812
3923	0.0473308
3924	0.0539563
3925	0.0121234
3926	-0.0303553
3927	0.0769531
3928	0.0504723
3929	0.0567189
3930	0.0910038
3931	0.0883532
3932	-0.0837961
3933	0.017842
3934	-0.059425
3935	0.0267223
3936	-0.0668953
3937	-0.0399712
3938	0.0951107
3939	0.085988
3940	0.0270598
3941	-0.0716197
3942	-0.050517
3943	-0.098847
3944	0.0887811
3945	-0.0634512
3946	-0.0298808
3947	-0.0642077
3948	-0.0927484
3949	-0.0239783
3950	0.0739617
3951	-0.0639393
3952	-0.000119616
3953	0.0250567
3954	0.0121071
3955	0.0249585
3956	0.0243207
3957	-0.0178823
3958	-0.0973871
3959	0.0123877
3960	0.0777264
3961	-0.0280402
3962	0.0351959
3963	-0.0867599
3964	0.0666053
3965	-0.0187837
3966	0.0610953
3967	-0.0664062
3968	0.0701189
3969	0.0729299
3970	0.0649581
3971	0.0542586
3972	0.0535653
3973	0.0169932
3974	-0.00275622
3975	-0.0990555
3976	-0.0568956
3977	-0.0209811
3978	0.0337042
3979	-0.00295382
3980	-0.00355007
3981	0.0867059
3982	-0.0239656
3983	0.0262018
3984	0.0979795
3985	-0.0450656
3986	-0.0761111
3987	-0.0532822
3988	-0.0159399
3989	0.0893811
3990	0.0817255
3991	0.0361502
3992	0.074283
3993	0.0516739
3994	0.0705767
3995	-0.0602322
3996	-0.0324783
3997	-0.0717761
3998	-0.0376572
3999	0.00962575
4000	-0.0495354
4001	0.0245921
4002	0.0347467
4003	-0.000477545
4004	-0.0791249
4005	0.0853907
4006	0.0329726
4007	0.0428598
4008	-0.00127418
4009	0.0420544
4010	-0.0241407
4011	0.0592063
4012	-0.0200282
4013	-0.0859897
4014	-0.0121197
4015	-0.0273356
4016	0.0510712
4017	-0.0194363
4018	0.0287301
4019	0.0527257
4020	-0.080799
4021	0.0578999
4022	0.0414351
4023	0.0130194
4024	0.0193055
4025	-0.0593343
4026	-0.0229337
4027	0.0411117
4028	0.0839518
4029	-0.0382527
4030	-0.0123088
4031	-0.0903408
4032	0.0983117
4033	0.0574541
4034	-0.0128207
4035	-0.0602963
4036	0.0241852
4037	-0.0512236
4038	-0.0247615
4039	0.029001
4040	-0.000352287
4041	-0.0046218
4042	0.00297235
4043	-0.0845771
4044	0.0899114
4045	-0.0664255
4046	-0.0674429
4047	0.0993863
4048	0.0549049
4049	-0.0621964
4050	0.0341313
4051	-0.0326669
4052	0.066447
4053	0.0274188
4054	-0.0612587
4055	0.0970629
4056	0.0907737
4057	0.0400632
4058	-0.0763059
4059	-0.0852396
4060	-0.0422419
4061	-0.0954438
4062	0.0966163
4063	-0.0909776
4064	0.0621137
4065	-0.0541522
4066	-0.0233586
4067	-0.0156562
4068	0.0899253
4069	0.0203165
4070	-0.0872248
4071	-0.00734999
4072	0.0140969
4073	0.0406276
4074	-0.0889827
4075	-0.00574101
4076	0.0352418
4077	-0.0448953
4078	0.0421719
4079	0.0422729
4080	0.0477416
4081	-0.0858244
4082	-0.0711575
4083	-0.0654626
4084	-0.0949809
4085	0.0227447
4086	0.017775
4087	-0.0518809
4088	0.0814729
4089	0.0391334
4090	-0.0525977
4091	0.0302348
4092	-0.00968914
4093	0.0744993
4094	0.062743
4095	-0.0784342
4096	0.0167121
4097	-0.00976228
4098	0.0929419
4099	0.0821804
4100	0.0736727
4101	0.0321999
4102	-0.0413886
4103	0.0536688
4104	-0.0293997
4105	0.0136047
4106	0.0848532
4107	-0.0524183
4108	-0.0751847
4109	-0.00411662
4110	-0.076111
4111	-0.039807
4112	0.0404654
4113	0.00203037
4114	0.0783521
4115	-0.0977633
4116	0.00315461
4117	-0.0541723
4118	-0.0365582
4119	0.035415
4120	-0.00284441
4121	-0.0166935
4122	0.00758717
4123	0.0732559
4124	-0.054793
4125	0.0535742
4126	0.0794272
4127	-0.0975903
4128	-0.0750969
4129	0.0722409
4130	0.00491211
4131	0.0930509
4132	-0.0463781
4133	-0.015149
4134	0.0531779
4135	-0.0722362
4136	0.0629425
4137	-0.0220499
4138	0.0610891
4139	-0.0307076
4140	0.0955425
4141	-0.0414743
4142	-0.0586765
4143	-0.0638573
4144	0.0963032
4145	0.0313699
4146	0.0502834
4147	-0.00808569
4148	0.00755395
4149	0.0148729
4150	-0.0265602
4151	0.0732511
4152	-0.0372798
4153	-0.0271667
4154	0.0140658
4155	0.0651722
4156	0.0828988
4157	0.00451931
4158	-0.0939296
4159	0.0838888
4160	-0.09196
4161	-0.0576164
4162	-0.0295103
4163	-0.0208552
4164	0.062987
4165	-0.0969558
4166	0.091858
4167	0.0792265
4168	0.008096
4169	0.0718395
4170	-0.037192
4171	-0.045915
4172	-0.023624
4173	-0.0850006
4174	0.0677263
4175	0.0462344
4176	0.00641167
4177	-0.0389008
4178	-0.0667594
4179	-0.0336289
4180	0.0879161
4181	-0.0561711
4182	0.0716067
4183	-0.0746977
4184	-0.010362
4185	0.0364264
4186	-0.0118436
4187	0.0573333
4188	0.0749999
4189	0.00215951
4190	-0.0331582
4191	0.0427391
4192	0.0511988
4193	0.08719
4194	-0.0631958
4195	-0.0325662
4196	-0.0361281
4197	-0.071216
4198	0.0905853
4199	-0.068621
4200	0.0721459
4201	0.0292946
4202	0.0777048
4203	-0.0547547
4204	0.00180336
4205	-0.0689018
4206	-0.0172422
4207	-0.0450186
4208	0.067019
4209	-0.0603773
4210	-0.0637291
4211	-0.0688635
4212	0.0554972
4213	0.024964
4214	0.00702729
4215	-0.00871299
4216	-0.054382
4217	-0.0532019
4218	0.0494258
4219	0.0435819
4220	0.0054216
4221	-0.0929325
4222	-0.0385571
4223	0.0529303
4224	0.0979952
4225	-0.047307
4226	0.0888488
4227	0.0724738
4228	0.0534046
4229	-0.00408471
4230	-0.0744076
4231	-0.0732445
4232	-0.0436306
4233	0.0914231
4234	0.0376488
4235	-0.0168957
4236	-0.0907742
4237	-0.0476846
4238	0.0781945
4239	-0.00441048
4240	0.0994422
4241	0.00231837
4242	0.0496839
4243	-0.0120725
4244	0.0910925
4245	-0.0338829
4246	0.0261929
4247	0.0273002
4248	0.0550522
4249	-0.0389504
4250	-0.0502105
4251	-0.0263574
4252	0.0635364
4253	0.0651173
4254	-0.0149217
4255	-0.0878575
4256	0.0137116
4257	-0.0592329
4258	-0.0135759
4259	0.0579849
4260	0.000119677
4261	-0.0759831
4262	0.0667682
4263	-0.0848759
4264	0.0686967
4265	0.0859769
4266	-0.0660477
4267	-0.0109352
4268	0.069037
4269	-0.0539516
4270	-0.0760403
4271	0.0452419
4272	-0.0752265
4273	0.0576092
4274	-0.0227254
4275	0.0760182
4276	0.0507295
4277	0.00700531
4278	0.0484462
4279	0.0439375
4280	0.0297545
4281	-0.0239798
4282	-0.0844878
4283	0.0364319
4284	0.0640496
4285	-0.00871281
4286	-0.0993584
4287	-0.0108494
4288	0.0959122
4289	-0.0591272
4290	0.0495051
4291	0.0483899
4292	0.0312878
4293	-0.0077363
4294	0.0964692
4295	-0.0979667
4296	0.0554365
4297	-0.049672
4298	0.0943257
4299	-0.0708296
4300	0.00990566
4301	0.0140141
4302	-0.0827751
4303	0.0392756
4304	0.0073149
4305	0.0200021
4306	-0.0458586
4307	-0.0849624
4308	-0.0686154
4309	-0.0674059
4310	-0.0885323
4311	-0.0164157
4312	-0.000563244
4313	0.0949976
4314	-0.0440625
4315	0.0619485
4316	-0.029036
4317	-0.0221193
4318	-0.0489156
4319	0.00898486
4320	0.0578463
4321	0.0348364
4322	0.0380273
4323	0.0604583
4324	-0.0309571
4325	-0.0632286
4326	0.0489062
4327	0.0359432
4328	-0.0531597
4329	-0.0268963
4330	-0.0660911
4331	-0.0491409
4332	0.00983743
4333	0.0421561
4334	0.01948
4335	0.000848562
4336	0.0935435
4337	-0.0749396
4338	-0.0431637
4339	-0.0619342
4340	0.0445472
4341	-0.0243713
4342	0.0456923
4343	0.0632517
4344	-0.041656
4345	0.0314818
4346	-0.0985417
4347	0.023884
4348	0.0992933
4349	0.0737124
4350	-0.0530112
4351	-0.0770188
4352	-0.0744761
4353	0.00247653
4354	0.085446
4355	0.0260913
4356	-0.0839695
4357	-0.0380192
4358	-0.0225588
4359	0.0319855
4360	0.0865814
4361	-0.0242727
4362	-0.0930559
4363	0.0217684
4364	-0.0362273
4365	0.0841133
4366	0.0862345
4367	0.0330056
4368	-0.0488012
4369	0.0427486
4370	-0.0519384
4371	0.0801221
4372	0.0872335
4373	0.0649592
4374	-0.0822147
4375	-0.0417653
4376	0.0889642
4377	0.0288624
4378	0.00545987
4379	-0.0697897
4380	-0.0550149
4381	0.0777111
4382	-0.0643373
4383	0.0246359
4384	0.0324294
4385	0.0898214
4386	-0.0510832
4387	-0.0834054
4388	0.0563772
4389	-0.00228408
4390	-0.0385188
4391	-0.0952454
4392	-0.0290098
4393	-0.0345565
4394	-0.0514157
4395	0.0864865
4396	0.000716745
4397	-0.0869062
4398	0.048204
4399	0.0360839
4400	0.0763354
4401	-0.0646348
4402	0.0017064
4403	-0.0549281
4404	-0.0388358
4405	-0.0474354
4406	0.0433922
4407	0.00201947
4408	-0.00884844
4409	-1.55529e-05
4410	0.0921874
4411	0.0146549
4412	-0.0219292
4413	0.0552353
4414	-0.0920375
4415	0.00773441
4416	-0.0334604
4417	-0.0699644
4418	-0.0936663
4419	0.0284825
4420	-0.00343718
4421	-0.0733802
4422	0.0250134
4423	-0.0777176
4424	0.0710314
4425	0.0709314
4426	0.0276965
4427	0.059012
4428	-0.0695074
4429	-0.0765507
4430	-0.0206372
4431	0.00998013
4432	0.0837373
4433	0.0556323
4434	0.0427705
4435	-0.0608923
4436	0.00526861
4437	-0.0561629
4438	-0.0611849
4439	-0.0812399
4440	-0.0129105
4441	0.0386813
4442	-0.0668154
4443	0.0604528
4444	0.0403135
4445	-0.068228
4446	-0.0419273
4447	0.0440889
4448	-0.0861332
4449	-0.00337238
4450	-0.0914401
4451	-0.0391411
4452	0.0744701
4453	0.0951369
4454	0.0368784
4455	-0.0487807
4456	0.00233473
4457	0.0446209
4458	0.0450619
4459	0.0890927
4460	-0.0729328
4461	0.00930401
4462	-0.0998889
4463	-0.0521179
4464	0.058581
4465	-0.0978554
4466	-0.0493889
4467	-0.0972462
4468	0.0389867
4469	-0.0938148
4470	-0.0581819
4471	-0.00704893
4472	-0.00465163
4473	-0.074115
4474	0.0611023
4475	0.070962
4476	0.0954473
4477	-0.0142328
4478	-0.00886325
4479	0.0768376
4480	0.0797908
4481	-0.0372783
4482	-0.0868946
4483	-0.011643
4484	-0.0762977
4485	0.0346045
4486	-0.0621997
4487	-0.0641727
4488	-0.0792257
4489	0.0174322
4490	-0.00199342
4491	-0.0615455
4492	0.0644111
4493	-0.023753
4494	0.0904396
4495	0.0590651
4496	0.0307999
4497	-0.0624566
4498	-0.0876175
4499	0.0781463
4500	0.0439251
4501	0.00898407
4502	0.0514489
4503	-0.000975553
4504	-0.0590851
4505	0.0163204
4506	0.0578937
4507	0.026915
4508	-0.0778974
4509	-0.0551084
4510	-0.0890599
4511	-0.0426826
4512	-0.0176931
4513	0.022155
4514	-0.0826225
4515	-0.0257197
4516	-0.00605241
4517	-0.0193771
4518	0.0752075
4519	-0.085258
4520	-0.0470741
4521	-0.0452923
4522	0.081163
4523	0.0111703
4524	-0.0322149
4525	0.0925366
4526	0.0420087
4527	0.0230749
4528	0.0425816
4529	0.076381
4530	-0.0561262
4531	-0.00971725
4532	0.0352571
4533	-0.00192846
4534	-0.057817
4535	-0.0157409
4536	-0.0283789
4537	0.0422916
4538	-0.0156537
4539	0.0685056
4540	-0.059112
4541	-0.0106108
4542	-0.0799706
4543	0.0638652
4544	0.0460441
4545	-0.0236042
4546	-0.000821127
4547	0.00708238
4548	-0.0250285
4549	0.000990276
4550	-0.0873269
4551	0.0820712
4552	0.0355374
4553	0.00404728
4554	0.0972456
4555	0.0144868
4556	0.0231387
4557	-0.0736266
4558	0.0821284
4559	-0.0751621
4560	-0.0650774
4561	-0.0724979
4562	-0.0059009
4563	-0.0204937
4564	-0.0616774
4565	-0.0286625
4566	0.0583234
4567	-0.0708565
4568	0.0363378
4569	-0.0540213
4570	-0.0621392
4571	-0.035203
4572	0.0790191
4573	0.0539806
4574	0.0928533
4575	-0.0438839
4576	0.0291095
4577	0.0739901
4578	0.0618876
4579	0.0157698
4580	-0.0118691
4581	-0.00182192
4582	0.0382403
4583	0.0189454
4584	0.067242
4585	0.0569404
4586	-0.0200398
4587	0.0876746
4588	0.0549166
4589	0.0626796
4590	0.0220069
4591	-0.0636323
4592	-0.0982277
4593	-0.0412527
4594	-0.00515214
4595	-0.0824824
4596	-0.0819899
4597	0.0194565
4598	0.0914937
4599	0.0674344
4600	-0.0960803
4601	-0.0316591
4602	0.0809856
4603	0.0125199
4604	0.0387502
4605	-0.0449156
4606	-0.082973
4607	-0.0568962
4608	0.0489952
4609	-0.0222244
4610	-0.0441128
4611	-0.00467443
4612	0.0221011
4613	0.0644133
4614	0.0756851
4615	0.0379763
4616	-0.028025
4617	-0.0506553
4618	0.0660995
4619	0.046373
4620	0.015499
4621	0.0093142
4622	-0.0673265
4623	0.0742026
4624	-0.0844162
4625	-0.063244
4626	-0.0369518
4627	-0.0874837
4628	0.0887344
4629	0.00113264
4630	0.0241923
4631	0.0599646
4632	0.0239361
4633	0.072733
4634	0.0672165
4635	-0.0890651
4636	-0.0912189
4637	-0.0846018
4638	0.0911635
4639	-0.0602759
4640	0.0285825
4641	0.0725161
4642	0.00532569
4643	0.0692393
4644	-0.0177546
4645	0.000457099
4646	-0.0517211
4647	-0.0866977
4648	0.0500123
4649	0.040363
4650	-0.0678026
4651	0.00801814
4652	-0.00300169
4653	0.0472201
4654	0.0615253
4655	-0.00213389
4656	0.0838095
4657	-0.0733668
4658	-0.0328217
4659	0.0508976
4660	-0.0278634
4661	0.0710499
4662	0.0964125
4663	-0.00318108
4664	0.0421102
4665	-0.0986389
4666	0.0521078
4667	-0.0847704
4668	0.0644642
4669	0.0442257
4670	0.0139606
4671	0.0581587
4672	0.0322013
4673	0.01551
4674	0.035915
4675	0.0564396
4676	0.049556
4677	0.00797791
4678	-0.0398433
4679	0.0844911
4680	0.00246358
4681	0.0434963
4682	-0.0484274
4683	-0.0506635
4684	-0.0504556
4685	0.0465729
4686	-0.0603547
4687	-0.0566406
4688	0.0961132
4689	0.0122905
4690	-0.0773232
4691	0.0345889
4692	-0.0235672
4693	-0.0688419
4694	-0.0528271
4695	0.0564449
4696	0.053504
4697	0.0612781
4698	-0.0474693
4699	-0.000979919
4700	0.0762922
4701	-0.077189
4702	-0.0399181
4703	0.0303111
4704	-0.0442155
4705	0.0225642
4706	-0.0782
4707	0.0884268
4708	0.0966843
4709	-0.0814602
4710	0.0929245
4711	-0.012583
4712	0.0134106
4713	0.0316606
4714	0.0972747
4715	0.0491005
4716	0.0640826
4717	-0.0741425
4718	0.0829425
4719	-0.0644096
4720	0.0911986
4721	0.0181388
4722	0.00409952
4723	-0.0190493
4724	-0.0735441
4725	-0.0987262
4726	0.0489551
4727	0.099842
4728	-0.0211259
4729	0.0489705
4730	0.0528147
4731	-0.0929384
4732	0.020824
4733	0.0423844
4734	0.00384419
4735	0.0669304
4736	0.0400712
4737	-0.0176532
4738	-0.000485425
4739	0.00222585
4740	-0.0737113
4741	-0.0261785
4742	0.0581846
4743	-0.00130119
4744	-0.0616056
4745	0.0220105
4746	0.0773518
4747	0.0888083
4748	-0.00212196
4749	-0.0577064
4750	-0.0779719
4751	-0.0814621
4752	0.0226428
4753	0.0975666
4754	0.0615848
4755	-0.0465109
4756	0.0332327
4757	0.0937605
4758	-0.0248163
4759	0.0642717
4760	0.0629163
4761	0.0948502
4762	0.0273333
4763	0.0336349
4764	0.0158568
4765	-0.0626374
4766	0.0788013
4767	-0.0808936
4768	0.0260933
4769	-0.0622256
4770	-0.0111778
4771	-0.0545729
4772	0.00955435
4773	0.0147544
4774	0.0418093
4775	-0.00388114
4776	-0.0380248
4777	-0.0288024
4778	0.0645731
4779	-0.0712643
4780	0.0894841
4781	-0.0111397
4782	-0.0694267
4783	0.0923709
4784	-0.0204585
4785	-0.00910886
4786	0.0259624
4787	-0.0217836
4788	0.0596858
4789	-0.0753471
4790	0.0986558
4791	-0.0771253
4792	0.0368331
4793	0.0302496
4794	-0.050235
4795	-0.0686691
4796	0.0383866
4797	-0.0430666
4798	-0.0783
4799	0.0114208
4800	-0.0254474
4801	0.0117943
4802	0.0313345
4803	-0.0334241
4804	-0.0437273
4805	0.031956
4806	-0.0653376
4807	0.0575438
4808	-0.0718431
4809	-0.00128347
4810	0.0469189
4811	0.0186552
4812	0.099674
4813	-0.0617616
4814	0.00617855
4815	0.0458724
4816	0.0809978
4817	0.0518332
4818	-0.0950219
4819	0.0586207
4820	0.0201071
4821	-0.0572393
4822	-0.0473004
4823	-0.0578781
4824	-0.0387398
4825	0.0489511
4826	0.0380171
4827	-0.0124299
4828	-0.0459721
4829	-0.019088
4830	0.0964586
4831	-0.0886467
4832	0.0764807
4833	0.0768618
4834	0.0517522
4835	-0.081305
4836	0.0170087
4837	-0.0830995
4838	-0.0564118
4839	0.0496423
4840	0.0824721
4841	0.099217
4842	-0.0013996
4843	0.0979246
4844	-0.0524566
4845	-0.0575561
4846	0.0311585
4847	-0.0155101
4848	-0.0222912
4849	0.0982188
4850	0.0247801
4851	-0.0288752
4852	-0.0870747
4853	0.0877164
4854	0.0811147
4855	0.0125454
4856	-0.0321608
4857	-0.0764175
4858	-0.00733246
4859	-0.0136243
4860	0.00299993
4861	0.099737
4862	0.0637072
4863	0.0489532
4864	0.0605803
4865	0.0996307
4866	-0.0152891
4867	0.012011
4868	0.0743722
4869	-0.0678969
4870	0.0360544
4871	-0.0342455
4872	0.0554259
4873	-0.0746826
4874	0.0667528
4875	-0.00708822
4876	0.0141475
4877	-0.0924244
4878	-0.0499079
4879	-0.0580597
4880	0.00585504
4881	0.0858481
4882	-0.0761064
4883	0.0391343
4884	0.0881146
4885	0.0217095
4886	-0.0238625
4887	0.0184114
4888	-0.0605227
4889	0.0471202
4890	0.0590147
4891	-0.0201086
4892	-0.0496678
4893	-0.0650332
4894	0.093289
4895	-0.0634133
4896	-0.0123932
4897	-0.0808153
4898	-0.0298317
4899	-0.0169772
4900	-0.021037
4901	-0.0180314
4902	0.0744339
4903	-0.07886
4904	0.064059
4905	0.0781609
4906	0.0900623
4907	0.0319218
4908	0.0872216
4909	-0.0180205
4910	0.0569045
4911	-0.00770377
4912	0.0169916
4913	-0.0198922
4914	-0.0459067
4915	-0.00497784
4916	0.0582259
4917	-0.0573529
4918	-0.0178812
4919	-0.0947699
4920	-0.0112868
4921	0.0917283
4922	-0.0117847
4923	-0.0817627
4924	-0.0358148
4925	-0.0964393
4926	0.0409197
4927	-0.0826162
4928	-0.064667
4929	-0.02156
4930	0.0451893
4931	-0.0102827
4932	0.0498572
4933	-0.0501838
4934	-0.0594359
4935	0.00538971
4936	0.0563999
4937	0.0384833
4938	-0.0362052
4939	-0.0622076
4940	0.0410831
4941	0.0625542
4942	-0.0996977
4943	-0.0968359
4944	-0.0390512
4945	-0.0849986
4946	0.0920937
4947	-0.0361281
4948	0.0501694
4949	0.0799833
4950	-0.064799
4951	1.27261e-05
4952	-0.029714
4953	-0.0330799
4954	-0.0958836
4955	-0.0362661
4956	0.0641635
4957	-0.0445454
4958	-0.021905
4959	0.0152968
4960	-0.085202
4961	0.066777
4962	-0.0897401
4963	-0.0936316
4964	-0.0481389
4965	0.0385894
4966	-0.0359414
4967	-0.0601374
4968	0.080378
4969	0.044926
4970	-0.0717161
4971	0.0658221
4972	0.0453856
4973	0.0522704
4974	0.0606684
4975	0.073827
4976	-0.0417301
4977	0.037022
4978	-0.034555
4979	-0.0599118
4980	0.00398637
4981	0.0830089
4982	0.0141629
4983	0.0669258
4984	-0.0711727
4985	-0.00868607
4986	0.082579
4987	0.0792353
4988	-0.0856761
4989	0.00554688
4990	-0.0838512
4991	0.0307288
4992	0.0380602
4993	0.079068
4994	0.0019259
4995	-0.0826478
4996	-0.00274053
4997	8.83084e-05
4998	-0.0808239
4999	0.0967519
5000	0.0324174
5001	0.0894858
5002	0.0959036
5003	0.0834541
5004	0.0741342
5005	-0.0263103
5006	0.00657115
5007	0.0567942
5008	-0.0572727
5009	-0.077946
5010	-0.0437605
5011	-0.0336951
5012	-0.0204192
5013	-0.0727227
5014	0.0354404
5015	0.0653158
5016	-0.0749355
5017	0.0275989
5018	-0.0456387
5019	-0.0951118
5020	-0.0770348
5021	0.0932411
5022	-0.0595388
5023	-0.0799368
5024	0.0052041
5025	0.0693106
5026	0.0120756
5027	-0.0795545
5028	-0.0877609
5029	0.0259549
5030	0.0883243
5031	-0.0958116
5032	-0.0894255
5033	-0.0485826
5034	-0.0409961
5035	0.073373
5036	-0.0810078
5037	-0.0427746
5038	-0.0625804
5039	-0.0939154
5040	-0.0464258
5041	-0.0377668
5042	-0.0705695
5043	-0.0388806
5044	-0.0823371
5045	-0.0307813
5046	0.0929016
5047	0.0155844
5048	-0.0598482
5049	-0.00492091
5050	-0.0334598
5051	-0.082987
5052	0.00208857
5053	0.0077182
5054	0.0826292
5055	-0.0703249
5056	0.0718834
5057	0.0833564
5058	0.00455515
5059	0.0288895
5060	0.0813639
5061	-0.0331758
5062	0.0427144
5063	-0.0061621
5064	-0.0524808
5065	-0.0544386
5066	0.042435
5067	-0.023016
5068	-0.0843306
5069	0.0545821
5070	0.0295543
5071	0.0665626
5072	-0.00408103
5073	0.0183553
5074	0.0633594
5075	-0.0396187
5076	-0.0941275
5077	0.0336142
5078	0.0159195
5079	0.0428581
5080	0.0528812
5081	0.0287839
5082	0.0596114
5083	0.0844234
5084	-0.0542311
5085	-0.0404645
5086	-0.0223408
5087	-0.046362
5088	0.0200387
5089	0.0201197
5090	-0.00330579
5091	0.0518458
5092	0.00554602
5093	-0.0772245
5094	-0.0529928
5095	-0.0504057
5096	0.0723605
5097	0.0808191
5098	-0.0495002
5099	-0.0949945
5100	0.0462946
5101	-0.0243367
5102	-0.0562069
5103	-0.058735
5104	0.0566127
5105	0.0682667
5106	0.0375391
5107	0.0709072
5108	0.00618547
5109	-0.0128583
5110	0.0309777
5111	-0.0142691
5112	-0.014305
5113	0.00705803
5114	-0.0113494
5115	0.044278
5116	-0.00406707
5117	0.0781828
5118	-0.0778568
5119	-0.0181708
5120	-0.00850268
5121	0.0258452
5122	0.0764472
5123	-0.0861044
5124	0.0629441
5125	0.0135785
5126	0.0884726
5127	-0.0375142
5128	-0.0892473
5129	-0.0404322
5130	-0.00889695
5131	0.0906338
5132	0.0929244
5133	-0.0788495
5134	0.0694255
5135	0.0904869
5136	-0.0443863
5137	-0.0117566
5138	-0.0630937
5139	0.016618
5140	0.0140134
5141	-0.0271574
5142	-0.0191216
5143	-0.0343666
5144	-0.041503
5145	0.0252206
5146	-0.00679297
5147	0.0913287
5148	-0.0878674
5149	-0.0776482
5150	0.0665954
5151	0.0873913
5152	0.0585244
5153	0.0940671
5154	-0.0174193
5155	-0.0405042
5156	-0.0232791
5157	-0.0569326
5158	-0.00164832
5159	0.0672707
5160	0.083378
5161	0.000409824
5162	-0.0613395
5163	0.0673846
5164	0.0390008
5165	-0.0892243
5166	0.0746393
5167	0.0808883
5168	-0.079037
5169	0.0761653
5170	0.0997613
5171	-0.0979828
5172	-0.0169543
5173	0.0137158
5174	0.00398055
5175	-0.0598717
5176	-0.0523912
5177	0.0556647
5178	0.0646195
5179	0.00586942
5180	-0.0697784
5181	0.00345907
5182	0.0738807
5183	0.0739399
5184	0.0858368
5185	-0.028833
5186	0.0269828
5187	-0.00898882
5188	-0.00438924
5189	-0.032864
5190	0.0681477
5191	-0.0859164
5192	-0.00263439
5193	0.0372049
5194	0.0182724
5195	-0.0775157
5196	-0.0741999
5197	0.0460367
5198	-0.00409655
5199	0.0332827
5200	-0.00169268
5201	-0.0487883
5202	0.0168581
5203	-0.0811316
5204	0.0393655
5205	0.0677668
5206	-0.0904862
5207	-0.0113627
5208	0.0280094
5209	-0.0775064
5210	0.0555579
5211	-0.00568426
5212	-0.0437979
5213	0.0121126
5214	-0.0850252
5215	-0.0448597
5216	-0.0810459
5217	0.059986
5218	0.0533584
5219	-0.0230043
5220	-0.0933032
5221	0.097352
5222	-0.0132339
5223	0.00303872
5224	-0.0813313
5225	-0.0617751
5226	0.0392149
5227	0.0631656
5228	-0.0119283
5229	-0.0683666
5230	0.0589959
5231	-0.00854058
5232	0.00599105
5233	0.0342918
5234	-0.0435313
5235	0.0333509
5236	0.0249346
5237	0.0288451
5238	0.0952622
5239	-0.062416
5240	0.0573728
5241	0.0949916
5242	-0.0862484
5243	-0.0932631
5244	0.0306338
5245	0.0203147
5246	0.0688949
5247	0.0112439
5248	0.0100017
5249	-0.0711138
5250	0.0422855
5251	0.0532902
5252	-0.0399559
5253	0.0711358
5254	-0.0178737
5255	-0.00298036
5256	0.0165858
5257	0.0995319
5258	0.0174983
5259	-0.0508384
5260	-0.0126576
5261	-0.0836297
5262	0.00809042
5263	0.0400201
5264	0.0432897
5265	0.0151641
5266	0.0685807
5267	0.0959113
5268	-0.0671549
5269	0.0557089
5270	-0.00550493
5271	-0.0251205
5272	0.0702867
5273	0.0823831
5274	-0.047296
5275	0.0897376
5276	0.0752396
5277	0.0382983
5278	0.0374916
5279	-0.0249097
5280	0.0714219
5281	0.0142078
5282	-0.097748
5283	-0.0626964
5284	0.015609
5285	-0.0848485
5286	-0.0938875
5287	0.0331398
5288	-0.0616534
5289	0.083196
5290	-0.0587301
5291	-0.0999028
5292	-0.0967143
5293	-0.0642827
5294	-0.0842467
5295	-0.0673658
5296	0.0699535
5297	-0.0292145
5298	0.0721585
5299	0.0746781
5300	-0.0128761
5301	-0.0987097
5302	0.0327714
5303	0.0993444
5304	-0.0623586
5305	0.00525336
5306	0.0978405
5307	0.0522928
5308	-0.0838727
5309	0.0376248
5310	-0.0226872
5311	-0.0952849
5312	0.0580967
5313	-0.0413225
5314	0.0451963
5315	-0.0504733
5316	-0.0793177
5317	0.0288089
5318	-0.0280798
5319	-0.0992151
5320	-0.00892686
5321	0.0938665
5322	-0.0795868
5323	0.0828677
5324	0.065248
5325	-0.0540572
5326	-0.0885905
5327	-0.00690578
5328	-0.0680949
5329	-0.0682373
5330	0.0418829
5331	0.0465457
5332	-0.0742223
5333	-0.0603581
5334	-0.0466707
5335	-0.0380882
5336	-0.0538032
5337	0.0201661
5338	0.00782821
5339	0.0516324
5340	0.0757383
5341	0.0284935
5342	0.0882234
5343	0.0304394
5344	0.0680099
5345	0.0546868
5346	-0.0213445
5347	-0.0168246
5348	0.0622592
5349	0.0375011
5350	-0.0524726
5351	-0.0579557
5352	0.0503586
5353	-0.0844327
5354	-0.097276
5355	-0.0212847
5356	-0.0152859
5357	0.0603731
5358	0.0647848
5359	0.048488
5360	-0.0608668
5361	0.0781376
5362	-0.0176527
5363	0.0474525
5364	0.0518793
5365	-0.0748207
5366	-0.0618103
5367	0.0468068
5368	0.0854536
5369	-0.0735838
5370	0.0901497
5371	-0.0245161
5372	0.0274344
5373	-0.0751575
5374	-0.0263845
5375	0.096952
5376	0.0293365
5377	-0.0762066
5378	0.0769536
5379	0.0374324
5380	-0.0502131
5381	-0.0704548
5382	-0.0558778
5383	0.0629622
5384	0.0623846
5385	0.043712
5386	0.0598663
5387	0.0816654
5388	-0.0783013
5389	0.00152299
5390	-0.0851644
5391	0.0333159
5392	0.0970333
5393	0.0974423
5394	-0.014219
5395	0.091483
5396	-0.0110117
5397	0.0331903
5398	0.00204724
5399	0.0107433
5400	-0.0661593
5401	-0.0545121
5402	-0.0620644
5403	0.0403735
5404	0.0557466
5405	0.0832423
5406	0.0959514
5407	0.0302518
5408	0.038226
5409	-0.0881896
5410	0.0410443
5411	-0.0128896
5412	-0.0960596
5413	-0.052166
5414	-0.0536973
5415	0.0149017
5416	-0.00124884
5417	0.0916759
5418	0.0644473
5419	-0.0315311
5420	-0.0687019
5421	0.00918462
5422	0.0678105
5423	-0.0316802
5424	0.0493812
5425	-0.0233384
5426	0.0487646
5427	0.0139262
5428	0.0330132
5429	0.0485424
5430	0.0374227
5431	-0.0106938
5432	-0.0236335
5433	-0.0558345
5434	-0.0631765
5435	-0.0131477
5436	0.044513
5437	0.0675781
5438	-0.00894079
5439	0.065111
5440	0.00291797
5441	0.0958653
5442	0.0415959
5443	-0.053838
5444	-0.075583
5445	0.0943883
5446	0.00429144
5447	0.0502026
5448	0.0117905
5449	0.0683744
5450	-0.0782375
5451	0.0702696
5452	0.0666022
5453	0.0723408
5454	-0.048602
5455	0.0952546
5456	0.00510149
5457	0.0222903
5458	0.0209224
5459	0.0117753
5460	0.0280086
5461	0.049732
5462	0.00196616
5463	-0.0680233
5464	0.0123744
5465	0.0445168
5466	-0.0846924
5467	-0.0956655
5468	-0.0972243
5469	0.0133323
5470	-0.0775569
5471	0.00143835
5472	-0.0762196
5473	0.0160588
5474	-0.0109716
5475	0.0375445
5476	-0.0187337
5477	0.0309576
5478	-0.0621089
5479	-0.0242463
5480	-0.00937993
5481	-0.0871026
5482	-0.02356
5483	-0.0635508
5484	-0.0999182
5485	-0.0063123
5486	-0.0827032
5487	0.0141563
5488	0.0659563
5489	0.078046
5490	0.0225127
5491	-0.0714361
5492	0.0583975
5493	0.0491464
5494	0.0567617
5495	0.052424
5496	-0.0996564
5497	0.063188
5498	0.00053813
5499	0.0962559
5500	0.0943478
5501	0.0943576
5502	-0.00178685
5503	-0.064992
5504	-0.0709389
5505	-0.0874958
5506	-0.0180685
5507	0.0628582
5508	-0.025075
5509	0.00795576
5510	-0.053674
5511	0.0966151
5512	-0.0127074
5513	0.0577879
5514	0.0234553
5515	0.0779993
5516	0.0315323
5517	0.0240648
5518	-0.059076
5519	0.0481999
5520	-0.0625202
5521	-0.053876
5522	-0.0938361
5523	-0.000449817
5524	0.0438001
5525	0.0410285
5526	0.0617759
5527	-0.0374542
5528	-0.0651285
5529	-0.034253
5530	-0.0996005
5531	-0.0397561
5532	0.0495814
5533	-0.0926849
5534	-0.0207745
5535	-0.0423209
5536	-0.0953746
5537	0.0844698
5538	0.00627037
5539	0.0601969
5540	0.0407102
5541	0.0727133
5542	-0.0318651
5543	-0.0704102
5544	-0.0212823
5545	0.0378401
5546	-0.0989357
5547	-0.00426457
5548	-0.0996383
5549	-0.0716096
5550	0.0942891
5551	-0.0309519
5552	0.0112004
5553	0.0310705
5554	0.00481823
5555	0.013316
5556	0.0419885
5557	-0.0753028
5558	-0.0013423
5559	0.0923422
5560	0.00994784
5561	0.0856688
5562	0.0611269
5563	-0.0590685
5564	-0.019484
5565	0.00265871
5566	-0.00453227
5567	-0.0164308
5568	-0.054506
5569	0.0828244
5570	0.016774
5571	-0.054701
5572	0.0935444
5573	0.0369419
5574	0.0762004
5575	0.0107631
5576	0.0463522
5577	0.0532495
5578	-0.0157202
5579	0.0978639
5580	0.0503598
5581	-0.0466651
5582	0.00924246
5583	0.0475592
5584	0.034421
5585	0.0215087
5586	0.0165382
5587	-0.0193464
5588	-0.086834
5589	0.0547726
5590	-0.07794
5591	0.0141818
5592	0.0768002
5593	-0.0729427
5594	-0.0383674
5595	-0.0110304
5596	0.0791644
5597	-0.0479359
5598	-0.00616083
5599	0.0381248
5600	0.0103525
5601	-0.0552389
5602	0.0627711
5603	0.0948928
5604	-0.0516779
5605	0.0316691
5606	0.027761
5607	0.0395652
5608	0.0241964
5609	0.00317814
5610	0.0880665
5611	0.0918903
5612	-0.0456551
5613	0.0942345
5614	-0.0228058
5615	-0.0763434
5616	-0.0540407
5617	0.0750597
5618	0.0572569
5619	0.0816862
5620	0.0171415
5621	-0.0146537
5622	-0.0634763
5623	-0.0939038
5624	0.0641665
5625	0.0706051
5626	-0.0288176
5627	0.054254
5628	-0.058199
5629	-0.0208053
5630	0.0489449
5631	0.0742594
5632	0.0253938
5633	0.0654774
5634	0.0640795
5635	0.000962115
5636	-0.0130193
5637	-0.0491494
5638	-0.0863037
5639	-0.00490273
5640	-0.0890394
5641	0.0338444
5642	-0.0746144
5643	0.0595356
5644	-0.010237
5645	-0.0545738
5646	0.0417452
5647	0.0447702
5648	-0.0917343
5649	0.042203
5650	0.0141641
5651	0.0324335
5652	0.0597195
5653	-0.0699821
5654	0.0805573
5655	-0.0949685
5656	-0.0603208
5657	0.0584343
5658	-0.0523256
5659	0.0735781
5660	0.0831363
5661	-0.0855701
5662	-0.0342168
5663	0.0764748
5664	0.0567501
5665	0.0816882
5666	-0.0928111
5667	-0.0720486
5668	0.065815
5669	0.0468172
5670	0.0554349
5671	0.046885
5672	0.0404864
5673	0.0492794
5674	0.0235358
5675	-0.00618341
5676	-0.0930972
5677	0.062206
5678	-0.0550499
5679	0.0467691
5680	0.018301
5681	-0.0665203
5682	-0.00635727
5683	-0.0201638
5684	0.0905697
5685	0.0686326
5686	-0.075752
5687	0.0340392
5688	-0.0646658
5689	-0.0100585
5690	0.0923293
5691	-0.00231067
5692	0.0885515
5693	0.024986
5694	-0.016785
5695	-0.0118614
5696	0.0941712
5697	0.051882
5698	-0.0488742
5699	-0.0769812
5700	0.0102202
5701	0.0637352
5702	-0.0332346
5703	-0.0588433
5704	-0.0960997
5705	-0.00787362
5706	0.0366419
5707	0.0643416
5708	-0.0707856
5709	-0.0978507
5710	0.0760419
5711	-0.0912971
5712	0.00598483
5713	-0.0944538
5714	-0.0530708
5715	0.056217
5716	-0.0239654
5717	-0.0995942
5718	-0.029278
5719	0.0102977
5720	0.0619713
5721	-0.0281031
5722	-0.0375062
5723	0.0213074
5724	0.0967803
5725	0.0521391
5726	0.0147344
5727	0.0963772
5728	-0.0589019
5729	0.0680781
5730	0.0662376
5731	-0.0206439
5732	-0.0979558
5733	0.00470236
5734	0.0646058
5735	0.0322939
5736	-0.0123159
5737	0.0986403
5738	-0.0896462
5739	0.0132632
5740	0.0291216
5741	0.0361357
5742	-0.0658285
5743	0.0523214
5744	-0.0550565
5745	0.0782456
5746	0.0508936
5747	-0.0128361
5748	-0.0767815
5749	-0.0290226
5750	-0.0626011
5751	0.0712547
5752	-0.0975564
5753	0.0732426
5754	0.0813713
5755	0.0167777
5756	0.0309006
5757	0.0297755
5758	-0.0669744
5759	-0.0889398
5760	-0.0399862
5761	0.0813096
5762	0.0703426
5763	-0.0262421
5764	-0.087286
5765	-0.0588525
5766	0.00848531
5767	0.0508026
5768	-0.0459118
5769	-0.0374414
5770	-0.00818682
5771	0.0925456
5772	0.0570241
5773	-0.0833497
5774	0.00325239
5775	0.0512995
5776	-0.00749562
5777	-0.0810346
5778	0.0807312
5779	-0.0632193
5780	0.0415992
5781	-0.0522457
5782	-0.0427824
5783	0.0450903
5784	-0.0171929
5785	0.043595
5786	0.0821798
5787	0.0605345
5788	-0.0999711
5789	0.00303537
5790	0.00738015
5791	-0.0205249
5792	0.00800172
5793	0.0227985
5794	-0.0947504
5795	-0.00638559
5796	0.0317334
5797	0.0827721
5798	-0.0379839
5799	-0.0611491
5800	-0.0773022
5801	0.0355172
5802	0.0927768
5803	-0.0940784
5804	-0.0751713
5805	-0.0742608
5806	-0.0529323
5807	0.00543326
5808	-0.0852524
5809	0.0284902
5810	-0.0856248
5811	0.0219815
5812	-0.0751282
5813	0.0792587
5814	-0.0419122
5815	0.0473888
5816	0.0918325
5817	0.0342558
5818	0.0788993
5819	-0.0273206
5820	0.0864371
5821	-0.00563945
5822	-0.0926181
5823	0.0599617
5824	-0.0009788
5825	-0.0105939
5826	0.0834817
5827	-0.0522856
5828	-0.0796703
5829	-0.0469517
5830	0.0701052
5831	0.0647902
5832	0.0875615
5833	-0.0471262
5834	-0.0637055
5835	-0.0464346
5836	-0.0902483
5837	0.0771813
5838	-0.00537876
5839	-0.0396394
5840	0.0423097
5841	0.0554292
5842	0.0243237
5843	0.0928421
5844	0.0272775
5845	0.0900055
5846	-0.0434969
5847	0.0360994
5848	0.0300815
5849	6.12712e-05
5850	0.0617276
5851	-0.0517803
5852	0.0385263
5853	-3.54348e-05
5854	-0.0429577
5855	-0.0096869
5856	-0.0659244
5857	0.0205399
5858	0.0623284
5859	0.0864668
5860	0.0372517
5861	0.0468597
5862	-0.0509158
5863	0.041098
5864	-0.0773558
5865	-0.0777693
5866	-0.0333594
5867	-0.0819988
5868	0.0397793
5869	0.0468906
5870	-0.0669681
5871	0.0833743
5872	-0.0749365
5873	-0.0435593
5874	0.0602264
5875	-0.0744333
5876	0.0496665
5877	-0.0441602
5878	0.0951958
5879	0.0440087
5880	-0.0418877
5881	0.0853966
5882	0.00515916
5883	-0.0876719
5884	-0.00236879
5885	0.0900383
5886	-0.0492023
5887	0.0313876
5888	0.0530249
5889	0.00624067
5890	-0.054751
5891	0.0115482
5892	0.032047
5893	0.00849753
5894	-0.0970161
5895	-0.0134369
5896	-0.00632388
5897	0.00208952
5898	-0.0392627
5899	-0.0853872
5900	-0.0063929
5901	-0.075184
5902	0.0621421
5903	-0.0220944
5904	0.00640337
5905	-0.0569058
5906	-0.0287369
5907	-0.0292016
5908	0.0552281
5909	0.00679313
5910	0.0550533
5911	-0.0478863
5912	-0.012017
5913	-0.00187236
5914	0.0709134
5915	-0.0345337
5916	-0.0918045
5917	0.0205434
5918	-0.0533019
5919	0.0112018
5920	-0.0434683
5921	-0.0473297
5922	0.046815
5923	-0.0924505
5924	0.00986124
5925	-0.0682666
5926	0.0901637
5927	-0.0434098
5928	0.0087186
5929	0.0984595
5930	-0.0988275
5931	0.0922385
5932	0.0752659
5933	-0.0378047
5934	-0.0701855
5935	-0.00779981
5936	-0.022101
5937	0.0435624
5938	0.0834623
5939	0.0487406
5940	-0.00772353
5941	-0.0241503
5942	0.0600434
5943	-0.0968359
5944	0.0866101
5945	0.025757
5946	-0.0314572
5947	0.0828588
5948	-0.0164972
5949	0.00283237
5950	0.0435195
5951	0.0454942
5952	-0.0328248
5953	-0.0834379
5954	0.0519578
5955	0.00932188
5956	0.0470869
5957	-0.0585639
5958	-0.00841313
5959	-0.078962
5960	0.0800601
5961	-0.0545919
5962	-0.0539639
5963	0.054343
5964	-0.073333
5965	0.0295063
5966	0.0611454
5967	0.0780376
5968	0.0987682
5969	-0.0861922
5970	-0.0880782
5971	-0.0176487
5972	-0.0949256
5973	-0.0450286
5974	-0.0214892
5975	0.0349211
5976	-0.05914
5977	-0.0786868
5978	-0.0150551
5979	0.0118554
5980	0.0578087
5981	-0.0111254
5982	0.0744077
5983	-0.0866649
5984	0.0778234
5985	-0.0724292
5986	0.0774926
5987	-0.0882835
5988	0.0059861
5989	0.0138299
5990	0.0146334
5991	-0.0506068
5992	0.0452683
5993	-0.0500465
5994	0.0592492
5995	0.0982637
5996	0.027003
5997	0.0812626
5998	0.0202862
5999	0.057235
6000	-0.0870604
6001	0.0562651
6002	-0.0926964
6003	0.0590487
6004	0.0502799
6005	-0.0109846
6006	-0.0606414
6007	-0.0823647
6008	-0.025372
6009	0.00950662
6010	0.088951
6011	-0.0742457
6012	-0.0768684
6013	-0.0922701
6014	0.0993652
6015	0.0174906
6016	-0.0230594
6017	0.0699353
6018	0.0407277
6019	0.0373973
6020	0.0775931
6021	-0.012681
6022	-0.0622051
6023	-0.0598691
6024	-0.0318584
6025	0.0585957
6026	-0.0254178
6027	0.0769019
6028	0.0159976
6029	-0.0564179
6030	-0.0661962
6031	0.054349
6032	0.0588744
6033	-0.0681791
6034	-0.099627
6035	0.0147617
6036	0.0109616
6037	0.00898857
6038	-0.0863185
6039	-0.0282669
6040	-0.00870966
6041	-0.0619684
6042	0.0163504
6043	0.084109
6044	0.0366105
6045	-0.0603028
6046	-0.0144623
6047	0.0706799
6048	-0.0429055
6049	-0.0183787
6050	0.0690736
6051	-0.0929463
6052	-0.0397202
6053	-0.0796295
6054	0.0971529
6055	0.0667181
6056	0.0482103
6057	0.0793407
6058	0.0894107
6059	-0.0404701
6060	0.0186632
6061	-0.0141493
6062	0.0639555
6063	-0.00746855
6064	-0.0301363
6065	0.0096041
6066	0.0822805
6067	0.020345
6068	-0.00683228
6069	-0.0137846
6070	0.0361883
6071	0.0255907
6072	-0.0638806
6073	0.0689097
6074	-0.0424655
6075	0.0341093
6076	-0.0933802
6077	-0.0625357
6078	-0.0704288
6079	-0.0915623
6080	-0.0934005
6081	0.0801455
6082	-0.0578
6083	0.0166666
6084	-0.0396605
6085	0.0990773
6086	-0.0801661
6087	-0.0526924
6088	-0.0249377
6089	-0.0411352
6090	-0.00035595
6091	0.0753068
6092	0.0523131
6093	0.0479742
6094	0.0907511
6095	0.0137284
6096	0.062437
6097	-0.0332757
6098	-0.0351285
6099	0.0949907
6100	0.0301642
6101	0.0952215
6102	0.0725321
6103	-0.0637779
6104	-0.0391519
6105	-0.079888
6106	0.0791036
6107	0.0825594
6108	-0.00795057
6109	-0.0454017
6110	0.0724251
6111	0.0199753
6112	-0.0665461
6113	-0.0916638
6114	0.0816796
6115	-0.0568212
6116	0.0433735
6117	0.0153482
6118	-0.0174738
6119	-0.0433083
6120	0.0648808
6121	0.0651961
6122	-0.0740392
6123	-0.0851039
6124	-0.0970923
6125	0.00838971
6126	0.0276358
6127	-0.0132603
6128	0.0687583
6129	-0.0373187
6130	-0.01689
6131	0.0459849
6132	-0.0869928
6133	0.0752276
6134	0.0182511
6135	0.0198315
6136	0.0245296
6137	-0.0467375
6138	-0.0995678
6139	-0.00268142
6140	-0.0341722
6141	0.0649247
6142	-0.0136579
6143	-0.06323
6144	0.00669959
6145	0.0175951
6146	-0.0409253
6147	0.00854149
6148	-0.0360669
6149	0.0938809
6150	0.00717525
6151	-0.0595003
6152	-0.0337492
6153	0.031385
6154	-0.0805652
6155	-0.025143
6156	-0.0845116
6157	-0.0388395
6158	0.0298378
6159	-0.0861448
6160	0.0501674
6161	0.0963478
6162	0.0229371
6163	0.0498368
6164	0.0237131
6165	0.060972
6166	0.0468206
6167	-0.0626392
6168	-0.031288
6169	0.00574125
6170	0.0753667
6171	0.0672012
6172	-0.0182072
6173	-0.0869316
6174	0.0929414
6175	-0.0752109
6176	0.0752927
6177	0.072816
6178	-0.00993006
6179	0.0538529
6180	0.037165
6181	-0.0332723
6182	-0.073766
6183	0.0627755
6184	-0.0559041
6185	0.0268677
6186	-0.0902679
6187	0.0807891
6188	-0.0374462
6189	0.0147827
6190	-0.00104864
6191	-0.02425
6192	-0.0225245
6193	0.0106734
6194	-0.0277364
6195	0.0383264
6196	0.00349443
6197	0.025933
6198	-0.0998358
6199	-0.0504015
6200	0.0539494
6201	-0.0738083
6202	-0.0989961
6203	0.039765
6204	-0.0804661
6205	0.0641743
6206	-0.00119735
6207	0.024324
6208	0.0585981
6209	0.00242723
6210	0.085444
6211	0.0980198
6212	-0.0201249
6213	0.0192362
6214	-0.0286964
6215	0.0383659
6216	-0.040935
6217	0.00775209
6218	-0.0715236
6219	0.0481145
6220	0.00391337
6221	0.0951823
6222	0.080761
6223	-0.0118014
6224	-0.0397499
6225	-0.00285141
6226	0.0141806
6227	0.092434
6228	-0.0227123
6229	0.0805803
6230	-0.0294623
6231	-0.0956925
6232	-0.0549864
6233	0.00232656
6234	0.0485728
6235	0.0913691
6236	-0.0358957
6237	-0.0944343
6238	-0.0131475
6239	-0.090609
6240	-0.0854374
6241	0.0508835
6242	-0.0344929
6243	-0.0655297
6244	-0.0372022
6245	0.0871891
6246	0.0530166
6247	-0.0946851
6248	0.0412129
6249	0.08329
6250	-0.0219619
6251	0.00528917
6252	0.00183879
6253	0.0870416
6254	-0.0709672
6255	0.0208746
6256	0.0200752
6257	0.0414032
6258	-0.017116
6259	0.0728357
6260	-0.00340833
6261	0.0555198
6262	0.0835151
6263	-0.0363933
6264	-0.0140056
6265	-0.0951259
6266	0.021958
6267	-0.0195935
6268	0.0311389
6269	0.00850557
6270	-0.0208577
6271	0.0317986
6272	-0.0817577
6273	0.00990388
6274	0.0561037
6275	0.0884058
6276	-0.095415
6277	0.0294546
6278	0.00354198
6279	-0.0686139
6280	-0.0281481
6281	-0.0817928
6282	-0.014239
6283	0.0224549
6284	-0.0466047
6285	-0.0245952
6286	-0.00939081
6287	0.0893904
6288	-0.0867254
6289	0.0461299
6290	-0.0374806
6291	0.0168173
6292	-0.0422436
6293	0.0117431
6294	0.0723026
6295	-0.0197242
6296	-0.0265178
6297	0.0106621
6298	0.00304051
6299	0.0169908
6300	-0.0361411
6301	0.08655
6302	-0.0857358
6303	0.0387149
6304	0.0205242
6305	-0.068868
6306	0.0595284
6307	-0.00441664
6308	-0.0935854
6309	-0.0304729
6310	-0.0948404
6311	0.00342768
6312	0.0686006
6313	0.08532
6314	-0.028097
6315	0.0514075
6316	0.0798554
6317	-0.00611309
6318	-0.0485452
6319	0.0797113
6320	-0.00935906
6321	-0.0514653
6322	-0.0155511
6323	0.0955946
6324	0.0140326
6325	-0.0294676
6326	0.0781944
6327	-0.0589062
6328	-0.0516769
6329	-0.00605672
6330	0.017576
6331	0.0608775
6332	0.0788915
6333	0.0377344
6334	-0.0919735
6335	-0.0440565
6336	-0.0732296
6337	-0.0960202
6338	-0.0794211
6339	0.0652878
6340	0.05368
6341	0.0615215
6342	-0.0143269
6343	0.0797977
6344	0.0276152
6345	-0.0894486
6346	0.00520868
6347	0.0716558
6348	-0.0767002
6349	-0.0502305
6350	-0.0624757
6351	0.00855336
6352	0.0307203
6353	-0.0188623
6354	0.0198376
6355	-0.0182751
6356	0.08603
6357	-0.0994651
6358	-0.0366254
6359	0.00692847
6360	-0.0738663
6361	0.0654169
6362	-0.0483098
6363	-0.0301371
6364	0.0485478
6365	0.0619752
6366	0.00111572
6367	0.0136596
6368	0.0957992
6369	0.0931138
6370	-0.0934642
6371	-0.0450522
6372	0.0954858
6373	-0.0697976
6374	0.0270666
6375	-0.099787
6376	0.032401
6377	0.0110872
6378	-0.0563577
6379	-0.00551363
6380	-0.0688234
6381	0.0959655
6382	-0.0275233
6383	0.0203087
6384	0.0669907
6385	0.0896406
6386	0.0780224
6387	-0.0126961
6388	0.0422587
6389	-0.0375196
6390	-0.000943898
6391	-0.0354785
6392	0.0370132
6393	-0.0363783
6394	-0.0765554
6395	0.0418863
6396	-0.0200782
6397	0.00367799
6398	0.0923041
6399	0.0333862
6400	0.0142957
6401	-0.0701516
6402	-0.0201156
6403	0.0475794
6404	-0.0711513
6405	-0.0256038
6406	0.0391045
6407	-0.0318738
6408	-0.0573616
6409	-0.0154013
6410	-0.0351231
6411	0.00689724
6412	-0.0540862
6413	0.00287659
6414	0.0836931
6415	0.019957
6416	0.0255365
6417	-0.0523881
6418	-0.0581445
6419	0.0296237
6420	0.0473941
6421	-0.00613875
6422	0.0190058
6423	0.0139921
6424	0.0672387
6425	0.0353891
6426	-0.0368957
6427	-0.0756779
6428	0.0591845
6429	-0.0832644
6430	-0.0790666
6431	0.0356913
6432	0.00456994
6433	0.0391944
6434	-0.00312251
6435	0.0714701
6436	0.0885827
6437	-0.0010649
6438	-0.0560572
6439	-0.0240328
6440	-0.0082322
6441	0.088486
6442	-0.0208088
6443	-0.041411
6444	0.0429054
6445	-0.0902977
6446	-0.0584382
6447	0.0862837
6448	-0.0203751
6449	0.0672514
6450	0.0111834
6451	-0.0569692
6452	-0.00596753
6453	-0.0117033
6454	-0.0431099
6455	0.0277047
6456	-0.0231087
6457	-0.094775
6458	0.036755
6459	-0.0545455
6460	-0.0938264
6461	0.0916628
6462	0.0756799
6463	0.03105
6464	-0.0650227
6465	-0.0605339
6466	-0.0949895
6467	0.0107339
6468	-0.0872958
6469	-0.0238019
6470	-0.0528909
6471	0.029525
6472	-0.0193611
6473	0.0808627
6474	-0.0603119
6475	0.0633085
6476	-0.0679945
6477	-0.0546309
6478	0.00272695
6479	0.00760292
6480	-0.00599613
6481	-0.059116
6482	-0.0894263
6483	-0.0990576
6484	0.00410244
6485	0.0629331
6486	0.000979721
6487	0.0913788
6488	0.0582225
6489	0.0938417
6490	0.0504317
6491	0.0101566
6492	0.0330772
6493	-0.021777
6494	-0.00229705
6495	-0.0195591
6496	-0.0597152
6497	-0.0182375
6498	0.0570888
6499	-0.089968
6500	0.050575
6501	0.0237324
6502	0.0632003
6503	-0.0416793
6504	-0.000781151
6505	-0.0628018
6506	0.0644762
6507	0.0906449
6508	-0.0504062
6509	0.00376602
6510	-0.0718218
6511	0.00867127
6512	-0.0453583
6513	0.0348646
6514	0.0938519
6515	0.0262592
6516	-0.0726263
6517	-0.0503453
6518	0.0983862
